-1.451796869508965138e+00 1.332541906330231507e+00 7.141701175071969443e-01 2.665536481410961667e-01 -1.301838755805792003e+00 -7.714464027476284347e-01 5.198482720829208370e-01 -2.276237348908498326e-01 -8.776413668816988034e-01 8.511066292757698548e-01 -1.956868572810736229e+00 8.891151183673222658e-01 -1.718215530500893262e+00 -2.536418780303942300e-01 -4.352943013273972706e-01 -1.306483110349681009e+00 -1.569502630398609266e+00 -1.568750253296120833e+00 -1.392733549626426148e+00 5.792765475312978973e-02 1.344985491693968749e+00 1.434078219521685682e+00 4.219157633075726679e-03 -9.031576835191708064e-01 -3.136560422069760157e-01 7.051243383948956334e-01 -6.671473520976747285e-01 -9.189617785157119245e-01 -2.338164994634590599e+00 7.661074475045517862e-02
-1.916161697555350263e-01 6.667341667224858659e-01 -4.056132817084172615e-01 7.934340235749793857e-01 2.882993778071994417e-01 -3.041229295215079009e+00 6.358111172055563864e-01 -2.404104938041623285e+00 7.273038934776101909e-03 -1.954287213083728103e+00 1.641488895968377104e-01 -7.674967880986390822e-01 -1.460413620606287322e-01 1.977003168969900138e+00 -1.198536889853083931e+00 -7.516374190869733463e-01 -1.418554638415546292e-02 3.716880174108274648e-01 1.419336857317207712e-01 -7.159915182458695959e-01 -7.655740578288152687e-01 6.722438695180342483e-02 1.086713544057024139e+00 -1.613215376897192688e-01 7.407901757262143061e-01 -8.001289460512760465e-01 1.686135340472373345e+00 -1.412259410344206101e+00 -4.806562767878024833e-01 -1.809657612331219134e-01
-1.192274420167805271e+00 -6.528860259653970211e-01 2.655138147812620697e-01 -6.037055505052818516e-01 9.905402680183231778e-01 -9.061073082868369433e-01 3.337536880094686964e-01 1.269897102397323119e+00 -7.443989717960297625e-01 4.800634412336601264e-01 8.253999994861752620e-01 -3.303924315801146427e+00 -7.842673599876334722e-02 -7.827300560401445617e-01 -1.700526303442041698e+00 1.082445367512579137e+00 -7.568669551354110236e-01 -6.213587960372132096e-02 6.313691696390469899e-01 -1.927464366288817565e+00 1.181209061317850084e+00 2.062000360605735771e+00 -2.996762383004588415e+00 -1.506479189881702929e+00 7.081150204630878298e-01 -6.835814690480780387e-01 -1.269818064982082051e+00 4.791865464052623771e-03 3.116565729315819988e-01 -1.188003410769808088e+00
1.358654702333905506e+00 -3.210938707608592541e-02 8.599485939539927015e-01 -4.092295146032123854e-01 -2.748667045113331486e+00 1.387876438453845562e-01 -1.829907981324407074e-01 -1.117111172356784587e+00 -9.066198004127563603e-01 5.032007792984926065e-01 3.095065555019365644e-01 -1.944742745421762953e+00 8.479075167708585159e-01 -1.021764770759898910e+00 7.644242081404706290e-01 -1.988115827713061501e+00 1.214412005023285390e+00 1.580960109915536815e+00 1.341742332324018516e-01 2.963242206877744755e-01 -1.759287797705722189e+00 -1.664586558894935342e+00 1.192803267049071581e+00 -2.189580081031793579e+00 -2.214011170260219430e+00 6.264117680170966374e-01 -7.494661891950297194e-01 -1.217641177352590809e+00 3.060194934808604939e-01 -2.366838056921800160e+00
9.078014551050046510e-01 -1.141465476445075344e+00 -9.839261301746644595e-01 -3.083232790137886425e+00 -4.872337608201749437e-01 -1.221474431719976161e+00 -1.449855519913799684e+00 -2.822711100427015007e-01 -7.479253380715930044e-01 -1.969937609106666043e+00 -9.913810608194201235e-01 3.440897339992498583e-01 7.186413462021877807e-01 1.263076224976538819e+00 7.492618195728103503e-01 8.493194911876155162e-01 -8.719682970238405995e-01 -1.546586457529324665e+00 1.468522725710366128e+00 1.456295394096728923e+00 7.407225408566142644e-02 -1.063849887016795170e+00 -6.717617028747975283e-01 -1.575657697205818275e+00 1.248505834353467181e+00 1.272068232316929566e-02 -1.743553537962656330e+00 1.298726277564103970e+00 -1.708672637379232917e+00 -2.628938766346943998e-02
2.315845044893094506e+00 -1.208031033648736763e+00 -2.312749024841023182e+00 -1.183882436205477395e+00 -3.421200556511005964e-01 -1.086878012032969076e-01 1.226945203519932637e+00 -1.918340267238833663e+00 -6.614242997560821902e-01 -8.430711138280469474e-02 1.901119183541404967e+00 -1.396516243213809405e+00 -3.256892786195323630e+00 -1.314479616602495682e+00 4.195160799746701086e-01 -9.345635005575632093e-01 2.148991485843628091e+00 -1.187131517911498069e+00 -7.087753133152729923e-01 1.083881092039095551e+00 -1.317808470328380555e+00 4.642598266771910676e-01 -4.714447243551915800e-01 8.900975076482887660e-01 1.001267460002833509e+00 -2.349752776571112811e+00 2.878244073917948787e-01 1.880791435790816424e+00 2.108040662618155814e-01 2.492952427267444371e+00
-1.196178963836789233e+00 1.972095657437441807e-01 -1.183317448708989250e+00 -2.190801340931034513e+00 3.359108681942271635e-01 -2.797201976356942232e-01 -2.239263924239910608e+00 -3.114100102712470952e-01 -3.891337430056114322e-01 8.989570841180399841e-01 -8.943991737365733496e-02 1.742361111458015310e+00 -8.561758935452283836e-01 -7.937531744699799496e-01 -2.629433593691813620e+00 -2.252045226482597140e-01 -5.586125890043710518e-01 9.614473802391031443e-01 -2.463139240809336106e-01 3.844842678793732316e-01 1.249241490445238467e+00 -2.139090539542876535e+00 -6.557304956985277045e-01 9.306551711459726262e-01 -5.547286993723530291e-01 -6.906466518885691075e-01 1.561273523923611295e+00 -2.094777501289800892e+00 6.944233323578850037e-01 -4.870374519494022891e-01
-6.644898204124904950e-01 -1.379704863403573345e+00 -4.861295019365782094e-02 -4.830315629446686743e-02 -4.999989892628950994e-01 -5.686396194170364460e-01 -3.260927292561323076e-01 4.376005412830203389e-01 2.680650020222294927e+00 -1.769592140176872386e+00 -1.027670188896298464e+00 -4.945015723780208372e-01 8.772732965884161294e-02 -8.573216105463322689e-01 3.997481021485892461e-01 9.688910304676817686e-01 -1.618103999744651800e+00 1.359276910027766405e+00 -1.993443857855817514e-01 9.081373558341506724e-01 -1.372020208620529980e+00 9.110940473420341412e-01 1.410911880328636014e+00 1.176241660210088497e-01 -2.136717163522428464e+00 -2.205120908475354025e+00 4.173782829334276023e-01 9.183088109486114980e-01 -1.893483363099349726e+00 1.454436858736697091e-01
-2.955112049759180071e+00 -1.417609551358777420e+00 -1.931375500177959115e+00 -2.242819413297094180e-02 1.301332670212356435e+00 4.903325206495888211e-01 1.690687409442898526e+00 -9.194304377134249195e-01 -6.686387158649003126e-01 -2.165481518885719464e-02 -2.257154780905052949e+00 1.599110365451949844e+00 8.411065445887812020e-01 -3.019233270101667532e+00 5.942279713484167614e-01 -1.459945591898615058e+00 -1.044661672489795301e-01 -1.540234900935271378e+00 1.034832519225957981e+00 -1.922184339855642188e+00 -1.976238779319220873e+00 -1.119018666109222737e+00 -9.691835652819554836e-01 -6.480437349101783595e-02 4.615829924285378971e-01 1.522422428087201185e-01 -1.800586548473277926e+00 -2.499098694769221307e+00 -1.680718407604434028e-01 -2.107096879724591254e+00
1.864014163935184265e-01 -8.235773003253989977e-01 5.644003092949682054e-01 2.332297589681305183e+00 6.299414458709316766e-02 -9.632693710715235502e-01 -2.699682878348923509e+00 -6.884727999056665659e-01 -2.235003630851406520e+00 -8.326437578417251739e-01 -1.002719053290580975e+00 9.835762491417313069e-02 4.196954840546766596e-01 1.406026365403136635e+00 -4.699695736341878427e-01 -7.695547571278565924e-01 9.980716217238105870e-02 -1.657731065117305613e+00 -2.978249670041001274e+00 -3.003462454115215952e+00 1.031339645194992105e+00 -1.645260749295167191e+00 -7.767818805225181755e-01 1.061205497249999574e+00 -1.626524111351010493e+00 8.326315801273089789e-01 -9.435518526712907139e-01 5.202785892352049801e-01 1.457551982481591457e+00 7.135162158775902874e-01
