-1.540992638495052747e+00 1.450779841852992247e+00 5.785062556712339266e-01 -1.192704389400937523e-02 -1.401845109083795338e+00 -8.735530219997050816e-01 2.987391355549543492e-01 -2.752314517353842138e-01 -9.165327202959208108e-01 8.837894458239122786e-01 -2.138033727430889819e+00 9.278946472769873388e-01 -1.673308876648553989e+00 -2.390460004974374331e-01 -5.694471665677105499e-01 -1.228999988142156718e+00 -1.669980920490113485e+00 -1.545187839166052735e+00 -1.357184698625095054e+00 -2.517423429686120873e-01 1.314966603078353558e+00 1.524273782637778796e+00 -7.649829434743156409e-02 -9.566527006992655568e-01 -4.613207485923714324e-01 7.707788410838022353e-01 -6.007190726458327967e-01 -9.254108467221566769e-01 -2.329243066948861074e+00 -6.693317342064643294e-02
-8.475878933118977110e-02 8.191042952815967837e-01 -2.504717949462638704e-01 9.625477928826869922e-01 2.844435353377980369e-01 -3.218467368555093522e+00 7.977022406194382853e-01 -2.454994408598644817e+00 9.655919796482009820e-02 -1.955861706817053625e+00 3.503281429512918876e-01 -7.838080182392455075e-01 -2.506409279304219750e-01 1.763781795174726552e+00 -1.295630100813724317e+00 -6.680858276051638844e-01 -9.129603520219427282e-02 2.695196595865559930e-01 -2.582496956509006680e-01 -4.167370377369217227e-01 -6.463444779359911463e-01 2.696514039745629560e-02 1.175806546611444015e+00 -1.405238642196091348e-01 9.020194582903688918e-01 -6.557194662709213695e-01 1.720512197021180079e+00 -1.557922618092376865e+00 -5.937536689509800292e-01 -1.558353519653851438e-01
-1.322233543215453055e+00 -6.721006708259147366e-01 4.626623249437420982e-01 -6.725354326500352364e-01 1.168415893755497148e+00 -9.843398195676104079e-01 1.543393169848102098e-01 1.834765679937537586e+00 -6.605335943162455870e-01 5.457876269201509256e-01 1.080239794121757635e+00 -3.123662104961309804e+00 -1.876075351448601991e-01 -8.009256987163871910e-01 -1.620289279673424288e+00 9.808167639712825903e-01 -5.493400557822970542e-01 1.903856992086648200e-02 5.485272279704430654e-01 -1.884468261315390247e+00 1.132842147054908155e+00 2.119833455287289947e+00 -3.098974881409542803e+00 -1.694825960409420462e+00 7.267317707972659191e-01 -6.552748726515196243e-01 -9.421217330926635602e-01 -1.217881033779763672e-01 5.013675914621000818e-01 -1.408022790509537936e+00
1.572497395565077172e+00 -5.843276027620983998e-02 8.129760382534484409e-01 -3.588565690661612573e-01 -2.849565213495901084e+00 3.155265818451278292e-01 -1.305432276174476880e-01 -1.005299177441073777e+00 -8.104497453762591341e-01 5.604630756797807090e-01 2.517564926277264803e-01 -2.035714338940829649e+00 8.404524612853289112e-01 -9.802834372637677651e-01 8.673513031080865021e-01 -1.904605639535161155e+00 1.514938663901546523e+00 1.748518219021482967e+00 2.109814666124922578e-01 4.334881337481465979e-01 -1.774625888226702974e+00 -1.471782297736495382e+00 9.595061914069189513e-01 -2.153174548566552104e+00 -2.104356725374086690e+00 6.300536355974165614e-01 -7.282005024826470052e-01 -1.167416952223344628e+00 5.024626816032983223e-01 -2.637671348589381459e+00
9.635593878860609918e-01 -1.100509628252853478e+00 -1.103797412606032147e+00 -2.795013263551124894e+00 -6.082218786177271408e-01 -1.419481815272441994e+00 -1.423369495478303159e+00 -1.906737433257305325e-01 -6.017578051766244718e-01 -2.085583458704065585e+00 -1.063268055998187522e+00 3.748976611609944332e-01 7.277362521687851249e-01 1.257465473725104976e+00 6.412717164979534479e-01 8.958609975612792375e-01 -9.875079273517647360e-01 -1.638998030975201914e+00 1.182207292574651625e+00 1.289324376891485935e+00 1.571489434705913152e-02 -1.129301109956209581e+00 -5.109449937012481291e-01 -1.566595200146475131e+00 1.223238097406393887e+00 2.010957653112122739e-02 -2.191211280297717501e+00 1.484460970403809199e+00 -2.148140412989659964e+00 2.706100263477416723e-01
2.445582103372912819e+00 -1.141057236486757276e+00 -2.318520037795832156e+00 -1.361488139629408067e+00 -4.419760905728533640e-01 2.562553513803872973e-01 1.066775092468868813e+00 -2.339230519864280211e+00 -7.334709322421685274e-01 -2.248006989560293600e-01 2.138212670960219608e+00 -1.457374954864993244e+00 -3.114902487353464089e+00 -1.252020866438629421e+00 3.047946810280137142e-01 -9.008308262657098719e-01 2.408322825180625237e+00 -1.076466275092996083e+00 -5.945029295820424275e-01 1.031166762521898983e+00 -1.233663573997814122e+00 3.611305576354383318e-01 -5.053748694897133298e-01 9.404298035234673891e-01 9.804865791393470031e-01 -2.292389646253418345e+00 4.006190231031864779e-01 2.177297686194253679e+00 3.818889582073194955e-01 2.599500179011807521e+00
-1.412289196268993408e+00 1.078259902352122629e-01 -1.270225084937787630e+00 -2.109858006871133895e+00 5.205154448966329284e-01 -3.438115926911162745e-01 -1.965378309051518002e+00 -2.400090073369276766e-01 -3.794041954829444063e-01 9.497466960286148341e-01 -2.129616124549490730e-01 1.742593458312471588e+00 -1.040462376615411744e+00 -7.193050994780150198e-01 -2.666198603774443399e+00 -3.463234455918823840e-01 -6.391855169801285985e-01 7.419347403975220523e-01 -1.036141379208601748e-01 2.098741577451197493e-01 1.431696334623848266e+00 -2.210145977434541997e+00 -4.918120680549927792e-01 9.460356235073750231e-01 -5.753121178673008540e-01 -1.019638994742821270e+00 1.385719829746075771e+00 -2.321038239725325525e+00 7.047688336358007843e-01 -4.911674504018153087e-01
-8.391226396498194795e-01 -1.447732445928067380e+00 6.998933511290786336e-02 -2.267763715920688514e-03 -5.200733250395358498e-01 -6.162300043124536719e-01 -5.284821712697688190e-01 5.657992441123748106e-01 2.517511015741499492e+00 -1.903093975934866178e+00 -1.194518829510078595e+00 -5.836284186585378730e-01 8.000556685282615710e-02 -4.902699333628239842e-01 6.417055143051625388e-01 8.756349446119512381e-01 -1.641114011696942487e+00 1.481173528676097195e+00 1.829240408544469954e-01 1.051992003642512330e+00 -1.323534734043910754e+00 7.335605831993856629e-01 1.464068167644255292e+00 8.811039578860441202e-02 -2.299131947719323499e+00 -2.119321797183997713e+00 4.859819961231519048e-01 1.012345245643248681e+00 -1.942091140731752041e+00 2.888648800450223653e-01
-3.225928933470605831e+00 -1.510388970367420924e+00 -2.182329753653752480e+00 -1.111091632735644041e-01 1.320771371028898855e+00 7.245398190201536304e-01 1.781021234338549197e+00 -1.215709737265006973e+00 -7.021751827534385981e-01 -7.369442614557636904e-03 -2.247120889952646028e+00 1.680161391718083541e+00 8.442906415016833144e-01 -3.230138463329002896e+00 5.581957254931058099e-01 -1.381248027065107298e+00 -3.511305157138200905e-01 -1.440292663561685949e+00 1.232864376730268718e+00 -1.920451904237052032e+00 -2.239570707510437408e+00 -9.372658834852584109e-01 -9.685204181696821513e-01 -5.348884637321874719e-02 5.360473565197717560e-01 1.219479430737421405e-01 -1.654736974069229039e+00 -2.371780314943834789e+00 -2.681199855425883682e-01 -2.183751137858350955e+00
5.609211788929063802e-01 -9.063864146591893434e-01 7.396486296910316227e-01 2.311209868356074448e+00 1.267540939570796776e-01 -1.071892392649261838e+00 -2.541643976179977837e+00 -8.406837052635920404e-01 -2.352608845544019278e+00 -6.621722742806240847e-01 -1.089692931283587241e+00 2.449296647360513571e-02 6.337631948585169539e-01 1.293923612986479954e+00 -3.683362703664787019e-01 -8.570677921534094468e-01 -2.420203776547551547e-02 -1.848437565606573019e+00 -3.158537452273036727e+00 -2.924498581506276729e+00 1.012438031545868089e+00 -1.710417810305250308e+00 -7.942722831596561450e-01 1.189267076841140192e+00 -1.613777426338849796e+00 7.993546404533081740e-01 -1.097355474064872993e+00 2.714115895756643027e-01 1.582266545107511302e+00 8.566982928477435699e-01
