9.218013465957894392e-02 7.788247738863901537e-02 2.069485504346083027e-02 -6.172535270743265134e-02 -1.369383849055530455e-02 -6.174603144422932677e-02 -4.642542956003553600e-03 8.578116532308499576e-02 -6.204940337033593156e-02 -3.422797249547593346e-02 6.529721663082321825e-02 -8.104431854995347573e-02 3.462743382331866238e-02 1.587080390067569218e-03 1.523912843863267294e-02 -1.649907998165215176e-02 2.016328787306280457e-02 6.377698090276770482e-02 -6.990103655374849123e-03 -2.758746649893772940e-02 -4.124771346053830723e-02 -6.802853970799899175e-02 -1.063266560327216781e-02 -1.915645650919710341e-02 -4.752181094285421598e-02 -1.684613971323271897e-02 4.913807116360977001e-02 -7.572716384747474327e-02 -8.049765122456727096e-02 1.603406732292658732e-02 2.491331372094104935e-02 4.859238220027958799e-02 7.120968075497349781e-02 9.604322727906745849e-02 8.315142222613201850e-02 -9.215894545426381312e-02 -1.033287300377583595e-01 5.042621115015631650e-02 1.950669454434755812e-02 5.502337731947192639e-02 6.128371591358325321e-02 5.722699572751230269e-04 -2.976256130552476856e-02 -6.404717232659202543e-03 9.249318519537516603e-02 -8.438068357079211990e-02 -7.731534771449255494e-02 -7.500558484658478853e-02 1.540111283797872266e-02 -8.778955678015032404e-02 -6.315520785582810770e-02 3.467198555122817660e-02 -7.182402522122946498e-02 4.487846748038964995e-02 6.466380763639309470e-02 -9.859959025866021909e-02 2.212875183072919583e-02 -9.894013017471531279e-03 -2.710990807929264043e-02 -8.604187453980795264e-02 3.591187732463873433e-02 -4.770860648556640715e-03 -5.680366344063106365e-02 -1.057168793230047338e-01 -3.075698864834733315e-02 1.741276158984392253e-02 6.065878234577976036e-02 -1.088902085770884903e-01 -1.367594209697958196e-01 -1.687030161319002797e-01 -3.435979453720671567e-02 -3.155969118659689827e-04 5.671340200755583573e-03 -7.289503579650843945e-03 8.485685784251358055e-02 -6.007144031280117064e-02 -4.912961294390182782e-02 -3.457693420973275561e-02 5.308321735899609872e-02 8.086548168555156291e-02 -9.283542868732903852e-02 2.010242394862750415e-02 2.819562746265019682e-02 -4.919212961453949678e-02 2.017540400775910681e-02 4.208486808955066993e-03 2.656910619996709355e-02 6.596051967419093442e-02 7.617237907918736339e-02 1.821437369253051802e-02 -7.861597312214002597e-03 7.623693408100784899e-03 -6.015231699975347873e-02 -4.019735119173698662e-02 -1.031683640710092942e-01 -6.889204241714467353e-03 -1.014284404198914982e-02 -1.738786499655554929e-01 -7.874606761426618251e-02 -1.462260170168326046e-01 -7.037295935391504886e-02 -4.985610997037812075e-02 7.631791333964571544e-02 5.364506374072850609e-02 9.266340741235405687e-02 3.974032611892593103e-02 1.040167735605460331e-01 5.156854829613596175e-02 5.931416419871774620e-03 5.677489854157391491e-02 6.153250080621956025e-02 -4.666637401595639251e-02 -7.955285460927780106e-02 -6.467121560054395202e-02 -4.657539556507182821e-02 6.203740649207972746e-02 -4.392120471197285408e-02 5.022524752748323135e-02 3.688771086081547856e-02 2.894452445441189625e-02 1.115346302087751595e-01 -9.800140890056616150e-02 -1.103653034586750958e-01 -5.954976839586752224e-02 -9.779053496313831750e-02 -1.852340036520689348e-01 -6.863801425913758358e-02 -9.802248978691778178e-03 -7.450333810828943526e-02 -1.177176433567062586e-01 5.264657088995568918e-02 -1.514238106787447469e-01 -1.518104721389278156e-01 5.789469122390697615e-03 1.183243779573693727e-01 7.894909029428043290e-02 1.109549266784225566e-02 9.974170688584858835e-02 3.958490432600505343e-02 -8.459592923737572698e-03 9.922674657324159764e-02 2.192332255293172327e-02 8.267284899297941414e-03 -4.724255400928326076e-02 7.256389666371977631e-02 -6.091076371960042757e-02 -4.548688637934700935e-02 3.046612243487824279e-02 1.398105537914723362e-01 1.020644251982559814e-01 7.580484039877538605e-02 -4.528519459995872243e-02 -1.452623447281843443e-02 2.396364371772877547e-02 -4.306360945736432966e-02 9.119609250413137150e-03 1.820716263664638457e-01 6.404225441031163868e-02 -3.442308628206187243e-02 -6.636799652349149869e-02 9.072347537897580694e-02 -2.977744175849431768e-02 7.473715760426691279e-02 1.647268537501707930e-01 1.727376205173562496e-01 9.037279173212768579e-02 9.873987455030836663e-03 -9.290692644566098113e-02 3.112312498234812153e-02 -7.292580863602786401e-02 6.327366459674360621e-02 -3.575629770419437321e-03 6.903662150383664542e-02 1.122746693645882421e-01 7.820114846227027572e-02 3.996059426084031668e-02 -7.709122931979672799e-03 9.760421900676577445e-02 9.588581728586708861e-03 -6.313759433632371021e-02 -1.029276808947460729e-02 -1.836966953573946487e-02 6.687252169455824846e-02 -1.290669201386184517e-01 1.760299228966972357e-02 1.133051079306924280e-01 1.991231464174004345e-02 8.452610921784317610e-02 3.461933375004028202e-02 3.084587847556655160e-02 -1.095483276473421808e-01 1.259390467037853900e-01 1.979966499926529566e-01 1.367713396245809621e-01 8.406648831624773111e-02 -7.993778523418612614e-02 -7.429658649249336333e-02 -1.986797758201559044e-02 2.165983296930835272e-02 -4.276859587700151261e-02 -2.985617823548121844e-02 1.005279954571037526e-01 -2.125885388623411157e-02 1.307608166728499444e-01 7.079634643559078178e-02 1.375608749755608540e-01 8.051359048520415063e-02 3.500526354667691381e-02 4.453092579892602848e-02 -2.004116093462741683e-03 -1.295208383731147883e-01 -1.360868351309347524e-01 -1.145796077787887141e-01 -1.587331272430402007e-02 -8.379378231318913850e-02 1.322094729933498067e-02 7.645112227534396621e-02 3.618490227544667731e-02 -1.107851054249533729e-01 4.742152851939345631e-02 9.100757686217168796e-02 2.384076265051929544e-01 1.018143413429766914e-01 -7.699624542493738177e-02 -2.040789741008877320e-02 -2.327321195332427567e-02 4.971741539437257024e-02 -6.453301025013377656e-02 -6.841301814097633383e-02 -6.113138594888832544e-02 3.622408432881183554e-02 2.853981803771824324e-02 4.715429452448144376e-02 2.964753879889867744e-02 1.976018570215354320e-01 3.073617133820426284e-02 -9.897347306667785005e-02 -8.914017129123232019e-02 5.126746849945686135e-02 -1.349475130205953222e-01 -9.896462048618781537e-02 2.035884174473531413e-02 2.293401351376380681e-01 -1.519395172167340054e-02 2.276544658796034529e-02 5.667505456370684064e-03 4.836197636785879994e-02 5.521284324173673236e-02 2.261227331891103309e-01 2.087573203852809978e-01 1.190797544637261368e-01 -7.952959872618795001e-02 -6.349320735775357272e-02 2.182569180412066712e-02 -9.680709800629379302e-02 -4.544197920270287572e-02 6.914540023049646489e-02 -8.385062360494996425e-02 7.778565870518697190e-02 1.685322697313508256e-01 -8.838626722257015081e-03 7.842408757512690787e-02 5.815595382112120904e-02 1.893087041254444200e-02 -9.504774137616012197e-02 1.906163892946857730e-01 1.008866495942197516e-01 -4.058493537143300495e-02 -4.194512871206932531e-02 -1.208237928733352784e-01 -8.864170334260387807e-03 -1.642756409227280057e-01 -1.157208947779314323e-01 1.324381264183935036e-01 2.228855565284056928e-01 4.143494442699297529e-03 2.486827386084276281e-01 2.358889430829315403e-01 8.395142764538139624e-02 6.488951909403815888e-02 1.666875770699518047e-02 -9.923094926659896398e-02 -9.680848608622147355e-02 1.366766885416612586e-02 -6.463152498240849753e-02 -7.233873403119144008e-02 -1.238777247680387765e-02 -6.168283200063628263e-02 2.719499543272535513e-02 -4.462083262997168509e-02 1.583579159470831221e-02 -2.176280110198802395e-02 1.517750652493417840e-01 2.909653448561544953e-01 -1.295780475301497037e-01 -9.682145764125957288e-02 -1.636301908004792749e-01 -8.135265402754303377e-02 -1.687029606349709221e-01 -3.190827825741474055e-01 -2.475557206099714136e-01 -8.284144849315210057e-02 -1.371979061753081930e-01 -3.208122474903088439e-01 -1.160186534832522987e-01 2.473876217276143874e-01 3.575548597717476823e-02 -3.214028749800572349e-02 -3.266371322370557190e-02 6.610852305063411039e-02 -8.737725555209255313e-03 -4.692379721732237857e-02 -3.793820811762804810e-03 -1.017593070700454905e-01 -1.817970195997627159e-01 -4.192981827406815770e-02 -1.086153428759202011e-01 -2.707644016662806227e-02 -7.781236922496458965e-03 -4.125390023114093585e-02 9.731417727097950443e-02 -7.790762946567866831e-02 -3.230943243772180229e-01 -1.420856874494532962e-01 -8.758280501841317345e-02 -5.122370366316448403e-02 -1.305189774265764768e-01 -1.660865021759224680e-01 -2.728983407033683251e-01 -2.716617408916754406e-01 -4.097821692327985876e-01 -4.381239202686382228e-01 -1.791892117956296049e-01 -8.984709246686671535e-03 -4.857887740379224911e-02 -7.663786053888091421e-02 3.453239217920505734e-03 -1.203217612410291577e-02 5.658829946767743313e-02 -1.292324617398557529e-01 -4.594837360199190840e-02 -1.061641458335496058e-01 -9.878337888080024332e-02 9.552624475280893646e-02 1.672240882589600408e-01 6.596740752769413019e-02 1.848409614368401177e-01 1.651802503933685606e-01 5.993405844013240807e-02 2.055310045497177329e-02 -1.944597637864844963e-01 -4.739352056072875657e-02 -1.500702719223964976e-01 -2.086965443937709719e-01 -3.949216164802696327e-02 -4.920454740376175445e-02 9.958988935343729421e-02 -1.220799499373546176e-01 -3.065975965639708423e-01 -3.527076978125014417e-01 -2.996381178661977618e-01 -8.346044267284274953e-03 -2.740015490462679310e-02 -1.152941318904818560e-02 -5.443739225084980732e-02 1.681187517663220235e-02 4.817942132541568404e-03 5.449909907311354523e-02 3.532917267081490953e-02 6.426492862888165403e-02 1.377284332582756621e-01 7.043061443569913205e-02 1.099254141390560574e-01 -9.236399130972287874e-02 1.165392131393922226e-01 1.567500244828378686e-01 1.031846234027954945e-01 1.548582279056046340e-01 6.068115131638592008e-02 3.662262088625185819e-02 -5.730737083419387007e-02 -1.563986783556887139e-01 -2.566531883293317606e-01 -3.098865125423567665e-02 1.294487820017420077e-01 1.195378690472971711e-01 -9.766358794475316074e-02 -2.471401357869808801e-01 -2.230542724922639219e-01 -1.587349161586943946e-01 9.351911592880136903e-02 9.559666285576400024e-02 5.341267816953158831e-02 1.348973885998582499e-03 2.750550834897622435e-02 -4.818829239795383024e-02 1.177029521293053160e-01 1.693527396133553964e-02 1.139778733057678593e-02 1.396860885961203474e-02 2.454910363086627023e-01 1.843221854691418360e-01 1.148051112736507146e-01 -3.403745986250428235e-02 1.577297934528485990e-01 1.187909476003625175e-01 7.273461714505549680e-02 2.709922841364789114e-01 4.649333583194873581e-02 -1.869326764454119216e-01 -1.727506405841057469e-01 -1.031974841906131979e-01 -1.217291353977661625e-02 1.478451590873704202e-01 1.258068807958944435e-01 7.823281788995838787e-03 -6.628818438958010428e-02 -1.198769644744581558e-02 2.679353703494653099e-02 4.221861702622552170e-02 4.790809667218090540e-02 8.011149396633339415e-02 9.117301861638244659e-03 -1.995404841096731774e-02 -1.244740989044078455e-01 -1.160052697665562155e-01 -2.570379175329605137e-01 -2.103829168540299610e-01 1.596856152442666446e-02 4.213598004685011889e-01 3.573981900782511878e-01 3.968782338064458237e-01 4.050343685455403686e-01 1.993811446650775032e-01 1.408661754279976752e-01 2.436388258757239966e-01 -1.907089391151128160e-02 -1.431151535166841626e-01 -1.322249468953045071e-01 -4.368570401914220053e-02 1.954765668930872821e-02 1.641614288366113339e-01 2.142629014583627145e-01 1.738420450790180150e-01 -1.762407660215902254e-03 -1.317429090796743418e-01 -8.145822915234782191e-02 -4.412320810369120549e-02 -6.275564588013919642e-02 3.262932018969856574e-02 4.916873940979063322e-03 5.835642980430680998e-02 -9.900427489453025864e-02 -3.803832764526730026e-01 -4.846414390129356597e-01 -6.005308127885289338e-01 -4.520822115016362996e-01 -3.135985918168760628e-02 1.724368185690222099e-01 3.487046505730185819e-01 5.989470421243223708e-01 2.026181769367531305e-01 9.656974674723733942e-02 1.527241954869656693e-01 -2.171278148974595812e-01 -1.576525357786127610e-02 3.035814850224511849e-02 8.892996587982754386e-02 3.294232382977814629e-03 2.000185814412052190e-02 4.747228141599554169e-02 1.023796210135329288e-01 -1.669240255906694059e-02 -2.584703791461708672e-02 -1.231895707090857606e-01 2.195374515281801192e-02 -3.738926875042679343e-02 2.607305000703704148e-02 -1.680995223587325449e-02 5.437617645337341349e-03 -1.425704928412510619e-01 -5.523756340869050430e-01 -5.388327130312188240e-01 -8.522442630460631552e-01 -1.029611329363377292e+00 -7.545683629135168102e-01 -5.616259499607663130e-01 -3.974223875321661881e-01 -2.342533633257214976e-01 -1.283520422405061978e-01 -9.318632244987665181e-02 -5.656256717433420095e-02 -2.389652913910915166e-01 -1.288109115385907555e-01 1.494289075935372260e-02 1.642237340104120771e-02 3.504997324308631312e-02 -9.970923158802444397e-02 -1.035158116366846348e-01 6.136909746842796748e-02 5.333099683009547703e-02 -1.003474154625109277e-01 -2.326618990265711534e-02 1.640741701912946243e-02 6.091834724627508135e-02 1.231326995795628369e-02 -7.441714124224786675e-02 4.492392744008134181e-02 -7.138487949035002278e-02 -4.022609611620235892e-01 -5.418143781243246471e-01 -8.202142265675697042e-01 -1.035280734363083877e+00 -1.291763333171287442e+00 -1.426052843451919516e+00 -1.336543832690338718e+00 -9.792104676557532583e-01 -6.545111597022298389e-01 -4.696603125403049361e-01 -2.507808394387952000e-01 -1.558734666574183303e-01 -7.465241869971225852e-02 5.181024827141804401e-02 1.263503994539065187e-02 8.906728233023038233e-02 -1.181817167897453030e-01 2.292032410093471778e-02 1.105046318249244403e-01 9.517703636951825585e-02 -1.270718699508119887e-01 -1.742799524607996971e-03 -5.381428762288946455e-02 -2.326391022723055951e-02 -1.583138783094450715e-04 -7.613393988336286666e-02 2.914035790505789883e-02 7.698523913439832278e-02 -1.199850737103091425e-01 -2.648900456601672171e-01 -3.325405112100949245e-01 -4.663231858549877207e-01 -7.483245897841612759e-01 -8.685523660062161033e-01 -8.783207115406146404e-01 -7.952448042050912491e-01 -5.446762472858546200e-01 -3.933518226109960492e-01 -3.234053484779531029e-01 -2.392157775930592867e-01 -2.318100091857769607e-01 5.994997292717197529e-02 3.822780892462170760e-02 -1.782472128229660099e-02 6.932866588569795534e-03 1.088693634883186601e-02 -7.416847299079066917e-03 -3.705742788008385691e-02 -9.240801717162572260e-02 2.715871953681890313e-02 -5.597872097724063264e-04 -2.627036010698138857e-02 -8.780442051355487332e-02 2.866762279563656382e-02 7.087663710821069663e-02 1.934386000689494178e-01 -8.972167341121375927e-02 -9.783403805225004968e-02 -1.030294344627404046e-01 1.458694058565254172e-02 -1.717568265325738197e-01 -2.400262230984729628e-01 -5.408924040243152237e-02 -8.854671867262600693e-02 -8.109229405588752604e-02 -4.715859854161962017e-02 -5.653653599878807196e-02 2.767169269307209051e-02 -4.522671838879291362e-02 1.455373424933906548e-02 -3.441984433533488118e-03 -2.001933280662169731e-02 -1.460412795534365982e-01 1.214671937121471340e-01 -6.466039809581304587e-02 2.050175780596154643e-02 -2.096199406560941142e-02 3.103033527365769637e-02 -6.401931955607677305e-02 7.796423269914007359e-02 -6.485106291562793557e-02 -5.372782624140960001e-02 1.890097947529686614e-02 1.127129917040864682e-01 1.280343503741783462e-01 7.243315647247433597e-02 9.851454997337114050e-02 3.028046325858715360e-01 2.840830678561698242e-01 2.229890385156219068e-01 3.659764065029298963e-01 1.984433372459382672e-01 1.219543161469967552e-01 2.452572100966851285e-02 -8.849706039527405199e-02 -1.152016680817167793e-01 -9.866264332931047598e-02 -4.788544166227312604e-02 1.712606521950050531e-01 1.229472481710420506e-01 -9.685156018711435499e-02 -4.304520357165247946e-02 4.841925028583037721e-02 6.588985395538490830e-02 6.233690870208712792e-02 7.068035112602001624e-02 -8.671593114343220665e-02 4.673604029297356161e-02 -5.302501621241888230e-02 -1.273734258189704750e-03 9.054760950254664431e-02 4.471462849294773056e-02 1.080693758744872002e-01 7.695698802613597234e-02 1.220075668863498768e-02 1.662827409095558873e-01 1.808114934949731079e-01 4.516277132578969677e-01 4.238290747864559282e-01 2.958926321907376367e-01 2.434254939859606115e-01 5.890671146868873415e-02 6.017568194286399691e-02 -1.377368247323240980e-01 -2.608848390850069740e-02 -1.462093789668930943e-01 1.406589088536805143e-01 1.653593740486996103e-02 -1.564513319408354364e-01 -2.848241196272048581e-02 4.625027559542477934e-02 -1.063378509831376661e-01 -3.625459868530119673e-02 -5.179949762677658193e-02 3.979219189932889367e-02 -1.492499916250533687e-02 1.329372806623822789e-02 1.962697704311577168e-02 9.154888300699726145e-02 1.835567572923259838e-01 1.561311104050352172e-01 1.444674593121972606e-01 1.048954181682545117e-01 8.954982298731997692e-02 9.848169791156138886e-02 2.960043816002094763e-01 1.805953372019819259e-01 -1.346296714125431830e-02 1.692866084615211320e-01 1.044883937745810232e-01 -5.175770686119671865e-02 -3.869623606085439982e-02 -2.320549133435929057e-01 -1.774022805327650498e-01 -2.217926058510442944e-01 -1.683295274043448697e-01 -1.180297262613232284e-01 -6.538843420333825818e-02 -7.647667559112669711e-02 8.242683842752264456e-02 5.652173499889329156e-02 7.338874797936797978e-02 2.490112642019663702e-02 -9.597234716805663757e-02 -1.782131987223564695e-02 -2.264465653840346676e-02 7.219576208873237401e-03 2.679818471332881188e-02 2.685754513620827177e-01 1.807879149593655255e-01 2.513588196288962795e-01 3.310949627299092923e-01 3.895827390383279631e-01 3.566063837199211495e-01 2.411225383363373442e-01 1.396829538216076971e-01 1.199386714529226544e-01 1.423711579794749715e-01 -2.667331449857522283e-02 -1.546305969569310712e-01 -7.279606570661921461e-02 -2.536170440036516482e-01 -2.082811026362936524e-01 7.798204992980403705e-02 -1.160861091133024992e-01 -2.822917740067354062e-02 -3.535271113562223066e-02 2.592504192084440703e-02 -1.548096725106702654e-02 4.083528194490486374e-02 -1.897366392299611182e-02 3.236681527890064580e-02 4.056180756111679719e-02 5.355989143789766094e-02 -9.091495321309195354e-02 -3.631304295333732945e-02 -1.074942645816077654e-03 1.579352313234431981e-01 3.259643110448039172e-02 2.090019602405285282e-01 1.818523216625003713e-01 8.866347758041465132e-02 1.535427872538147054e-01 5.995322627234061369e-02 2.118504623718509838e-01 -5.769820494168722419e-02 5.952646622927354469e-02 -1.083146584713340771e-01 -2.220886632324023668e-01 -1.326638000464694378e-01 -4.899602068768707519e-02 -6.417150424007440901e-02 -1.120349429815224174e-01 -1.913661164617495858e-02 -2.887945288511146319e-02 3.307913520697818716e-02 9.842541704636563471e-02 -7.463725401431586803e-02 2.349525582861258788e-02 -1.690605299470362977e-03 2.765492596547042270e-03 -7.850374372710176851e-02 -5.737811753260903258e-02 3.712524595887840145e-02 -4.185436767527734442e-02 1.417234912546654589e-02 1.772843692701760523e-02 1.757144886921605149e-03 -9.840291911707649275e-02 -6.458105958712477557e-02 -1.397245366871256896e-02 6.160965107686087495e-03 -7.693609537823867250e-02 -6.216259356448854828e-02 -8.446649885167693828e-02 -1.165684204270336366e-01 -1.422066384594314337e-01 -1.572587882072329635e-01 -7.597807911819827453e-02 -1.445451293265465021e-03 4.090059110900805955e-02 -6.844501206931419279e-02 9.659685665207254357e-02 -2.812418570539067589e-02 -1.483000157345296631e-02 -4.594826479736353886e-02 -9.421494405849835385e-02 7.647605973580920424e-02 4.859642805057529102e-02 8.434640676765539635e-03 -3.094561049986850609e-02 -9.864898443893345414e-02 2.135335498518883216e-03 4.812530147450126000e-02 5.143107891037675822e-02 9.073729982475299896e-03 -4.371544232865656222e-03 -2.562384833066484735e-02 -2.674411559761833215e-02 -9.298820771553887796e-03 8.965362178193728160e-02 -6.075515865361556106e-02 4.094130648325511324e-02 1.033395034861366935e-03 8.439980625587095719e-02 3.190414720551101868e-02 -3.098218009623721417e-02 6.303144085161604959e-02 -3.519626429978941345e-02 -8.623175523040982338e-02 -5.301067590077352537e-02 9.957159585127056678e-02 6.236729777947400133e-02 -5.080580939404646945e-02 2.393163189429843574e-02
-8.067311039557450991e-02 -6.894420726764810547e-02 4.403272200471719522e-02 -3.002796808264396322e-02 1.355062236798505737e-02 -6.722233440714694974e-03 -6.926793636227804307e-02 -8.611540624684657641e-02 -6.771444854693178805e-02 -3.799275745841317747e-02 9.361401368288932434e-02 2.623903997537929689e-02 -7.408106888320278860e-02 -9.046807573560398941e-02 9.928846078755189375e-02 -4.338551745333878162e-02 5.130187177598630188e-02 3.678136467295747836e-02 8.273671684043965024e-02 -6.490626003414137757e-02 -8.565052172644865847e-02 -2.193285303155050048e-02 -3.206966903212081499e-02 -6.114327781302267284e-02 -7.326700637820711404e-02 4.902868332513016236e-02 5.861361362803760300e-02 3.622889539348186916e-02 -9.835077718594897878e-02 -4.092009130161070041e-02 -7.447877585300906322e-02 8.757561565274199489e-02 9.117970577922986791e-03 4.939231126190903043e-02 -5.056056102860979201e-02 1.375099115354915490e-02 2.970697700492769960e-02 -2.983812665189619628e-02 6.832241011695873445e-02 8.121362210361623979e-02 -6.007763112654927046e-02 5.613396719475388652e-02 3.043821196973420934e-02 -1.795388715248764228e-02 -7.449951902530094205e-02 1.090517283931987519e-02 6.218985286795017386e-02 -1.189404574209813187e-02 9.935863095604680062e-02 2.183523240520199651e-02 -5.469486118179442413e-02 1.256323611978780314e-02 2.483310436431879209e-03 -8.362521234530183312e-02 -1.847392782017109880e-02 9.748876309841097987e-02 -9.601708153922777766e-04 8.701984718284941356e-02 -6.191164313410674885e-03 -9.255840982984415988e-02 5.743614634123310470e-02 7.900309547423700618e-02 -8.688974288056141790e-03 -2.108443723664707101e-02 3.117738183470501398e-02 -4.740179691023481238e-03 1.200646641961234662e-01 -1.547671035710554074e-02 1.780536466058507961e-01 1.468251001353464424e-01 1.240135313212068352e-01 1.723071088806664430e-01 -2.589966194631780627e-02 9.552143591217940322e-02 -5.593441217242992036e-02 -8.172659425010114428e-03 -4.086529851161023463e-02 -8.415806230121631454e-03 5.117231796776430808e-02 -7.315824229883990948e-02 8.044684585364619833e-02 -3.211987632585576458e-02 -7.975039783419786421e-02 -2.791640841984506516e-02 -5.779549694907564622e-02 8.350690221992962403e-02 4.195716441002411701e-02 -8.644123867973295405e-02 3.841202340048016639e-02 -7.073708250918457618e-02 4.972191965083178067e-02 -3.650428963480133876e-02 8.947814293585303058e-02 4.816483228380434578e-02 -3.172225724683304382e-02 1.933608903069708729e-01 2.063653335071429229e-01 1.314230130482286485e-01 4.575507204577703574e-02 1.187920717412139504e-01 5.435352215797529390e-02 1.448640953142877885e-01 4.859867863991097076e-02 8.222470574432420853e-02 1.184684766477797913e-01 -6.049022603360113687e-02 5.899925926596149423e-02 6.519420096117514718e-02 7.660130488220689982e-02 -5.065187053157545194e-02 6.902901587038415276e-02 3.195268725055203096e-02 5.911463531781988023e-02 -2.742186690253513304e-02 -1.491660076025136915e-02 9.910111856144564191e-02 3.345573083906868556e-02 6.344801201342503694e-02 -5.998407682291978515e-02 -4.518060161392820941e-04 -2.679586192087521964e-03 2.486576562351944589e-02 -5.350302939769210203e-02 -5.422708348138588486e-02 -7.376582467751943706e-02 3.547598588557780708e-02 1.195696896838251005e-01 6.316752372567162321e-02 -1.527920960107692454e-02 3.784025175059990698e-02 3.411992160091143617e-02 1.194658056850044781e-01 -7.803751863319325147e-03 -7.509113943424385040e-02 7.129158347308797716e-02 -6.620113025210816460e-02 -7.883968410245952019e-02 -8.879177513926209131e-02 1.547736074576855879e-02 -9.818205065850059421e-02 -8.051866944518880354e-02 8.608370147643101822e-02 7.489809749848339027e-02 -4.455415094104604040e-02 1.292619463650911682e-01 4.920753881834537963e-02 9.254196513397346113e-02 1.337932307029375024e-02 8.295639180389605127e-02 -1.447831332990069386e-01 -9.115040712253054400e-02 -7.128027385527825610e-02 2.129856006707792765e-02 3.058383244971327186e-01 2.286797425817022611e-01 2.719001051439268180e-01 1.731765648423641002e-01 7.069177619587725669e-02 2.340944553567275016e-02 1.913289694851247683e-02 -7.731063937693836985e-02 -2.313638193510236113e-02 -8.124678514452142106e-03 5.995014626496497634e-02 -9.988712873957536487e-02 -3.069108194124648553e-02 1.318143565321762758e-02 9.603947745943144931e-02 3.421923522156272712e-02 -5.948096880061797681e-03 9.189816108025206098e-02 4.279198312593588717e-03 1.287355267609287535e-01 1.746701926483126138e-02 3.362549322575700793e-03 7.531808041345837423e-02 -9.306661388957941303e-03 -9.735301572975987860e-02 -6.419228916019541209e-02 -8.286037272809944343e-02 -1.133682740974419345e-01 2.831791074771381478e-01 1.309937179993912459e-01 -3.288798543992861503e-03 6.791501428917830208e-02 4.622010843767966615e-02 1.722202632781199838e-01 -4.738306943257993703e-02 -8.537255933553204723e-02 7.365474551534374921e-03 9.409171277487748952e-02 5.539420574868898772e-02 -1.290429601761865774e-01 -1.479055773310871125e-01 -3.136908548711923872e-02 2.037621196566880011e-02 2.598914531558969149e-02 -3.588701583538794065e-02 9.059314083092505354e-02 8.366725430385170414e-02 9.424400352279228843e-02 5.459614983500363228e-02 8.283714734148876768e-02 -1.087271376774146814e-01 -2.649773765534669812e-01 -9.298315928597566948e-02 -1.807580514295941410e-01 -1.923714914909474549e-01 -1.122938895250018831e-01 8.642219557553044995e-02 2.586398031869547864e-01 -4.611069375287446537e-02 -1.275689369166596587e-01 -7.633981828242812628e-02 5.615231972315375131e-02 5.271281977996654378e-02 -4.049301345409200836e-02 -1.120391586842336279e-01 5.854996636029731472e-02 -9.097643638841859670e-02 -2.016116339980300876e-01 -1.058725896747208239e-01 7.615780532811387837e-02 -2.358505587106154294e-02 8.656986639619440593e-02 -2.370687857533756299e-02 7.164716100814225164e-02 2.125164302548494810e-02 2.363255602392594010e-02 8.814242945013442410e-03 -1.143860024278024468e-01 -1.598928082292572772e-01 -3.555436902508175012e-01 -1.874060557749220313e-01 -2.659511538680437992e-01 -2.963570078542260289e-01 -1.051076588022621106e-01 3.592638480919978228e-02 1.177356239691638023e-01 1.434079853891648548e-01 2.666850096751037236e-01 4.163990685546677811e-02 8.431277180673473837e-04 -9.003274330356991761e-02 3.848153622529298240e-02 -6.765729034241640960e-02 4.034212874483803640e-02 -1.992811171580793350e-01 -1.980169582038303899e-01 -1.391178969429133216e-01 -9.736597497327692530e-02 -4.258519388558141931e-03 1.186411830015339508e-02 -9.203070827132990572e-02 -1.526004542058119993e-02 -4.465361799971338808e-02 -5.641966331951796254e-02 7.982896621622961181e-03 -1.276812725110914593e-01 -3.074588714241605070e-01 -2.771752777067660323e-01 -3.462140286014516177e-01 -2.733177042472848539e-01 -3.131519172727952327e-01 -2.002205508763527653e-01 -2.382162483608136778e-03 2.768552484501012878e-01 3.709823351484078380e-01 3.790367512344484102e-01 1.127815764663816361e-01 5.389785478385909767e-02 -1.257185091605626248e-01 -1.686135700928735603e-01 -6.634107920554141447e-02 -1.625061835992872572e-01 -2.889155466811932360e-01 -1.642022566811859319e-01 -1.271827488334731360e-01 1.831000222268983416e-02 8.532876969996487648e-02 4.474598816873434984e-03 -7.530748151849810113e-02 2.490212468519287584e-02 -6.254360571273764879e-02 -1.196158624044038055e-01 -8.632690062189123104e-02 -2.973754020973466972e-01 -4.560369596922504432e-01 -2.935306065473732295e-01 -3.084670748420276221e-01 -3.758772995943250317e-01 -3.378324588672205198e-01 -3.151859314650231059e-01 -1.297643816872511846e-01 1.150239261481795644e-01 3.704507614646178060e-01 2.423367290033076604e-01 1.257961784139449146e-01 -2.057928150110140963e-01 -2.501931247025640515e-01 -2.411681145802019310e-01 -7.343198617778691484e-02 -2.521566974351789336e-01 -9.686367111344965086e-02 -8.138044547578136834e-02 -2.236550156419023494e-01 -3.038339147071489332e-02 2.882603629362643846e-02 5.583923392636143401e-02 5.768864840525204929e-02 8.405790222593155503e-02 7.264004339038096503e-02 -1.911501104883688018e-01 -1.723925389197170643e-01 -2.904840031058775196e-01 -3.583361164777440488e-01 -2.759362077658265577e-01 -1.573121776262061677e-01 -2.083337897403869377e-01 -3.063309459395362477e-01 -8.505035552656949049e-02 -1.161529325062024415e-01 -4.551435880453140459e-02 -1.408688789165132328e-02 2.419041155793623041e-02 -1.805678289337703246e-01 -3.405302981267179785e-01 -3.111214324536643039e-01 -1.305713487052924116e-01 2.187813378098008021e-02 1.049252372646449112e-02 -1.719198219578951109e-02 -7.616481602040039989e-02 -8.128410225508340969e-02 -1.446160608582308660e-01 -3.052463208856432200e-02 8.452583298462242045e-02 -2.462378828230573843e-02 7.642185292895757598e-02 4.831416219224386049e-02 -1.542091915000947666e-01 -2.058546932460740830e-01 -1.077387247878942161e-01 -8.329789429017873947e-02 -3.090832099207268396e-02 -3.329689416097318666e-02 -5.955746964783772968e-02 -2.780619177151662236e-02 8.737261892704530075e-02 -3.718452909268432638e-02 -9.935028221667314974e-02 -2.569100816213225058e-01 -3.878002015537154734e-01 -3.247163375417148057e-01 -2.453418742507326167e-01 -2.413308540609652719e-01 -2.242948967729629581e-02 5.890948499254788223e-02 1.409971904211924365e-01 2.078019979134408390e-01 1.657688717676186474e-01 -1.343605706122816268e-01 1.609302040644583487e-02 -7.577440232653849528e-02 -5.255188120479396124e-02 -9.872555533821412987e-02 6.082551933676030170e-02 8.304081372365523794e-02 -1.260764420403870101e-01 -1.004514342147563577e-01 -2.720727140228629617e-02 1.468512901358194969e-02 7.294553785992730077e-02 2.221843325163452287e-01 1.076585994116192324e-01 1.027160615013027606e-01 1.878097324628015818e-01 -3.964042772599678764e-03 -1.546288532052796927e-01 -4.464748263078691659e-01 -3.376165022020181095e-01 -3.653055257486388374e-01 -2.012778233439758424e-01 -2.296289440971270301e-01 -2.071029331603869705e-01 -9.688569890818935285e-03 1.820908412429993462e-01 2.187294780605983646e-01 2.166543137661057494e-01 1.131791549246999491e-02 -1.584932858125471730e-02 4.506907434468941653e-02 5.220863942647761824e-02 -2.108351990942853790e-02 6.548310060031539703e-02 -5.298012734829499887e-02 -6.639768891010733309e-02 4.481670727038754298e-02 1.695046062693755795e-01 1.893215941724368245e-01 1.548331728259681461e-01 2.476718871911590403e-01 1.052617550835062282e-01 8.971386879039697226e-02 1.281157907779780225e-01 -2.581022552279398918e-01 -1.672088162370058695e-01 -2.713272294646117411e-01 -4.758954716893600279e-01 -4.750661548436505566e-01 -5.349008942939682126e-02 -1.552096724752574375e-01 -2.542733217258431877e-02 2.655392253936774208e-02 -1.711323395810322376e-02 2.108510154693424565e-01 2.686482691887365215e-01 -1.722273713755029245e-02 -6.853903855524769162e-02 6.693797277066006191e-02 -1.035462549046894595e-02 7.155054854450640378e-02 8.284173518369863931e-02 9.511449873804571353e-02 8.380355624396827741e-02 2.320353577260125255e-01 5.379245767841420861e-02 1.780379008913736960e-01 1.084544212561404097e-01 3.349869288637100789e-02 8.585691529525110721e-03 -6.963574653180976126e-02 -3.005863240376833723e-01 -2.478016608567761847e-01 -1.292595572017179451e-01 -2.560877182059373425e-01 -2.844600706729635275e-01 -3.353727570207034048e-01 -1.227639579530171721e-01 3.012377221648976020e-02 1.105207064898190844e-01 1.385798616129634286e-01 4.656614632895159783e-02 1.301918392183743223e-01 1.521166559988537947e-01 1.454645554981146005e-01 -7.387139735673001195e-02 9.522046850746555824e-02 -2.753744693116897194e-02 9.401604586399818497e-02 -1.195106806058687798e-02 -4.364783150384527605e-02 3.673549279159563780e-02 2.168357193800119764e-01 3.505643087868852426e-02 -8.715334709714845848e-03 9.303839035579111738e-02 2.882124248153592611e-02 2.181274819028223080e-02 -2.842263558839687176e-01 -5.813152217292623103e-01 -2.067843091034129166e-01 -7.865543556362113164e-02 -2.582997297350115851e-01 -3.473798593895937592e-01 -2.211874358447749045e-01 -1.111512380268765351e-02 2.763609700574040304e-02 1.404324268580899593e-01 5.946870431945778385e-02 1.862279424816223328e-01 1.126583918781978721e-01 1.492229204923783970e-01 6.315501012736864095e-02 -3.518039318451106345e-02 6.020101269519600312e-02 -5.057789691073273641e-02 5.971860837277103567e-02 -4.719318991867896274e-02 3.975164307057246077e-02 1.780272815617627569e-01 2.037511845304339486e-01 7.506720685077815369e-02 7.218078386698567606e-02 -8.422054784384930270e-02 7.240095068851414017e-02 3.261548774147636498e-02 -2.678869360049244142e-01 -3.154079022500402285e-01 -2.447034154519516780e-01 -7.656355309187914959e-02 -2.923057061584569127e-01 -1.731447772116540273e-01 -1.392658325260411334e-01 -1.889799948379835837e-01 2.122212317432760689e-02 6.127994294598494707e-02 5.732301578593577973e-03 1.808097481780866489e-01 5.806105943900032734e-02 4.168980078429215808e-02 2.715644483599576747e-02 -7.903913483472234727e-03 -6.807746925815000294e-02 -9.698848998633187446e-02 -4.009871370802983725e-02 -8.677202200811436438e-06 5.318931636926253759e-02 -3.864208316418219630e-02 7.659312302191356725e-02 -1.058642810823645086e-01 -1.287343742089473997e-01 9.990588554620623285e-02 1.992735755895869709e-01 2.279928107465392650e-01 9.354364782032720260e-02 -1.011075655817771611e-02 -1.407527045074415395e-01 1.056114159223216914e-02 -9.300430610389433250e-02 -3.763607925304498364e-02 -6.195239212991625333e-02 5.860702326313631250e-02 5.932374905781679503e-02 9.101849716778993848e-02 1.138506019356455429e-01 1.290172772141761348e-01 1.357744792378431375e-01 7.082997215435526961e-02 -4.410402618178568823e-02 -1.017019418015466803e-01 -2.259344558553514487e-02 4.995732950527806415e-02 9.908552609106548170e-02 -7.596397480355414344e-02 1.411713988709198120e-01 -2.046346334875116107e-02 4.264870052748297169e-02 5.654254538967776189e-02 1.699281902927791132e-01 2.073053393436543324e-01 3.664008741968923233e-01 4.839466136378527406e-01 3.717320227924249543e-01 3.156476539675974191e-01 1.699780951899284576e-01 1.938956606488824452e-01 1.459079847210750513e-01 1.545282547964876574e-01 6.989113408934539973e-02 7.986106113701997578e-02 6.495018801429575106e-02 4.834348820887070936e-02 2.421120158504269093e-01 3.984615761673299117e-02 -1.572925788165356262e-02 3.142125184727244391e-02 -7.891997661844245629e-03 -8.094830983980336181e-02 4.712246728457374773e-02 -7.253454595104334712e-02 8.462476695035525687e-02 -7.891920591353374093e-02 1.015441977247180938e-01 1.813968902187295951e-01 8.918152448018504264e-02 2.703312133960577568e-01 1.313325133003727940e-01 2.602383059101321394e-01 3.587324865257636164e-01 4.762316222001158339e-01 4.983338577025004379e-01 3.811380911983658359e-01 2.228734951427770727e-01 4.001933409112665707e-01 1.882971225830781803e-01 3.141444751068512842e-01 1.703230872947447960e-01 4.538891703079751816e-02 -5.810422173983648651e-03 7.268752983213419561e-02 -3.561161887138362264e-02 -7.686687926160312712e-02 -1.571316921272447320e-01 -2.087462389407956573e-02 9.846708139329644893e-02 3.829206176168441916e-02 -6.711571774511894406e-02 -8.181340909145060070e-02 -5.765833198321524550e-02 7.736109398961185657e-02 2.872966332160087691e-02 1.445249204908558016e-01 2.004751579207916246e-01 1.873296211185563054e-01 1.069924151829006603e-01 1.999228428390834589e-01 1.042163393789325154e-01 2.794717981197057943e-01 2.938944835438352388e-01 2.384655753422578739e-01 7.923685569597437028e-02 3.372971804523788864e-01 2.734123999032542773e-01 1.431427029693083663e-01 1.783328797584176695e-03 7.282727311186317290e-03 5.586904800428325185e-02 -1.223937840162884344e-01 -1.685737001282420766e-01 -1.340269087186464481e-01 -2.255866889331783337e-02 -6.684350018549758965e-02 -8.026527396362247158e-02 -8.128922290989636090e-02 1.164232876981797712e-02 -6.923451491284886294e-02 4.155817740200475757e-02 -6.493956111309628909e-02 -8.122728931810348219e-02 -7.605856815597684950e-02 2.623910498346962439e-02 -1.657196721921211716e-02 6.113586876274326731e-02 -2.076999852336116822e-02 -8.495489711660214605e-02 1.275634778435152106e-01 -3.345322679853779402e-02 -6.675457341185266069e-02 7.612124194652861164e-02 1.822260435836135783e-01 2.545795990567325529e-01 3.641744946561428220e-01 1.767686969983034984e-01 2.532799402450416557e-02 4.745654032084445362e-02 -1.892497970143380837e-01 -1.868071557996403564e-01 9.025561149570954884e-04 -1.050934543967793761e-01 -9.359037558772234644e-02 -1.264636689629877395e-02 3.302490647374452942e-02 6.993921621294528490e-02 9.730289759917165604e-02 -1.746880353683992471e-02 3.196883358437280914e-02 -4.768736423140335773e-02 -7.753815364885130457e-02 6.582141270863704763e-02 3.963008746417718414e-02 -7.487232663486147188e-02 -8.469102296838074140e-02 4.390515170726395910e-02 6.580150453170954816e-02 3.001429962802927565e-02 5.958071363481845517e-02 1.675216356733918721e-01 1.640771992388166400e-01 2.586068900511464541e-01 2.285979706667213840e-01 9.299512354593229835e-02 -3.516578766055442756e-02 -2.237588822787619502e-01 -2.793475784767509573e-01 -5.951319701189750760e-02 -3.526526526314234262e-03 2.544558949366610215e-03 -1.886001525578831842e-02 2.021996300379080500e-02 3.958273624254785711e-02 -9.246792449022545046e-02 -9.038472650626322435e-02 -4.791365771717111255e-02 9.626051784480249562e-02 -4.695642556399395179e-02 -7.952273240746378369e-02 -1.013688371944123368e-01 -5.191360204817157403e-02 -1.378127993863910994e-01 -1.601704386608948094e-01 -8.856184256169337410e-02 -9.980138531478219277e-02 -1.396984798727276822e-01 -3.768409559409383633e-04 -3.980730131984693693e-02 -7.477101862195471849e-02 -1.207262522586049075e-01 -1.000372541752382882e-01 -4.767695682766102949e-02 -1.876588074402946449e-01 -2.414925415635853501e-01 -2.558453541336311865e-01 -1.828310547137622921e-01 -6.752136363177015099e-02 -1.045013059531152977e-01 -2.890924155913896995e-02 -7.939175311531322665e-02 9.943929645800579642e-02 4.967516120120160639e-02 -1.741883046850703498e-03 -1.210846894322778478e-02 -3.869013485635753452e-02 -4.833164786431502769e-02 9.600049629481072558e-03 4.571092772118375697e-02 1.194382301008721156e-02 -2.677405379556857534e-02 -2.099455359135372068e-01 -2.222468375589950473e-01 -2.377306038169320901e-01 -1.886850325228908998e-01 -1.425685847061447520e-01 -3.254890804862025644e-01 -3.234011268535806338e-01 -3.391901380930957277e-01 -1.800437385243117139e-01 -2.423473849034820382e-01 -1.333704341199905552e-01 -1.207936479797797058e-01 -1.284914747046616290e-01 -4.129754827188099331e-02 -9.441780589014933667e-02 2.802707683716758671e-02 -8.816920437549212453e-02 -4.421485926436896641e-02 -8.602111856828093678e-03 6.129277472250946324e-02 -5.500290104272569786e-02 4.221740868444148753e-02 6.897677940545884900e-02 -4.687535146774530342e-02 5.781269447022092944e-02 -5.308715629742280506e-02 1.302026550796672559e-02 7.354254538680211895e-02 -3.463612328367614984e-02 -5.967877998898590830e-02 -1.242978819424537806e-01 -8.882079487343613744e-02 -1.146879901494986670e-01 -8.281860486449017789e-02 -2.216019994434429916e-02 3.236766074023812723e-02 -1.155753909147966552e-01 -1.240772126680802223e-01 -9.145162615199295408e-02 -5.540722345631243079e-02 5.525345369153506631e-02 -2.970242568545849310e-02 -8.348616688437961175e-02 2.195955143502467590e-03 4.775054616442718503e-02 8.669566969855002636e-02 -4.539830764232797439e-02 -8.305373608454608148e-02 3.344037978119313026e-02 -8.392755714161728720e-02 -8.555689238532425411e-02 9.513598155905919618e-02 -6.034234282813663586e-02 -1.640644245216259234e-02 -4.164617754711607417e-02 1.207896280699137341e-02 -7.594808186548081264e-02 5.837929254488017500e-02 -5.508819200705072916e-02 -8.197616024219898934e-02 -5.655656632667371148e-02 2.648579195932677932e-02 -4.152015817448277690e-03 3.086204753718534838e-02 -5.570739826937132905e-02 1.174181476665354766e-02 1.892932933114539404e-02 9.383506628343642186e-02 -4.937971756824776487e-02 -2.844055458623357541e-02 5.727973416742520446e-02 -7.589840691149625507e-02 -9.954464910297385061e-02 -8.461032408460647525e-02 -3.299440396179446899e-02 6.369333075902128272e-02
6.411227802753224903e-02 6.663656525848635215e-02 2.771426118943781658e-02 1.072443122896912793e-02 5.798987994288570813e-02 -7.195594408030968336e-02 8.973286454320461569e-02 -6.437236752535964446e-02 4.165912687141057336e-02 -1.009271326380418998e-02 -8.662141106147241976e-03 -4.892427921126914214e-02 3.422693824523430350e-02 -8.650054684230533419e-02 8.132013437747925150e-03 -1.665367486748241255e-02 7.468178661242233507e-02 8.372958034249433634e-02 7.617032839111040343e-02 -1.477080506408279259e-02 8.267642084430956717e-02 -1.865442988279955583e-02 6.015115672774989930e-02 7.459644243820240384e-02 -3.118612115651245298e-02 5.210776126664817820e-02 5.035469362841007990e-03 -9.058714427942565761e-02 -9.956450576500067151e-02 -1.145635031754818622e-02 -9.000605007576495398e-02 -7.679753228634185469e-02 6.211525637215318391e-02 -8.441753495902175330e-02 3.585588659294419635e-03 6.118114009637089235e-02 -6.457266304053843609e-02 5.173628193774675033e-02 -8.478325784037681057e-02 -6.972123554639015480e-03 -7.781609776288120339e-02 -3.404611601502894463e-02 5.824727227018166448e-02 5.057596167864195080e-02 2.346821779112458206e-02 -2.602045914043263353e-02 7.195633235948604989e-02 3.114405343040849497e-02 1.282726903486173771e-03 -3.377164426025484195e-02 -3.241208279602779407e-02 6.915201561479460135e-02 -8.013149249482183489e-02 7.180812964377691898e-02 7.982326919309845614e-02 8.558620952958514994e-02 4.174430648528523746e-02 -6.517543169422231053e-02 3.242247711745666755e-02 3.661245093257206595e-02 -7.831353363651927246e-02 -6.498638127096545425e-02 -8.621137654611360501e-02 4.397857896743039008e-02 7.780138839861340527e-02 -2.583216961236589615e-02 -1.268583627101097233e-01 5.534523421286253325e-02 -3.795696961536136615e-02 7.111805732811331271e-02 -5.744067892052443641e-02 6.894851783722263927e-02 -1.788259579511163738e-02 6.712160332935790397e-02 5.545691353858207134e-02 -5.659174446092441607e-02 -9.214994844253568407e-02 3.836358276205901682e-03 2.201874223875847914e-02 -3.256120121532033590e-02 3.362735910323716437e-02 -4.735891608414750237e-02 5.562697566936722349e-02 5.327226616774408119e-02 3.285521604606131407e-02 -9.803956865957078048e-02 3.177458309383993790e-02 -9.326958364822740544e-02 9.661597321906820190e-02 8.138197566349276990e-02 -8.436427840559608538e-02 1.000532907921640596e-01 6.417695543384827062e-02 9.228095912396372391e-02 6.006219746280466038e-02 1.519306533715334140e-01 3.293620004879412311e-01 2.662506649743369702e-01 2.691929448648462397e-01 2.761737277831730064e-01 3.245821721979878505e-01 1.901331342485398090e-01 8.298627658922996808e-02 -5.902529971879583170e-02 -6.905165422086818189e-03 -1.040323374391641104e-01 -1.314781603864863258e-01 -1.026331112262472284e-01 -4.988651450289303263e-02 1.538530302123937085e-02 7.281425862082288591e-02 -8.903384807035547022e-02 -6.216388147508420531e-02 4.080517103222861680e-02 7.456945719228350034e-02 -8.547808905544088121e-02 7.278028367527189513e-02 -5.750958494614612920e-02 1.102965309302265107e-01 4.127284553313165932e-02 1.581481537953611793e-01 1.808168509930711265e-01 1.460723526564477737e-01 1.477586862879840812e-01 1.007070774445328332e-01 3.705912314487142534e-01 1.477650987701978891e-01 2.497371901426494734e-01 2.178477763223193864e-01 1.111626119810509017e-01 6.929718475674907785e-02 9.470290058040635450e-02 6.473608958551320403e-02 -1.296618241253378601e-01 -1.706743796690626258e-01 -2.914865222373682618e-01 -1.025394788700032672e-01 5.012686970249113222e-02 -7.323841616448187319e-02 6.706862400124978529e-02 1.383721439786374241e-02 -7.912784535290329213e-02 -8.943652498719303900e-02 1.814429809556555862e-02 -1.336065646305202061e-02 1.566346529027919099e-01 2.317483398356427193e-01 1.483468265801014818e-01 1.149177046510707761e-01 -6.527428608254276510e-02 9.401663215010178098e-02 8.739516974942979771e-03 -6.220489245263445544e-02 1.886453856028314779e-01 2.105195897644960845e-01 2.775447123409341410e-01 3.025415965147514874e-01 3.042198743684850770e-01 3.499617010168710185e-01 7.690899279667841315e-02 -1.727869392423293793e-02 -9.105964038836827923e-02 -2.459268159441571344e-01 -2.211651173980156149e-01 -2.124139801562642260e-01 -1.064311589058096336e-01 -8.082690580665061186e-02 1.083436943190686959e-02 -3.161973344814661413e-02 4.606462717514836491e-02 4.499928626559914630e-02 2.745235107254796053e-02 7.415325948101372799e-02 7.907001083807392583e-02 1.948112622177527176e-01 -7.577856156706103824e-03 -6.741532564288339746e-02 -6.805263438839054269e-02 -8.777085135717027642e-02 -2.296644326048186135e-02 -1.216243080476757249e-01 1.602429911811886210e-01 1.290866237299121699e-01 3.570566243589715638e-01 4.735217843831454054e-01 3.954030840125395962e-01 5.864556679674136630e-01 1.454041475133975858e-01 1.204113663312741805e-01 1.093843005516224043e-01 -7.844302983639543647e-02 -3.141619125353557473e-01 -2.577063949336006465e-01 -1.674196825148744072e-01 -1.241194136598112452e-01 3.346960627803531596e-02 -5.001559834277061883e-02 3.883927573251855225e-02 9.494043092257695160e-03 -2.530435357991220671e-02 1.425916883776715549e-01 2.973434230065914383e-02 1.984040332454506741e-02 -1.123190928053508092e-01 -2.269342941946378978e-01 -8.259973530599308555e-02 -2.330284850095164506e-01 -1.401952446903750038e-01 -1.017982276514342241e-02 -1.102079487600337304e-01 -7.902598631131896312e-02 1.905262654355516505e-01 3.554443227957098106e-01 2.784774466754546540e-01 2.799058797062657367e-01 2.200853567978911518e-01 2.687015831741009775e-01 7.145942951934472487e-02 1.439702086460616370e-01 -2.322618030869398609e-01 -4.828132974212551720e-01 -2.029172435817476750e-01 -5.872014216576712346e-03 -9.739311711291567808e-02 4.509632376963566142e-02 -8.917100805405865985e-03 1.233116290720798376e-02 8.437197156371327444e-02 1.097016101863100834e-01 8.222719720314572434e-02 7.714067982214913022e-02 -2.266547172982213976e-01 -8.993436419340840315e-02 -2.239677802532260564e-01 -1.842381186804558368e-01 -1.863417493743969033e-01 -3.264529800325954856e-01 -5.559028361743255653e-01 -7.792003074173694133e-04 3.627338285337714519e-01 5.341291410014767926e-01 4.749645177071408209e-01 1.998673949348749590e-01 1.983570926141794977e-01 1.378268899305711559e-01 1.337322784163957612e-01 1.067926881719594157e-01 -2.333161306457252893e-01 -4.854196081697375598e-01 -4.585727387615638473e-01 -9.259041341503357683e-03 2.324847460342121391e-02 -4.125698129733628566e-02 -6.649598009425204681e-02 3.830786106813874325e-02 7.504436248005431909e-02 1.773267901124838536e-02 -5.697350942762510057e-02 -1.192156311886360537e-01 -2.631013563222301954e-01 -1.518896298922659538e-01 -2.211007325923022571e-01 -2.230377639037457449e-01 -3.832189508859018545e-01 -3.950775689829497117e-01 -6.909327606058273119e-01 -1.137992058662695288e-01 5.508450355837808399e-01 8.114791973560769867e-01 4.948303808071476961e-01 6.865976207584093549e-01 3.877633858434010317e-01 2.552596374812992619e-01 -2.512208512355209450e-02 4.347087673443113948e-02 -1.984774294346307033e-01 -4.563300244425671504e-01 -4.433216816980843356e-01 -5.987354346631903329e-02 -2.389728246231454314e-02 1.828793210381597298e-02 -8.593863258945537431e-02 -4.567719311905717172e-02 1.571862929202125503e-01 1.017924956682335486e-01 -4.677364613784854019e-02 -1.052014181757511685e-01 -2.794490358747906411e-01 -3.677565108887465573e-01 -3.611503514734286102e-01 -4.037471777369828763e-01 -3.222690556933907602e-01 -6.599929854903686666e-01 -7.856385464493744752e-01 -5.390773064602620845e-01 2.152966531247253457e-01 5.230685242379099487e-01 6.433123848492926511e-01 6.021256075818406384e-01 5.937810491747924635e-01 3.335700717345096988e-01 2.723988842867199334e-01 1.404256444760109135e-01 2.101001883393378150e-02 -3.253882908653577544e-01 -4.311449296958137500e-01 -4.883181249982843086e-02 4.938661861714090107e-02 7.514108831916063713e-02 -8.709785930481879490e-02 1.152416284312169359e-01 1.092477269467740653e-01 -1.152870052820594363e-02 -9.517982679123869472e-02 -2.347229647077304637e-01 -2.171042828289352911e-01 -3.143709960002227244e-01 -1.515286695543496820e-01 -1.686672359608628602e-01 -1.385419304293605547e-01 -3.440129408501499952e-01 -8.148332656478726177e-01 -5.890987215813194844e-01 -1.432766351934484650e-01 4.766552075704300062e-02 5.214361485601192170e-01 4.151985042362318912e-01 4.325277200518378717e-01 6.007144728425530822e-01 5.121318994252490597e-01 5.354272475463643932e-01 2.019758345753975559e-01 1.247861954424480530e-01 -2.423661611434098362e-01 -2.341592138891505567e-02 8.991713695857889155e-02 2.843105825360659963e-02 -2.584798267354112417e-02 -6.153579065306841872e-02 3.266198008416219822e-02 9.134651373679504582e-02 1.031474824722801442e-03 -1.317286084061797813e-01 -3.346285190411862343e-01 -1.359762638702605164e-01 -7.074322334703926629e-02 -4.223425717455685929e-02 -2.788749134348665892e-01 -3.673230642450499017e-01 -5.332404876603039634e-01 -4.529592073098226979e-01 -2.430837161334558072e-01 4.411638863185033538e-02 2.773108235852346781e-01 2.254336417136573734e-02 -3.206684359997936939e-02 1.283475753565392063e-01 2.706933253193361533e-01 3.715390953819839304e-01 4.260458624876076739e-01 1.582429317464330298e-01 -5.569462122363930123e-02 1.272846559058314099e-02 -8.694578035347298771e-04 6.887917231712273325e-02 -6.930759639052130536e-03 -5.131266979233092829e-02 3.447698492893494504e-02 2.213933562282068696e-02 2.882223262080452989e-03 -1.302790620260998733e-01 -1.055962707032823272e-01 3.593318128851762019e-03 -1.470218040544409542e-02 -4.427250936848784596e-02 -2.911180480203217624e-01 -3.921884180161629430e-01 -3.011302035121815046e-01 -2.519027653417813539e-01 -9.341092191795963284e-02 2.099545321309452886e-02 2.020089065073512047e-01 1.200639835981814479e-01 -2.315807535146248777e-02 -1.917120593270395523e-01 -4.853522159863443014e-02 3.334147980859050037e-02 2.178517620911114838e-01 1.554423192623343164e-01 -4.951386813021202427e-02 -6.168904569638384433e-02 -5.420280740309937895e-02 3.753410553215921763e-02 4.497481929060260369e-02 4.146576850728861396e-02 -5.891012068528393014e-02 4.339696374396292272e-02 1.158980398337424236e-02 5.855598994462356960e-02 1.507710889009358513e-01 -4.541296087824642919e-02 -4.137628927267247153e-02 -1.085755516670617593e-01 -3.347534899438771028e-01 -2.137420561103555439e-01 -3.525889558319255657e-01 -2.361253040470758235e-01 -2.922350902221258415e-02 -1.744031655055947733e-02 1.015664863834124104e-01 2.479305996664531719e-01 -2.449575056587766780e-02 -2.075256131244173838e-02 6.598066892709388703e-03 -8.302453189243999554e-02 1.201004204898696720e-01 1.222655234354823733e-01 3.180941773478283136e-02 1.218334911261451381e-01 3.265662762783479167e-02 -9.624605379457661092e-02 5.898579656435998936e-02 -4.146809920237780507e-03 -6.344100436760326256e-02 1.347612279798234558e-01 3.223485162358206146e-01 2.734040211539332521e-01 1.811283403069965103e-01 -1.044375981992325952e-01 -3.890787724634250377e-01 -1.880983829828790366e-01 -2.307462492219372607e-01 -4.785631711243241715e-01 -3.340649388511576223e-01 -3.455874796716206232e-01 -4.817907704065012980e-02 1.527732939852331773e-01 1.245619949345483368e-01 2.031036000298289818e-02 5.599455215038510320e-02 -1.136440743418856841e-01 -6.486209153085173429e-02 -1.306540592721573135e-01 3.258257985165740299e-03 -2.095193548755183016e-02 4.375563218540214766e-02 6.542507808839866101e-03 -5.648643681556259066e-02 -1.196451088717597963e-02 -5.324347282065284431e-02 2.900935724382402471e-03 5.228607741338493764e-02 1.945024267172130172e-01 3.666814594540490080e-01 2.662010388283480578e-01 1.127878913575394437e-01 5.907571969467104861e-02 -1.740358803643557994e-01 -1.899110094933287585e-01 -4.001554433326589000e-01 -3.857905024338193489e-01 -4.127567164352600737e-01 -3.810838296482281229e-01 -2.385837835473210156e-01 6.887783462553777325e-02 2.478883269906828613e-01 1.244180372377889643e-01 -7.193172319073463938e-02 -2.257585244868567376e-01 -1.251590568576208262e-01 2.159967751029228181e-02 -1.841059132034245649e-01 -7.609762533138679508e-02 -5.030570891077027623e-02 1.581702972314532121e-02 -8.510209864922212153e-02 6.494092086041491907e-02 -4.849159135156883016e-02 5.713211662469148272e-02 -1.785741250138961345e-02 -2.516613161350746142e-02 2.366657764873500436e-01 3.613766345806872227e-02 -9.761806735999222981e-03 -5.775648363962340021e-02 -8.927663843247989062e-02 -5.588116109079302452e-02 -2.274385336183004092e-01 -2.657784163653060805e-01 -1.649385787490643129e-01 -1.649247202312342508e-01 1.085315160482229618e-01 4.313626082514278315e-02 1.369072376234641564e-01 8.447832619969700141e-02 -6.034678983938225605e-02 -2.010375954030419743e-01 -2.406187401492844713e-01 -9.308195899897925285e-02 -1.994162775570815227e-01 -8.020949355862400099e-02 2.904383683561289481e-02 7.944648547980054376e-02 -8.396628966747562983e-02 8.831900020337030144e-02 -7.174257861453456342e-02 4.329503652451061058e-02 3.159073759998228675e-02 1.226090765843301511e-01 1.049130726367321353e-01 -1.237071141920657313e-01 -1.655222356733066225e-01 4.263721111332532954e-02 -2.777608742054057250e-02 1.814300631813096920e-02 -1.460975692197628018e-01 -1.408649388843767336e-01 -2.025520824998897351e-01 -1.921597926649098453e-01 2.554340828419147946e-02 7.365396967993564914e-02 -8.486429365679852566e-02 8.861427184409439994e-02 5.784314405614773141e-02 -4.804035747139076204e-03 1.923859365311884548e-02 -1.015013702699829878e-01 -1.361438280868310091e-01 -6.477294176448157581e-02 1.396598459638613565e-01 -2.279392740638770676e-02 -3.141040754836772059e-02 -2.594934347147189943e-02 9.682836940717383378e-02 -1.167535268489822316e-03 -3.803499728275442499e-02 2.130564326376622672e-02 -2.504162568158548041e-02 -2.835558207445083509e-02 1.807895040599615324e-02 -1.475925153532177125e-01 -1.851537071404589785e-01 -7.721467609844226421e-02 5.163743506316249843e-02 1.388397827013570195e-02 7.260233448916812715e-02 4.783984269588762578e-02 -8.099811189641427378e-02 -1.350223715374452849e-01 1.052231794582297042e-01 -4.604755960407083681e-02 5.730246074340232532e-02 3.793902340311217786e-02 1.888284711303559078e-03 -1.638013146099603357e-01 -4.011376626133623252e-02 -1.013548648671116770e-01 8.873464131219070683e-02 4.846641111651717876e-02 -4.310920687262029954e-02 2.191692485442417460e-03 1.307543716213385374e-02 8.741804972147582120e-02 1.641522534629649976e-01 1.008227105815242275e-01 1.397654345428916804e-02 1.116814933910856705e-01 6.853452847315088213e-03 8.660493980608922893e-02 6.740782816567247870e-02 1.129697417056821501e-01 7.557443719581156960e-02 1.206038901188018486e-01 5.552413881414479391e-02 -9.720644132691511063e-02 -1.612634192622262042e-01 -5.542146803767766111e-02 -8.498967669547104198e-02 -5.480356678212847804e-02 1.122100004566031206e-01 5.756172905758102226e-02 -2.724286853866273936e-02 -1.233106167369693584e-01 -1.193453688811945551e-01 -4.541546569147431045e-02 -2.339081661826139871e-02 9.636844210040575176e-02 2.264478221952328715e-02 -6.486222334524557182e-03 4.590418095016317312e-02 9.105147899155356661e-02 2.286628066441893925e-02 4.862054253735513532e-02 1.016086659502378475e-02 -2.165981880183443509e-01 -8.155731482421618717e-02 -9.702583487721513911e-02 -7.614122563596113780e-02 7.757729851572314761e-02 -5.636863627545494332e-02 4.095996135079589540e-02 -3.642529127441420517e-02 -2.099456500599574393e-01 -2.573812949880906475e-01 2.451838331063496690e-02 -8.399434549986464771e-02 5.280605437707002608e-02 1.111888817393477530e-01 2.301387536396786240e-02 -1.678878813228872405e-02 -8.195251130396084827e-02 -8.342707835199764110e-02 1.368677856654370029e-01 -2.084719328132593821e-02 -3.552623461019328160e-02 -8.635330641816626844e-04 4.207982205498454059e-02 -4.983346934189942373e-02 3.312013475282742092e-02 -4.124908940490388393e-02 1.513992991820195255e-01 5.759637974442730762e-02 4.698649747787349978e-02 -1.283763174970819348e-02 3.266947744344254889e-02 1.183281030022817898e-01 5.853162590792482245e-02 1.031500603006428735e-01 8.333539240735352016e-02 -1.622258902170429021e-02 -3.954239981023457279e-02 -1.413528327409918350e-01 -3.328000292840001500e-04 -6.061793852248588410e-02 6.805129560472852196e-03 9.740727510752494878e-02 1.140847860966301003e-01 5.717737289899156583e-02 -1.516343710940119566e-03 9.567783492526638067e-02 1.432549383253889919e-01 4.094973196369111612e-02 6.068684049053996166e-02 8.778573138830818301e-02 1.085406264167740331e-02 6.209732153962074785e-02 -6.644276133696994102e-02 -3.746706804737699043e-02 1.242488809124180256e-02 -2.760933292039552747e-02 -1.511483476691794468e-02 8.060626959420635895e-02 -5.636737193918332778e-02 -3.365590352247998379e-02 2.236967583286070538e-01 1.650289009786307937e-01 -8.535763001598922414e-03 1.807735466969909166e-02 -1.572448055002559908e-01 -1.561352104447585598e-01 -2.787718900820443935e-01 -1.820402660632436387e-01 -7.601437084499942931e-02 -1.347000320321892208e-01 5.246779604802170871e-02 -6.083911706285132642e-02 2.620972698768707018e-02 -8.708610600114035163e-03 2.139433390987603711e-02 9.305737905245484165e-02 4.182789465472715879e-02 5.039128819171448392e-02 1.217646826042667607e-03 -8.794585152895272040e-02 -1.689994229323200925e-02 7.597491997736492697e-02 1.757903855557584882e-01 1.761921497679259652e-01 7.694807539047059108e-02 1.603485714167989518e-01 1.244310212724616116e-01 4.069489871659613678e-02 1.744662803895082881e-01 1.006065307669447989e-01 1.948341588127716628e-02 -2.003211285838454869e-01 -1.974550456491264150e-01 -2.584751313688201657e-01 -2.404318105227697122e-01 -1.400363110632046326e-01 -3.049691029580990920e-01 -2.384035334567822517e-01 -1.029189637076522168e-01 -3.443248700201752971e-02 2.497877298590151646e-02 8.368878861832469707e-03 -1.690542521476103011e-02 -4.703828631189862358e-02 6.497464374625050443e-02 2.154023082723471871e-03 4.450264436785764111e-02 7.387598687926161256e-02 3.890363551878423670e-02 5.749467167398808476e-02 5.321571556098171618e-02 1.492685905589801187e-01 1.192957998820438903e-01 2.143284945850986167e-01 3.260483127150683447e-01 2.082027010572186920e-01 1.114300141374509751e-01 1.505314551940549195e-01 1.463914630131346317e-01 -7.824190140964928930e-03 6.100914670356410996e-02 -2.267750470817343489e-01 -1.198174757087742265e-01 -2.380325220298796021e-02 -3.417241032970627212e-03 1.826732970181713100e-01 -6.535004151627992787e-03 6.844878037597033893e-02 2.596405041092905361e-02 -3.068839023317143644e-03 1.801934706909094630e-02 3.873527775464457711e-03 3.381207377490236254e-02 2.733021276461813920e-02 9.771969480311554213e-02 6.822203023439107894e-02 -8.405975113864377901e-02 -3.191291260618536740e-02 4.787050797689146320e-02 6.206921356969209019e-02 8.587899201329421417e-02 1.815534961662593483e-01 1.416371841921124919e-01 8.028466937065646680e-02 1.530761627343335263e-01 6.322285057976058387e-02 1.890803715258237705e-01 1.989677008354537591e-01 2.912056481488310422e-01 1.271447515310314136e-01 1.192937309542737995e-01 1.767613487641503667e-01 1.255394022336568383e-01 1.586279372262551501e-01 1.303742986851395280e-01 1.816583422324788422e-02 1.561066493885669357e-02 -1.741421867253955050e-02 2.410613180950200649e-02 2.111563804972680161e-02 8.299211241237411385e-02 -7.628451437573753602e-02 8.417848716924833385e-02 4.372669012819629941e-03 1.315179596098159376e-02 -6.687432415060398649e-02 -8.921418405251564654e-02 5.681334602845699439e-02 1.948110627241146989e-02 5.388831885879027256e-02 2.943586409088698452e-02 5.247220930640632275e-02 9.780421941353435733e-02 1.701084601822455342e-02 -5.296037595408905480e-02 1.155106823340995709e-01 -4.129383062394409443e-03 -6.503608680609955506e-02 -7.258370979235462261e-02 -1.065438126229881211e-02 -5.981643332705602334e-02 2.251216775731951572e-02 -5.226511643933283088e-03 -2.602121846941789565e-02 6.510585496084089763e-02 8.005439214988673002e-02 -4.758427109755952039e-02 7.039133160071064932e-02 -6.967677869412525204e-02 3.236756177600702555e-02
-7.235242022465918077e-02 -5.503449392708446158e-02 -9.616487303592458069e-02 -3.111829449004450965e-02 -8.889192563225921384e-02 2.021797511083556209e-03 2.302637525383526007e-02 8.720238558659029748e-02 1.501491744651621552e-02 1.184830489053961822e-03 5.916429937828548979e-02 -6.214511354422441042e-02 9.250189190638738457e-02 -6.727754479593123227e-02 -1.571730689505853804e-03 2.776014913883837962e-02 -1.774355749302858332e-02 -1.603421258690729267e-02 -6.178209316683243302e-02 2.143124398785085927e-02 -2.271804648988444419e-02 -7.799923022849696019e-02 -2.840133083169307793e-02 -4.939787900989922598e-05 5.358964541202401732e-02 -3.490855991632151045e-02 7.629207445575453272e-02 4.995236716460421666e-02 2.219763924794049270e-02 7.025807262410835308e-02 -3.425378111010027316e-03 1.468017685542832851e-03 4.473070851109731128e-02 -9.756160129351468258e-02 -6.808560034021630958e-02 3.987992903950837026e-03 -1.164333667167809054e-02 6.675978587386838248e-02 2.817450958358310581e-02 3.116884114198554059e-02 -3.129259383071201182e-03 -9.432013408691523881e-02 9.863775567261154342e-02 9.899986687020140286e-02 4.368074141985566622e-02 -4.090063037951028463e-02 3.744080121584336673e-02 -4.474297389419463339e-02 9.137772651811805480e-02 -3.089198616862993008e-04 6.084884759897959960e-02 9.375636831525872156e-03 2.578796392363005840e-02 -6.693777918853763276e-02 -4.224261445932706721e-02 3.027395990985726204e-02 9.025833749675354900e-02 -3.864137201473569899e-02 -4.365654113940887343e-02 -4.697550116393826164e-02 3.978036406755534188e-02 2.214342024649086377e-03 7.676502210795126124e-02 -9.451130027651916121e-02 8.718567104039866983e-03 6.719449270618882419e-02 -1.420153331595927146e-02 5.188358208169852742e-02 -5.087489740716218817e-02 2.692880139098206144e-02 -7.089859647304261325e-02 -6.183023554019757145e-02 1.437356184379456620e-04 3.871998467829854823e-02 -1.041198980013366138e-01 2.458269911811378217e-02 -2.650670924235967859e-04 -6.586640331849358265e-02 -2.141785688130393855e-02 -7.072419473012926672e-02 -6.933635512452257510e-02 5.203391162405862636e-02 5.640001502298322422e-02 7.723368990693044167e-02 2.385900244596990405e-02 5.419261300255251435e-02 -5.471296593725340912e-02 2.087431973855346373e-02 3.792203480761133227e-02 2.122148225837836022e-02 3.214456350646953398e-02 7.456809163071223545e-02 -4.155392812632333760e-02 -3.428209102204535924e-02 1.261208819906022016e-02 1.433233135376677479e-02 5.124924804387114008e-02 -2.079323350704923717e-02 -1.227123642698327299e-01 -7.092140321967130290e-02 3.444796061586500452e-02 -6.063611917348795538e-02 -1.591411709566197819e-01 -1.548020528321941425e-01 -4.814193620057524020e-02 -1.114807295914076041e-01 -6.019030035797420103e-02 9.194737933065040558e-02 1.609965588495848934e-03 3.657918409132333154e-02 8.951085457344550370e-03 6.660728915155719743e-02 -3.545683213709396875e-02 -3.846902744837416011e-02 -7.275252981014926346e-02 -1.525663099382437715e-02 -6.447124747262478195e-02 8.075671889915949503e-03 5.244104792302347468e-02 1.591893322649666487e-02 5.121279941154489174e-02 9.829187701238424613e-02 1.663652817610224433e-01 6.569684492537374021e-02 7.904914319130626477e-02 -1.769486820131614124e-01 -9.474291786046960817e-02 -2.361330529798536526e-01 -2.263843671676667724e-01 -2.395148320485980253e-01 -1.318796872045300272e-01 -3.695351657373419640e-01 -2.759628401826769162e-01 -1.581768176136997550e-01 -1.045726862602738838e-01 -1.308226460459984419e-01 -5.632585261384864816e-02 -5.640542823199808792e-02 1.014501701383176691e-01 5.549231050138907911e-02 2.931040786025956857e-02 9.966310889219415214e-02 8.797048334737059272e-02 -8.226760382129569282e-02 -5.696085268109103705e-02 6.190805431819178251e-02 6.888311849660075370e-02 -8.596871023225842456e-02 1.056816337391281446e-01 7.298138504636473688e-04 2.286943972615271964e-02 1.214963088219298271e-01 -7.758438961643999987e-02 1.686550328548539479e-01 -2.297770668113453818e-02 -7.916899645453032153e-02 3.096214909276904029e-02 -2.779520153014479744e-01 -2.200557936768061107e-01 -1.377893438790943337e-01 -3.094133883774996541e-01 -1.019248097751194043e-01 -1.296482257408383409e-01 -1.179310600466352971e-01 -2.263653591293873259e-03 -1.681575276419090825e-02 8.360861541522907059e-02 1.260483831064100786e-02 3.674955379916217124e-02 -3.592361705916228328e-03 3.720291999580785380e-02 8.737374866055117387e-03 -6.211102056617846118e-02 -8.739424866869048569e-02 -1.584765278451768511e-01 -6.932290888449528510e-02 -1.022520306427352615e-01 1.366597624331697958e-01 2.417727041084180295e-01 4.881572673620154790e-01 4.306313726557376986e-01 5.596178871685776324e-01 5.706829455921054173e-01 2.840699990834077981e-01 3.921227670573226298e-01 3.463598308828702010e-01 4.574301079811351478e-01 2.071961554302805542e-01 1.895155004068422300e-01 4.480693679688938641e-02 -8.043079897062008210e-02 -2.775660010994234761e-01 -1.145820689649079682e-01 1.690403435765609752e-02 -9.172578981623798200e-02 -6.758237455019325268e-02 6.859625379049112681e-02 9.396813135445804266e-02 4.188510739462128485e-02 -4.746340691523403578e-03 -1.672198605266284055e-02 -1.685324434981141095e-01 -2.738016330663849487e-02 -1.515823390002532245e-01 -4.670580967651478260e-02 1.883997744468730584e-01 4.765649085880098168e-01 5.112547583852665722e-01 7.643821603613349946e-01 8.727577494133572644e-01 6.918474339265322515e-01 4.806530495990898877e-01 4.625723641868538238e-01 4.894350177918953548e-01 5.246417896026699390e-01 6.009520151308038738e-01 5.905442151421651520e-01 4.835738481125649857e-01 2.498870752138329654e-01 -2.932529908683563155e-02 3.176701968227071959e-02 -1.537342486194601295e-02 -9.882373529547321123e-02 7.303043504002116465e-03 6.785619505714905741e-02 -6.287388509313079910e-02 -5.442375600503675942e-02 -2.683184117403346336e-02 7.922544972598014046e-02 -1.210482426651337921e-02 3.233338613667923606e-02 -4.330410706252912911e-02 1.326403602967297368e-01 6.414515112889679349e-02 2.150637000170333990e-01 5.800434551990459875e-01 7.439922518186189437e-01 5.916548195776436536e-01 5.730851337824944824e-01 4.155808287129160172e-01 6.327785949421688150e-01 4.294977423939388417e-01 4.641044089743138201e-01 6.455630888713262960e-01 3.910060520992789668e-01 3.464273346467303671e-01 2.499307085773106174e-01 1.420696558167626189e-01 -2.930336580330052468e-02 -9.431621538945736405e-02 -5.550156725284063897e-02 6.727569393995817826e-02 2.037315722769043186e-02 -3.101056603353595856e-02 -4.196590666093651112e-02 5.127514344890866937e-02 2.548673229722785843e-02 5.243359462766257473e-02 1.354109460181074365e-01 1.018930684225866495e-01 1.033031221026308316e-01 2.574015829695895374e-01 2.932498353118040968e-01 3.936267192669705151e-01 5.822740613989521030e-01 5.773832547988105857e-01 7.790301045120002765e-01 5.431414075402200003e-01 1.674916440009573126e-01 1.117132346695841050e-01 1.881217892403794500e-01 1.818032478181076383e-01 6.861895886892135921e-02 -3.871635737818057005e-02 2.136090529064413601e-01 1.563803075096232842e-01 1.267046759283340929e-01 5.168118485429533566e-03 9.794629327181333944e-02 -4.277377169598827605e-02 3.076345287912518253e-02 4.271879216444092296e-05 9.210582067420929053e-02 7.959537388912089201e-03 4.961220158045959172e-02 3.947062523486940394e-02 3.150437641859342164e-01 1.843947469787430571e-01 1.902498325545621538e-01 -1.361992331670597127e-02 2.065494773171255294e-01 1.699457021391846401e-01 3.069021800629375130e-01 6.217760825113775036e-01 7.947813054606659433e-01 9.171938554353856188e-02 -1.285091327798004203e-02 -5.215316777523736069e-02 -6.890933705659361974e-02 9.068729479153804507e-02 -8.548252380902075787e-02 3.195628173653085324e-02 1.953655925336698906e-01 2.901704346369561871e-01 1.681560710891350230e-01 1.044392116838277346e-01 -5.634186241580475818e-02 -2.713368893194420192e-02 -7.593831308354635767e-02 -5.038749474984895865e-02 1.214240518829988805e-02 4.073179784358096911e-02 1.223990174903979850e-01 2.136309618250702425e-01 1.611900339551012862e-01 1.360321563306637720e-03 4.235510928307165135e-02 -1.417540254951320799e-01 -1.876479015370975389e-01 -8.374925170536852426e-02 1.222628251589418374e-01 4.637301199088332271e-01 2.809750415124205314e-01 -2.168976431463271945e-02 -1.929185237562019983e-01 1.088858490802796924e-01 2.362050002976638086e-01 2.729949186423179935e-02 2.151023717517012990e-01 1.183421934570763889e-01 1.058930861248825739e-01 2.828719391558891516e-01 1.479226620450215801e-01 1.815587727181359468e-01 -4.356846871825156148e-02 -3.973117049373905973e-02 -7.601612703877146104e-02 3.136930652822046695e-02 4.988860502417288151e-02 -8.460468898088878420e-02 1.195565422300707142e-01 1.476940893527224075e-01 -7.142110608358648305e-02 -1.829941670915881113e-01 -1.780687622904422174e-01 -1.805621037592293476e-01 -3.842244100958704944e-01 -6.572710022556748077e-01 -7.549835955423686018e-01 -3.048446901496576489e-01 7.941593565207165362e-02 -2.651459093602380190e-01 -1.997515907078523112e-01 2.503506919757652049e-01 2.119046565353334410e-01 9.611123064218100864e-02 4.377411656588049704e-02 4.114452456458033563e-02 4.670386491148141583e-03 1.193370932934303547e-01 1.488054020659174970e-01 1.338813548362523531e-01 1.930914265811154926e-02 8.815160262552942938e-02 4.057654497642262936e-02 6.889547288987085683e-02 -8.122330866432721230e-02 -2.409326329693265573e-02 1.371009597250610057e-01 -1.618735495797137824e-01 -3.690776637368001767e-01 -2.042543132625667390e-01 -3.618175100975627445e-01 -2.644860243886644757e-01 -4.244720421024267276e-01 -7.443279712453351182e-01 -9.372062787395046835e-01 3.263070300763254439e-02 2.683909139377899100e-01 -2.570179406835215730e-01 -7.464700805244336990e-02 -8.123699242727788761e-02 5.349905888030252916e-03 -1.493737477606379982e-01 3.470638556583079820e-02 -7.258071690534348419e-02 -2.274556252638317011e-01 -3.459241293176520959e-01 -1.839606993015296121e-01 7.455116520430203619e-03 -1.774323159977245906e-02 -1.360757553964021122e-02 7.419906831086944821e-02 4.027597272470120199e-02 9.746268683017429713e-02 -1.906919470900389491e-02 -3.218710828378918559e-02 -2.910866912669048956e-01 -2.645148432878512423e-01 -2.359345751943721370e-01 -2.532609617172312810e-01 -3.670958240681545526e-01 -2.148308753405657190e-01 -6.626962678483681035e-01 -7.039783100296658214e-01 -2.830674176685977345e-02 1.140235040415125134e-01 5.850676264759591821e-02 7.281838383599113958e-03 -3.340877421057960595e-01 -2.204402368304612114e-01 -2.387129275487446523e-01 -2.405877167462394661e-01 -9.871631840501088329e-02 -2.228393748390813944e-01 -2.221240196665892064e-01 -1.933805979019046217e-01 -5.464473782057813200e-02 2.152220142646275175e-02 1.515994496289426981e-03 -2.415078802783189246e-02 1.643578373743433130e-02 -1.118559139065203878e-01 -1.066835406413807995e-02 1.909088094827985152e-02 -2.942230608123397873e-01 -1.748790162955867755e-01 -1.192667530497249079e-01 -9.848592826136731704e-02 -2.833850415822338209e-01 2.121508606388660886e-02 -1.890836275900003860e-01 -3.545917801428778993e-01 -2.185173966459455219e-01 -2.105438899691813026e-01 -5.858743120477900683e-04 -1.570039440835390432e-01 -2.971106490147716883e-01 -1.446301303674648875e-01 -6.339959048887860993e-02 -2.580140219787909958e-02 -7.910170210092645759e-02 -3.437724279646011127e-01 -3.451233750225111141e-01 -1.438134964591926690e-01 8.056220401245758889e-02 2.001634048121807286e-02 1.601735453002024051e-02 -3.323581972444605154e-02 -1.401543650545742509e-02 6.483013428935366362e-02 -4.889005225792747433e-02 2.680656118240898680e-02 -2.307135934194307070e-01 -3.840363836427154731e-01 -1.826695926694777983e-01 -1.240237817100234841e-01 6.730694326745608608e-03 1.795570425519388003e-01 -4.578061564506409609e-02 -1.112192592968906796e-01 -2.569684642224610016e-01 -3.523837431096428219e-01 -4.939937361543474403e-01 -1.625132745533653944e-01 -3.620957195918604876e-01 -2.746583606254415222e-01 -2.436965003376863892e-01 -2.908658981776856001e-01 -2.087222191108743241e-01 -1.561992275309764533e-01 -2.014197416767019022e-01 -8.429812650734026802e-02 -5.760497125476979341e-02 -4.204392517591475087e-02 2.493804943897697662e-02 -8.463339876844605536e-02 -4.868858179862191327e-02 -8.045256514158095895e-02 -9.630635735199283287e-02 -6.199241557986059220e-02 -1.873728187622160091e-01 -3.245368150594178935e-01 -1.774705993435292950e-01 -1.081334521688609857e-01 4.591908571822959917e-02 1.694951308032025261e-01 -1.810070774589966902e-02 1.892869136011900988e-01 -2.243504944693249237e-01 -4.590162280798942840e-01 -4.590101931243327771e-01 -2.694491626267714324e-01 -2.542797739727352679e-01 -3.833322668171483816e-01 -5.052041116418876793e-02 -1.221036010161645202e-01 -1.246256115719451274e-01 1.992286774199886548e-02 -8.878680942783173657e-02 -6.897095369915674790e-02 9.955809101861456956e-02 9.823219637518933178e-02 -6.812704462777782743e-02 4.239989609113919283e-02 -8.062542416119776456e-02 -5.000435165556979533e-02 -7.065812329824100457e-02 -2.011483911492936427e-01 -2.108205402875653334e-01 -8.787527794661324776e-02 -2.570539160441612236e-01 -2.033559013242951241e-01 -2.078291399742634646e-02 1.086265407814684530e-01 -2.436096734685377647e-03 -4.932821971054829890e-01 -2.644581354763971270e-01 -3.744540951096350656e-01 -2.065799581136551211e-01 -5.599019121113286701e-01 -1.263325001544993859e-02 -6.087223975819886640e-02 1.419144008457778883e-01 -8.647921375719357096e-02 7.997344980862729213e-02 3.048938365299145303e-01 -1.072784624549298453e-02 1.115976383448644693e-01 1.134351557397408755e-01 -5.029430742577707669e-02 -5.426574191828317101e-03 -8.894191627442389614e-02 5.855029062934603151e-03 6.813950267642771702e-03 2.773158591089330133e-02 -7.796240842174358143e-02 -1.672220033959759544e-01 -5.213434943425945128e-02 1.394071269693888393e-01 6.557268095305021638e-02 -5.147323035740457298e-02 -1.689952374098337845e-02 -2.905843252791139864e-01 -3.071232696763460113e-01 -2.168125175467779109e-01 -1.534660985087702711e-01 -1.092478605258268703e-01 3.867345956345454722e-02 9.938727867604392474e-02 5.983462036851101146e-02 2.948871060816907197e-01 2.169351163792700432e-01 2.707639764718552944e-01 2.729355142469411244e-01 1.187650732949619703e-01 1.087043626497750243e-02 4.249367133655595347e-02 -6.566655111362305029e-03 5.027641360737229032e-02 5.208019375326164435e-02 6.499277231388415725e-03 -1.600177340516822574e-02 7.435642207056421260e-02 5.434769305887413721e-02 1.691596406270852171e-01 9.723582881719212978e-02 1.564003072607384748e-01 2.035258107781824644e-01 -1.900527401670085159e-02 -1.282011785670770510e-01 -2.161771892336680212e-01 -3.385332101740051169e-01 -5.574170338615568043e-02 9.940468191336813975e-02 6.565249036567756546e-02 2.531814841857850662e-01 5.556347117430245758e-02 5.573004119774829790e-02 2.277241282495363617e-01 8.914239260704576173e-02 2.475682189392333921e-01 1.974387496739166137e-01 2.557990344894535140e-01 6.895633052941766827e-04 -8.298288565354031837e-03 2.293510508687688666e-03 2.017180983452890319e-02 1.875684227379465982e-02 -9.574734406717735902e-02 9.900668969835092759e-02 -3.081716283949901408e-02 1.567161220332116967e-01 1.331363572302569909e-01 3.445478771961421049e-01 2.087906286717976789e-01 6.612099063639839680e-02 -5.787285464144222014e-02 -1.979131616850343112e-01 -3.411179692242226058e-01 -2.701105193222317902e-01 -3.273903155900553252e-01 -1.351528469021250345e-01 8.187048016065867628e-02 -4.635290846024674172e-03 -1.203873510172148859e-01 -1.242453024623353802e-01 -7.633875885302764119e-02 1.033699469166953350e-01 9.077679047465690709e-02 1.447921581857483653e-01 1.725814904978036080e-01 6.019869097343778092e-02 5.468549190641047719e-02 -1.070318497842264877e-01 2.351999806004053534e-02 6.031046963127498217e-02 -9.908253449975530647e-02 2.991584696509487148e-02 2.095803750601907267e-02 9.677486443026126969e-03 1.041198790172821603e-01 2.981549918072791128e-01 3.010084236204900177e-01 3.197329230262218602e-01 2.611213396787865348e-01 6.757176161276205739e-02 -2.099910563019049825e-01 -1.476305531709075636e-01 -2.559666421082120169e-01 -8.390393659014483418e-02 -1.713932481748299819e-01 -6.038266889242872512e-03 -2.705168055416109010e-02 -5.693870437958679226e-02 -2.294727602276789846e-01 -6.554432206848408160e-02 8.042646642543407887e-02 1.328188077351779850e-01 1.753984864616389139e-01 1.429559787720619812e-01 9.893619507198775365e-02 -2.708212991609430104e-02 -1.927957615661828744e-02 2.650775023695028931e-02 1.774876380245685170e-02 -6.239692381700191748e-02 2.480516786549288692e-03 1.135589092645314518e-01 1.813351752649473847e-01 1.487132537004282329e-01 2.423716995436188404e-01 3.906695374826149592e-01 3.483872548923510615e-01 3.581743878817696958e-01 3.791903214960519186e-01 3.399303686077932984e-01 1.225428545104603889e-01 -1.317048293663482424e-02 2.554386191690994345e-01 3.094725651720337672e-02 7.428311373868096146e-02 1.187809772576672585e-01 1.414898653207041501e-01 -6.608148469557617588e-02 7.510820988967234491e-02 2.132620914356424535e-01 1.322595098673997049e-01 9.065292061191827788e-02 -8.315082952673575126e-03 5.583644047609914035e-02 5.484875108950337808e-02 5.510602476781886749e-02 1.731050138704619268e-02 -2.581357026422030632e-02 6.564906408621269673e-02 6.620707798297745250e-02 9.149127360652105356e-03 2.478425409863755161e-02 2.739597592262721718e-02 3.253547480341534293e-01 2.947555934604361161e-01 2.724224383631042024e-01 2.932659378049429222e-01 2.373068327915277553e-01 3.025133342297921524e-01 3.235842831753926174e-01 2.566194621730260583e-01 1.664749096934566852e-01 1.357256096977739468e-01 2.626264645486841576e-01 1.355363641942981257e-01 1.855976710932205620e-01 9.527577635578343695e-02 1.401178926133209990e-01 2.855685692827019534e-02 -6.924275071587696062e-02 7.981234340172269071e-02 -1.976730883484240434e-02 5.789633497272639318e-02 8.862021537443118269e-02 -1.155656654090925217e-03 1.762954761039535467e-02 -5.685160752220321662e-02 8.978521742817521800e-02 8.981934536100268096e-02 1.468855662190377276e-01 1.738033036556078104e-01 3.467322815364446975e-01 3.997258383443130780e-01 3.543888994222152422e-01 2.116378543613015584e-01 3.701241402104715195e-01 3.292617894965613190e-01 2.986297777947999332e-01 1.553979012419851591e-01 3.781155488106889284e-01 2.478775593800015553e-01 2.556285240420265170e-01 3.411918751891055979e-01 2.101370053617418743e-01 1.836414487384560035e-01 5.401358078183585154e-02 -4.287180350033673037e-02 2.606081159674546871e-02 -5.724018946086320558e-02 -2.115478019486980582e-02 -7.650044883050305389e-02 2.636276182863286910e-03 -6.768318914407120412e-02 2.095168200555759530e-02 2.772179080389213304e-02 6.000923391920304217e-02 -4.938022769093905473e-02 1.443672463201984557e-01 8.309286701156368138e-02 2.107494743824062378e-01 2.938594857017210460e-01 3.609106213949128117e-01 2.045152614997456098e-01 3.239695779477750337e-01 4.410653198588935786e-01 5.375762314727301483e-01 3.490945794403429447e-01 3.366558250785934847e-01 3.135437558251557011e-01 3.516091944792404389e-01 1.579487607642161562e-01 1.136742948962079641e-01 1.665104109767827356e-01 1.116677288104886423e-01 6.255038020670948551e-02 -2.464040200359050511e-02 6.518323828720032354e-02 9.248984239556790055e-02 8.519535142543932515e-02 -1.050595827549793970e-02 -1.919559044276070159e-03 -6.140424492474136353e-03 -6.016461535613737421e-02 6.427672028493393308e-02 2.651737172721040439e-02 7.006824252262407182e-03 3.615766179953426585e-02 9.725951453454527440e-02 1.461567850945581955e-02 6.918667503903044858e-02 8.478307005760070403e-02 7.631818098465362188e-02 7.854866389695218387e-02 9.009883327963096045e-02 -1.313168270207139623e-02 -3.966847736865673421e-03 1.170441883227210308e-02 8.310800470770922377e-02 1.451795325553852656e-01 9.725050856984170100e-02 -8.497964739264429745e-02 4.973561208588965499e-02 5.128258639080750941e-02 7.554474361091575996e-02 1.202437623367973163e-02 -2.991903181800835421e-02 9.335729340857143455e-02
8.936913362176998610e-02 9.654207550498569712e-02 8.160465600015323617e-02 7.028369477254917119e-02 -6.750701488202198730e-02 6.461971189669837856e-02 1.219494958311133359e-02 -4.979236797387627533e-02 -7.752506870121129989e-02 1.244368819702920681e-02 7.598569753970418894e-02 8.132442712208384772e-02 7.439105194922934761e-02 -1.642149502544297882e-02 2.460712986761768445e-02 8.344818503793183240e-02 5.366171988784748659e-02 -4.230407162270038296e-02 -1.567652646523269577e-02 -9.892038779870888920e-02 -7.959823881511036980e-02 1.544185445560734837e-02 8.915458862462380396e-02 9.866883477733409680e-02 6.557147289601022999e-03 -2.309624668834249495e-02 -7.766164124552817072e-02 1.966541053319900700e-02 -2.891971531129465534e-02 -7.464804674164240983e-02 9.593118286937832306e-03 -9.602795379616163585e-02 -4.598781241372156686e-02 -4.805292507995760631e-02 1.724940193089482231e-03 6.214671176451688067e-03 -8.176185420619647148e-02 -7.519202775092624635e-02 -7.538026047143414621e-02 -7.824501317636640280e-03 7.336718912967850337e-02 -7.224064373725264110e-02 6.572802326469619205e-02 -9.388647492982211962e-02 -8.145390112413379569e-02 -5.344364015527779815e-02 -8.804977717616704891e-02 3.171097849521936738e-04 3.920349130662743181e-02 2.308038796416463784e-02 1.819377028120060594e-02 9.518881445761571969e-02 -9.877604420495594839e-03 5.698949011805604092e-02 -8.703230234675352062e-02 7.620660964856948438e-02 -6.349285050401173858e-02 -7.259230921021726790e-02 5.491896431767808590e-02 -5.432790494282976890e-02 -6.970006526545950709e-02 -5.565299705733445235e-02 2.071130357328085023e-02 7.412033427963730936e-02 -3.741631618039931856e-02 5.621294781777164823e-02 5.976891558953534300e-02 1.115787550853013788e-01 -1.929802429418890630e-02 6.055676681015376844e-02 -4.221501776922832044e-02 5.433361656936194772e-02 9.309594715565337741e-02 1.003076214914096903e-01 8.170315836926811404e-02 9.001414345470271083e-02 4.426248203430028366e-02 -6.024577809353918317e-02 8.238696794120199673e-02 4.113580866011978115e-02 2.856407944926430895e-02 9.008319297672355563e-02 -6.954714674408397912e-02 8.772432831116408480e-02 6.826054450719920563e-02 5.962637226625230880e-02 -1.264101369047841358e-02 -7.060960346651060093e-02 2.872583859586413935e-02 -3.464402120730051410e-02 7.121810596141611716e-02 7.963439853941350899e-02 6.081346292727853042e-02 1.050560483570846387e-01 1.865756674630932033e-02 -1.775338976654872725e-01 -8.800966671756471627e-02 -7.282348829341633856e-02 -9.487921622397872679e-02 1.015777063491168086e-01 9.251835501906362225e-02 9.243659560690106747e-02 -4.319595097232876990e-02 1.429602485424583957e-01 7.996864969666872547e-02 1.727247494394076599e-01 1.705789972777341929e-02 4.297764537649156891e-02 -7.978967979136139532e-02 2.530463324196122535e-02 -8.990986349990097437e-02 -6.973272666202914860e-03 -8.797916703497453417e-02 -5.106007555222715627e-02 7.000375181164790461e-02 5.288944154966922911e-02 3.108423102084187373e-02 -3.819994100422367117e-02 -1.231587812713270391e-01 -8.280976415041407801e-02 -1.902761731975974313e-01 -1.047666877043434974e-01 -1.549353821957883404e-01 -2.293232817370952636e-01 -1.994911451245069967e-01 -2.893885317419043757e-01 -7.640728774736509077e-02 7.459737463221018106e-03 -4.163180882702438579e-02 9.797044655719401585e-02 -4.580861384504972440e-03 1.769511489877858001e-01 1.183943495960124576e-01 1.424790050976711686e-01 1.178281224103213121e-01 1.515470233535975986e-01 4.634838339073903135e-02 1.932091822778483209e-02 -9.711045459032735527e-02 6.392553789213202553e-02 -3.756509370629388528e-02 1.383084903758997897e-02 1.595002228735502292e-02 -4.518013287165704300e-02 -6.131224323692884698e-02 -1.632441269697249564e-01 -1.733553246883854926e-01 -2.709617976184903743e-01 -1.268701000642376842e-01 6.651741336291552842e-02 -2.637512077488795015e-01 -1.336412004364385675e-01 -3.624955722541954584e-02 -9.131763909076737185e-02 2.705547147332054356e-02 1.038655561034504821e-01 -3.172824140382485281e-02 -4.917062999703068066e-02 -7.326124779777988538e-02 -8.532073244440804838e-02 1.353958861537569447e-01 1.187125552890973268e-02 1.079698463332285502e-02 1.116063094486708790e-01 -4.414582898734131094e-02 9.924611161801677461e-02 -1.608724253326638751e-02 9.086356867353874434e-02 -2.621931269056121394e-02 3.093548582328634056e-02 -5.572533484041296281e-02 -7.999458608657891712e-02 -1.941144424503914168e-01 -2.634778124220662487e-01 -1.777943942158664303e-01 -3.791183621969173440e-02 -1.858472370613725444e-01 -1.614583607908045004e-01 -1.937660918367020702e-01 -1.939110429876754471e-02 2.705838100912184505e-02 -1.003567128087125698e-01 -2.489404699636776908e-02 2.638197441063514989e-02 -1.524894237336539005e-01 -1.591654722180211590e-01 -4.185073190343237548e-01 -5.087016303355362118e-02 -3.462868013379926529e-02 -7.418256602818161516e-02 9.215812753034093030e-02 7.554574151982412777e-02 6.075052699070508655e-02 1.850452978443968208e-02 9.698327542624213260e-02 -3.135651368421942670e-02 3.603099612954117209e-02 4.261905461188945227e-02 8.715943596320874232e-02 -1.410550069859325129e-01 -2.103844052513118845e-01 -2.856438803385280556e-01 -1.070550774581573300e-01 -1.748034273994857890e-01 -5.687123674641440113e-02 -2.818472121514689066e-01 -1.674710552792977314e-01 -6.731243899180695822e-02 -1.906116582935419024e-01 -3.929735471931734836e-02 -2.393588098334047676e-01 -2.362126304463824655e-01 -1.670270349160904166e-01 -2.259617321704844861e-01 -1.646036679882715570e-01 -1.466353800732589086e-01 -1.736745045278850763e-01 1.013692917794321718e-01 4.824349944729015849e-02 1.607167661015508064e-01 2.472278960565261474e-01 7.915158933255402041e-02 4.522133114841047491e-02 -4.675900584876436367e-02 -7.396763115123683452e-02 -3.023822504154430324e-02 -2.150001372519278961e-02 -9.675368743303794372e-02 -2.309694310448129062e-01 -1.023605117313471508e-01 -1.777847473990520621e-01 -1.366908780562071657e-01 -1.814208976508447091e-01 -5.207194042905205489e-02 -5.038549585633875227e-02 -2.904182210350488708e-02 -4.195276339002800697e-02 1.753833893526075480e-02 -3.125586736205597793e-01 -2.331674133742697164e-01 -2.541944335204294192e-01 -1.603147895336631545e-01 -1.345576561032399143e-01 1.477169217524076060e-02 1.907178723995093389e-02 1.291224044937779591e-01 1.377580430081808693e-01 2.397585288719162322e-01 2.330630405228033830e-01 7.261574610090894277e-02 -1.915789395692642921e-02 3.558840714481829176e-02 -9.115198650362326196e-03 -3.859278429371060248e-02 5.646652198082482976e-02 -1.382305563563802075e-01 -2.003379358299350321e-01 -8.947586123343177766e-02 -9.234278814272907365e-02 -9.535151328534216542e-02 -1.163132349070630234e-01 -1.500451155947192250e-01 1.560602498783560978e-02 3.449060047275896435e-01 2.136634181627586893e-01 9.338759970436082136e-02 -6.489373219012059546e-02 -1.721430235350554505e-01 -3.148959263648701268e-01 -9.021473169785818036e-02 -2.441339560663172842e-02 -8.388193004613830883e-02 5.669480775080321111e-02 6.273649016080025398e-02 -3.488934873984632368e-02 1.207796825444362593e-01 3.821611398791629338e-02 2.404662278199438258e-02 -8.696145291409966560e-02 -9.636949992597419745e-02 -3.488975479704848476e-02 4.141987701133727218e-02 -6.698601231484146989e-02 -7.450666977987004634e-03 -1.031453943926434885e-01 -8.963968893727732035e-02 2.910103034726176791e-02 -2.667356100545770995e-04 4.082224692864589582e-02 2.441242379271252039e-01 3.802688950530912493e-01 3.154770487478367191e-01 3.205625981798359003e-01 2.877914623375680825e-01 4.402463965422496739e-01 2.722927210841457613e-01 -2.136744082414161403e-02 -2.106209511989936556e-01 -3.505795710155323180e-02 -1.630926370360878119e-01 -1.954886352437440467e-01 -1.803357153190308648e-01 -1.796148523629838012e-01 1.064456197062869647e-01 -1.206820892373108439e-01 -4.814754885263504425e-02 5.145565171899067758e-02 -1.041889255280874227e-01 -6.936469502281356059e-02 9.886104936599793280e-02 3.078746948895073193e-02 -6.680093282879590033e-02 -5.246620460183181595e-02 9.309788433319715617e-02 -1.162654733526665395e-02 4.371234762846044203e-02 2.413483123272790187e-01 3.105603170971626414e-01 1.430070322832507068e-01 6.200766699162065659e-02 7.752120600142331161e-04 1.376615928046345805e-01 3.606764049778771741e-01 4.242242977783617364e-01 2.005979365919564883e-02 -2.147710530103403570e-01 -9.021277020353604681e-02 -1.541419330397701959e-01 -1.400417116231925663e-01 -5.566691950823565022e-02 -1.505394265490390404e-01 -3.706574452750911741e-02 5.750815521976603700e-02 9.012238128502883527e-02 -5.917495443036357994e-02 3.218746101281327182e-02 -8.529536245287630547e-02 1.952216975018120776e-02 -8.262402551659175226e-03 8.383224084354881644e-02 9.001636016562872267e-02 3.422438191931718998e-02 -1.367568799979440308e-01 -4.132438683147091063e-02 1.560699986123718387e-02 -4.782521746987117295e-02 -2.037989413805744998e-01 -1.164428731786072563e-01 -4.339750004150517981e-02 5.104243496503687617e-03 1.591474912679629594e-01 3.049670759017963362e-01 5.310584599127741307e-02 -1.500856250227541877e-01 -2.467641399062824314e-01 -9.803296908978664792e-02 -6.779640012493537427e-02 1.580924866497677647e-02 -1.938850422409645613e-01 5.561542409578403012e-02 -6.736802033004801737e-02 1.443106353203606543e-02 2.739190912989218629e-02 8.352775557340201551e-02 -9.513079804394175554e-02 -3.439945077640969850e-02 -9.945113195873102330e-02 6.043202654846554361e-02 -1.255400724565661763e-01 -1.081941303748040206e-01 -2.303159709610629324e-01 -2.070558417238063942e-01 9.970265003959884187e-02 1.650987829849310390e-02 -1.036130224837329833e-01 -6.517218353552849119e-02 -2.631379508160152161e-02 1.834831980285843989e-01 3.383291900572589217e-01 5.937386745148510725e-01 2.399066368020197071e-01 -1.049100581136593741e-02 -1.644982142067347719e-01 -2.159501731293335947e-01 -1.789401837769859227e-01 -2.145738216319023894e-01 -8.582855465326855171e-02 7.958172061701034028e-02 3.019582127410400801e-02 6.401334435911515408e-02 7.924771732563379301e-02 -6.453889025509018662e-02 -3.313166185978735911e-02 3.246862018399732097e-02 -3.566845896277391625e-02 -2.868831259933773623e-02 2.336204453510921583e-02 -2.073982116172674861e-01 -1.757040768587429247e-01 -1.565971827432831864e-01 1.854245212238101468e-03 4.684356950651861334e-02 1.172484826355658372e-01 1.021825058630058611e-02 -8.229213647845937118e-02 8.002707429880728807e-02 2.582985858586969163e-01 4.109416757791413133e-01 6.084679139677667825e-01 1.208793324874167102e-01 -3.087400683293984871e-01 -4.139675620847397264e-01 -4.450705141437200085e-01 -4.837784427543436183e-01 -1.967527526479790623e-01 4.973899590531934492e-03 -2.728240040794284449e-02 -1.146337348667237147e-02 7.377133462757590188e-02 -3.542797828144573363e-02 -4.810976671829633386e-03 8.044151579018864184e-02 -2.669564748985556873e-02 3.303385361336592246e-02 1.117075447693110894e-02 -1.048288859047794425e-01 -6.514450758117008855e-02 -1.036646786621186339e-01 1.891505628755150159e-01 4.230841644931361556e-02 1.118617623591553895e-01 -7.579641871137755837e-02 -1.390256057295998215e-01 2.290318272300233826e-01 4.471947117353707868e-01 4.315177175798426412e-01 4.850296615042994919e-01 -3.436589620837791903e-02 -4.018569299127179306e-01 -6.114632972671930622e-01 -6.156157005617786115e-01 -4.254998895111484769e-01 -2.000311048757387744e-01 -7.485127322617333989e-02 -9.177558730782982288e-02 7.704946142262113218e-02 -6.307905987913658974e-02 -6.291774041689909835e-02 7.259488676502388882e-02 -6.022706556559435237e-02 -6.226905887330749095e-02 -1.203723547405186056e-01 -1.699090945649277540e-01 -2.371086802451121966e-01 -4.861911512918655476e-02 3.256586648597142863e-02 1.265971806018008905e-01 3.862231981365960576e-01 3.001913332261620382e-01 1.322794582924571027e-01 -1.309623958802089982e-01 1.430682369089440187e-01 5.144446967666677084e-01 3.609999834443087807e-01 3.489286210103935693e-01 -1.891015557256506274e-01 -5.286870628629084523e-01 -6.638379094771279521e-01 -5.267203768607620074e-01 -2.912580757407695065e-01 -2.648587977551479233e-01 -7.598920992342632005e-03 1.281765079453750511e-01 1.138766157878829260e-01 -9.698029692779441824e-03 6.219978023999356287e-02 5.133288335557431581e-02 -7.100778210411685942e-02 2.146880833528346487e-03 -1.533851369825175726e-01 -2.165372683075313665e-01 -1.797445946805666939e-01 -6.212985481907658258e-02 6.541231630959312357e-03 2.005918326298285204e-01 6.087208569930596669e-01 3.208370063220279955e-01 3.516179265266913267e-01 2.561026457844804982e-01 1.565983997129343219e-01 3.544943287672376320e-01 -6.266044134139725497e-02 -2.570242806196660901e-01 -5.936763007805913039e-01 -5.457270633081485744e-01 -4.140016631100966182e-01 -1.531614471225459795e-01 -1.754599271734702259e-01 -7.317872707154038370e-02 -2.855367428378093389e-02 1.651059640392268935e-01 5.444466722914778622e-02 -6.395978358077374082e-02 8.226852314102520158e-02 6.440276263703004211e-02 4.212191110846445416e-03 -3.473565855504441580e-02 -1.158482439819017717e-01 -2.742386018827747129e-01 -1.017551563371550671e-01 -4.909441484061162486e-02 1.151423174357254914e-01 1.230942744891997120e-01 4.697158443117886995e-01 3.808782096975460996e-01 3.500824232392903412e-01 4.489573511585048804e-01 4.677554721345182354e-01 1.421374786694738490e-01 -3.605069827936795424e-01 -5.559588336226697347e-01 -4.395221323645094880e-01 -3.464801863884389155e-01 -2.183652631840669878e-01 9.735285008903407644e-02 -3.199480169782039501e-02 -3.546828038382958403e-02 7.763205164948704107e-02 1.572894141923801836e-01 1.313028539118533677e-01 -7.884393335861893115e-02 2.087295866582907639e-02 -6.009216686460694401e-02 2.532880898062122091e-02 -1.298556068174265381e-02 -1.902840657342647623e-01 -2.348745830479661845e-01 -5.558231999418496161e-02 -9.713162665138634286e-03 1.874184529250157438e-01 1.702645747298293932e-01 2.857650094591230872e-01 2.643454412733771131e-01 2.443432318267977632e-01 4.036498569157973004e-01 2.607909749093643703e-01 -2.409868797458653011e-01 -3.711625873447444435e-01 -4.019580334613659378e-01 -3.178891502658333645e-01 -1.218219103227321382e-01 -2.506743588076811372e-02 1.490466067931443817e-01 5.065318740855244417e-02 2.668556164010820950e-02 8.825845830468069531e-02 7.728508551022673922e-02 5.799718484960759285e-02 -7.852501135135583898e-02 -6.808865490600316927e-05 -5.239727900047892739e-02 6.554999651812083196e-03 -9.897349077187692079e-02 -1.301829808596663973e-01 -2.429606331853790824e-01 -1.720187187021836039e-01 -7.680183516758001816e-02 1.515637137221350350e-01 1.296963933651235079e-01 2.817498733393415944e-01 2.400108991695251714e-01 2.168803032549079246e-01 2.664235267410104968e-01 -7.121123787567432140e-02 -2.869264190820641769e-01 -3.378425803060996491e-01 -3.178749224254662220e-01 -1.415364455731633886e-01 -2.327086284179998564e-04 1.520674387072012135e-01 2.665796144995831105e-02 5.835176440510230801e-03 1.717020207384230557e-01 2.465485082901188452e-01 1.787595962916232739e-01 -1.475302956526776919e-02 -6.040331994087173167e-02 -2.702960807500506477e-02 3.209023107522557261e-02 1.359203668309415941e-02 -3.134061580291874066e-02 -4.776585432782223112e-02 -1.466456712780111193e-01 -2.669275402914149664e-01 -6.956403391995269470e-02 6.623215664665098312e-02 8.894641467848973804e-02 3.572989234340836484e-01 3.472439763428366022e-01 2.229087973576485415e-01 1.194065618344135188e-01 -6.351511885676124070e-02 -1.248565986796666416e-01 -2.809322944492280150e-01 -2.111185485388651917e-01 7.857095161943246364e-02 -2.398014084206923080e-02 -2.958717455964398821e-02 -2.002532702337840934e-02 1.860065046959141488e-01 2.491716511327242700e-01 1.437647876760698440e-01 4.478886374856298758e-02 1.507840909442176303e-02 6.794827931497980644e-02 8.632448459507585659e-03 -8.516465269330161791e-02 -2.493061902658352119e-03 -5.074078987663507845e-02 -7.889389043040304084e-02 -4.004262685381665410e-02 -1.654657488911340513e-01 -1.475493976966949505e-01 -2.707797395491600909e-02 -7.555416672731525563e-02 1.022890812042241138e-01 3.988044604861772785e-02 -2.876707349475057796e-02 7.861545881122199153e-02 -1.671230003869304259e-01 -3.185857487398684185e-02 -9.691155962980628480e-02 -1.204587767331237735e-01 -9.252042776695618143e-02 -1.897140278008851641e-02 -6.793352388580976842e-02 1.496015143455039775e-01 1.950315583065338476e-01 9.804146373032485151e-02 1.210137260994456759e-01 5.926786733580519106e-02 7.061500996152413057e-02 -8.307330088810353785e-02 -8.227159341538915760e-02 3.763290291397689002e-02 -8.950516483512600818e-02 2.482379718289531422e-03 -1.039227546004621444e-01 -2.839145811913408243e-02 -3.006986058781649929e-01 -2.530118454774464287e-01 -4.608091906686114236e-01 -2.178207300011364977e-01 -5.053866812472233155e-02 -1.113850798969525657e-01 -1.702035573392621237e-02 1.855118858703771467e-01 -1.451218777485773492e-01 -1.289630129680472415e-01 -5.761587493296158741e-02 -3.544316178401329259e-02 -1.719945388038828793e-01 -6.593400885905032621e-03 1.378105387007777793e-01 9.883534355194664722e-02 -1.962830042380978024e-02 2.124194554903941629e-02 -3.765128590617942278e-02 7.138331909339760972e-02 7.073225512308828344e-02 -6.408305982594574013e-02 8.662010080126572587e-02 -5.381218886761657272e-03 -5.258100425296211022e-02 -4.047014686614845702e-02 -3.309922503628506818e-03 -2.096773310962664061e-01 -1.388699575350688942e-01 -2.608509631717043642e-01 -3.172848374842234254e-01 -1.689837735598525292e-01 -1.982614058552982228e-01 -1.555014819702845441e-01 9.204547271104027151e-02 6.828973270585549094e-03 -7.215292537169094855e-02 -2.162403879672200324e-01 -5.987211627303921924e-02 -6.183022613418452662e-02 -7.014768519730302243e-02 1.337063469174907815e-01 1.170887358524601712e-01 -4.061747276299291359e-02 -9.013663153260442415e-03 -7.491270436211297512e-02 5.645573162761124281e-02 9.099075663400225250e-03 -5.163487820700280589e-02 -4.462375765606773487e-03 -7.496167808815082378e-03 -7.134385027147438496e-02 -8.745478907998885387e-02 4.714736022019033052e-02 8.204387363579106196e-02 -2.568599907867910245e-02 -4.069146545819773975e-03 -1.323630669098824486e-01 -1.279813553199781184e-01 -1.525985864402027159e-01 -1.100408540110806299e-01 -2.114386219334117301e-01 -2.167529089806815024e-01 -2.136905904075378504e-01 -1.932489194592905135e-01 -1.136078307907521234e-01 -1.289844430514505425e-01 -1.977198264904125521e-02 -1.013848744822440501e-01 -3.465895554489365621e-02 -2.921744947417436594e-02 1.172036157742280954e-02 -9.074961743100615208e-02 -9.019592984615512621e-02 7.840602411101453562e-02 -5.334545472869641619e-02 4.594505272098244573e-03 -3.095624469524108427e-02 -8.620819487311455476e-02 -4.518012829849354234e-02 -9.043412627693110661e-02 -4.037812875089574760e-02 7.311719914645130325e-02 8.291916661592081683e-02 6.490787360327669731e-02 -6.516290865480790437e-03 5.458030406073633573e-02 -5.246432682662229702e-02 -2.839627535215339185e-02 -2.559518567463337294e-02 -8.491129893461651923e-02 9.389613233055071895e-02 -7.713736581178659568e-02 5.627558943993678231e-02 4.181036474908433193e-02 4.734310771519167210e-02 -5.735604344852483077e-02 -1.392447399296903587e-01 1.263255934474098729e-02 -4.364326728115897752e-02 -1.247360166331203390e-01 -6.097610209559593819e-02 -5.176384314789788006e-03 -1.947642565466026557e-02 2.990985522364169452e-02 8.277444588230736811e-03 9.401920998210580582e-02 -6.584696030763129149e-02 6.578036017505931032e-02 -9.744935087316729250e-02 -7.214042459820112219e-02 -5.663762338183831596e-02 4.169038936707211013e-02 -5.243609137659990121e-02 1.370160713781581191e-02 -9.327887981984485377e-02 7.945541763882865705e-02 -1.478496360521191350e-02 -9.223514986213943168e-02 -8.721605794866260641e-02 -1.549939285546324090e-02 -7.601237345676295498e-02 -4.382487817349768611e-02 -5.064646826779960892e-02 7.145932712307219437e-02 -9.336333254459323883e-02 -2.225110359918039751e-02 2.546730296326107576e-02 -1.999475151239013537e-02 -4.216239387479331358e-02 -8.184233833939902336e-02 3.769846339715560157e-02 -4.680711759922018267e-03 1.447030746047535399e-02 6.747028898650350714e-02
