9.218013465957894392e-02 7.788247738863901537e-02 2.069485504346083027e-02 -6.172535270743265134e-02 -1.369383849055530455e-02 -6.174603144422932677e-02 -4.642542956003553600e-03 8.578116532308499576e-02 -6.204940337033593156e-02 -3.422797249547593346e-02 6.529721663082321825e-02 -8.104431854995347573e-02 3.462795618827290561e-02 1.588224189195964944e-03 1.523912843863760649e-02 -1.649907998165194359e-02 2.016328787306280457e-02 6.377698090276770482e-02 -6.990103655374849123e-03 -2.758746649893772940e-02 -4.124771346053830723e-02 -6.802853970799899175e-02 -1.063266560327216781e-02 -1.915645650919710341e-02 -4.752181094285421598e-02 -1.684613971323271897e-02 4.913807116360977001e-02 -7.572716384747474327e-02 -8.049765122456727096e-02 1.603406732292658732e-02 2.491331372094104935e-02 4.859238220027958799e-02 7.120968075498321226e-02 9.604322793118484636e-02 8.318321324860897259e-02 -9.211146141093215500e-02 -1.022435026244547795e-01 5.066845913683890729e-02 1.950686308946727662e-02 5.502346278374371791e-02 6.130796586491888550e-02 5.897999495288608210e-04 -2.975880842745172797e-02 -6.402058360445462074e-03 9.249471631292786877e-02 -8.438033850495021970e-02 -7.731526642238258085e-02 -7.500543375869601903e-02 1.540115761758484129e-02 -8.778954547514630780e-02 -6.315498131250611713e-02 3.467228680045806449e-02 -7.182402522122946498e-02 4.487846748038964995e-02 6.466380763639309470e-02 -9.859959025866021909e-02 2.212875183072919583e-02 -9.894013017471531279e-03 -2.710990807868535885e-02 -8.604187447019348567e-02 3.591187730651228954e-02 -4.770858274231086840e-03 -5.679045210645124186e-02 -1.056124565678177862e-01 -2.957175797630967953e-02 1.823297562650777123e-02 6.152977350249316107e-02 -1.067408697299985776e-01 -1.333107569514882518e-01 -1.651335188610488502e-01 -3.275950187918974521e-02 3.214466380974314186e-04 6.032166483785383546e-03 -9.573853536915987589e-03 7.768325799680245169e-02 -7.138494221080966817e-02 -5.299259861881584766e-02 -3.459124208146310137e-02 5.307193853314976645e-02 8.085674427098349382e-02 -9.283541716636735386e-02 2.010242411963701625e-02 2.819562746265019682e-02 -4.919212961453949678e-02 2.017540400775910681e-02 4.208486808955066993e-03 2.656910620137262896e-02 6.596051987685010165e-02 7.617343729963428622e-02 1.828411598924462034e-02 -7.793597062945664504e-03 7.914714830623833380e-03 -6.025163549950508096e-02 -3.798228394152067949e-02 -9.511479990309384958e-02 4.522712734248738979e-03 -5.742528647732034024e-03 -1.497596604151832655e-01 -4.645747793298436040e-02 -9.879567858315860263e-02 -5.000244425479155597e-02 -4.785617182206101938e-02 8.465134909914409644e-02 4.710958810426840032e-02 8.273372254724438435e-02 2.351739081020512434e-02 9.311968544951133853e-02 5.108452324452825155e-02 5.364878985298440935e-03 5.681137097363161970e-02 6.156049004487898491e-02 -4.666637401595639251e-02 -7.955285460927780106e-02 -6.467121564704110537e-02 -4.657503923769336363e-02 6.196261516375069917e-02 -4.281049254070129484e-02 5.324761021727671823e-02 4.522819805322746134e-02 2.671859773332844329e-02 1.127474934907090609e-01 -7.169625157913764313e-02 -6.741280881848704665e-02 -3.103562699566063746e-02 -5.334846330718733681e-02 -1.487387388901734164e-01 -4.607506804385280014e-02 -1.560993098502445019e-02 -7.875578365684519910e-02 -1.215666918338418057e-01 4.251000424859101984e-02 -1.473829921166636137e-01 -1.141004185312793073e-01 1.453932482437967494e-02 1.094593117749144279e-01 6.635161555257530763e-02 -1.680594734553327767e-03 9.268761509575704216e-02 5.035671211254516555e-02 -5.532556167676306105e-03 9.922674657324159764e-02 2.192332255293172327e-02 8.266175119635529520e-03 -4.680637708190674845e-02 8.005554660194817707e-02 -5.422640895253729582e-02 -3.926210158305454972e-02 4.797825411867233381e-02 1.658765356302212557e-01 1.758439843695960014e-01 1.438646779957976907e-01 1.866755499741061183e-02 1.856331009127366177e-02 -2.755776670861943486e-02 -3.576960705289846526e-02 -1.527997134797584936e-02 1.002711607699333374e-01 -3.067323906466753319e-02 -7.108127870981509333e-02 -1.426887844063105260e-01 2.612262275073241186e-02 -1.197943178235710837e-02 1.056053252679279436e-01 1.635330756733434643e-01 1.764813262201301303e-01 9.483997837272982456e-02 1.715242087825462336e-02 -9.291338482390962272e-02 3.112312498234812153e-02 -7.292652925538510578e-02 6.040015164747433718e-02 -6.354877437093196801e-03 6.746124726936310323e-02 1.089335556723257242e-01 9.382994329830383895e-02 6.372482238963288192e-02 1.130450505569099463e-02 1.085348455120439815e-01 3.393010013517912260e-02 -2.254615878469006050e-03 2.438546985493652425e-02 -4.035570534929657643e-02 7.469304659287316628e-02 -1.244244028834586291e-01 -4.194814018730958459e-03 6.625823451462975466e-02 -5.333999214980492815e-02 1.495525193244210543e-02 -2.318867656749622197e-02 6.596106192778585647e-03 -5.348410053363218675e-02 1.951236847112968187e-01 2.513524585481314855e-01 1.709860094615803239e-01 1.028146440583718874e-01 -8.040865106629534187e-02 -7.429658649017144290e-02 -1.987663327230177260e-02 2.104398442399177047e-02 -3.883375377594062983e-02 -2.181386809802106710e-02 8.884075249647989392e-02 -2.702148362997168832e-02 1.129369902604414194e-01 9.724315380300950495e-02 1.572775223844302406e-01 1.025270545204653300e-01 2.781837751116986515e-02 1.906461757118467840e-02 5.243143235406085012e-02 -7.836027736144507427e-02 -8.079225940216994140e-02 -1.103641347377450899e-01 1.897379914881069593e-02 -8.305729886222065761e-02 2.411704786224636021e-02 5.875105580260907984e-02 -4.678216684161651956e-02 -1.136939792868644494e-01 1.103183737827160421e-01 1.608600299582995941e-01 2.781424714470561721e-01 1.260794943198559892e-01 -7.742966937797621241e-02 -2.040789740065284893e-02 -2.303362014289284804e-02 4.995602696209218430e-02 -5.547261380689799681e-02 -5.663113268692998581e-02 -6.448333146350337941e-02 2.297988816975425272e-02 -3.266589564599498008e-02 5.689799250590833052e-02 2.445209095569565033e-02 1.612136422640268740e-01 4.541673780309652547e-02 -3.176531648650840478e-02 -5.539051183037087961e-02 1.249587350902178623e-01 -8.435584447133309682e-02 -1.000837320807238390e-01 -1.489225553227001807e-02 9.971130612087406031e-02 -5.039840312806145861e-02 6.870844060153356858e-02 1.641896392394419368e-02 2.649431692270979785e-02 9.799497715171294476e-02 2.850460625514517621e-01 2.575377572537432824e-01 1.468536220163046413e-01 -7.905405763861322876e-02 -6.349320634881173986e-02 2.215269141789298971e-02 -9.762804565289803782e-02 -3.926371289483167326e-02 6.196329695942543597e-02 -7.614162880345241857e-02 4.629430583890149775e-02 9.981286146578116636e-02 -2.760486872562471772e-02 1.828691896636163014e-03 -7.600311229490896991e-02 1.067297338054336471e-02 -6.731792828936819517e-02 1.747412648233787891e-01 1.057376767889605385e-01 -5.441251201700490758e-02 -7.021233460017183015e-02 -1.710182040293479477e-01 -8.979619578036780736e-02 -1.840297173771024697e-01 -1.666313110086252089e-02 1.733425566144181640e-01 1.981727071981923272e-01 6.129120727100805660e-02 3.147750250531446969e-01 2.862943320785812373e-01 1.083659814529486093e-01 6.487973489627335555e-02 1.666876015567378064e-02 -9.890161941973059367e-02 -9.612598885620131373e-02 5.170884042452887283e-03 -6.934391959920702120e-02 -5.573834208581013305e-02 -4.497523839749991564e-02 -1.016058046530924630e-01 1.528722531829690683e-03 -6.738125107602278840e-02 -6.952645692303430214e-02 -5.225229526186048884e-02 1.239896038758552949e-01 2.509359502336876990e-01 -9.765940256656586993e-02 -3.437477429661030953e-02 -1.236332291234025077e-01 -1.257116606947567272e-01 -2.303870616590362186e-01 -3.613946147735907499e-01 -2.277401020021710687e-01 -1.103544492111153408e-01 -1.857588982928546351e-01 -3.345320152039681916e-01 -9.519537214200034236e-02 2.540328814526263690e-01 3.593610120529128205e-02 -3.220171288943093207e-02 -3.266370705860875689e-02 6.628704708187893591e-02 -7.025460254059637775e-03 -4.875303535735581867e-02 -1.292315328995135215e-03 -6.868502326107837896e-02 -2.010221791028658778e-01 -8.600126662364632191e-02 -1.309256433754180660e-01 5.563537830438410221e-03 -1.225197929444309802e-02 2.107979370778527081e-02 1.292760045654084422e-01 -8.281314873125006359e-02 -2.304541453064131440e-01 -7.246177111668880566e-02 -1.318271607193718421e-02 -5.955242949959141385e-02 -1.829845606571040839e-01 -2.354609807518348308e-01 -3.698294528550766791e-01 -3.990699490464059140e-01 -5.214874586479623098e-01 -5.292435503724854939e-01 -1.951373450919123287e-01 -2.972026282735042504e-02 -5.270740677848999994e-02 -7.678994446496299753e-02 3.453291058754547060e-03 -1.184498028624858187e-02 5.795605714349008619e-02 -1.150076455269110204e-01 -2.975994903744475298e-02 -6.232607483448157626e-02 -1.131832317923017195e-01 3.998997724758625999e-02 1.338110396976033289e-01 1.331340041829341958e-01 2.200150607054954244e-01 2.169568660185554054e-01 1.222430593912302854e-01 -8.372075086690653877e-04 -1.576661981430040604e-01 -6.508813451492305793e-03 -6.410535532262934266e-02 -1.192917079029294364e-01 2.496221256467453381e-02 -4.363537810919142917e-02 -1.235807688343510541e-02 -2.522411975604745282e-01 -4.263837053341014705e-01 -3.960796989040730742e-01 -2.839031302741545360e-01 -2.884442699183944765e-03 -2.823005434989512771e-02 -1.165218727515864375e-02 -5.443738309866292396e-02 1.715076314268347210e-02 6.156343307564675002e-03 6.665199050215006582e-02 4.427456841638856971e-02 4.166336471461078161e-02 1.007083778403124186e-01 4.484631149890199592e-02 1.232479043635555244e-01 -5.743439515169580963e-03 1.696722319665409928e-01 1.430674291997376391e-01 4.398003706448127409e-02 9.473517880391012225e-02 1.256177408276844785e-02 2.818266333788041825e-02 -6.651902831194318744e-02 -7.593439795541637172e-02 -1.846639342520923488e-01 -1.055078039012665066e-02 1.084090627705077275e-01 8.997283831235607099e-02 -1.386885449077092936e-01 -2.835111805826008302e-01 -1.949384515580931398e-01 -1.453531796213880789e-01 9.510644783183336282e-02 9.572516977703156293e-02 5.336738976188770689e-02 -8.401722649051523171e-04 2.684195441817708444e-02 -3.419320587934272793e-02 1.297041285909326658e-01 -1.457541449405347182e-02 -6.797537890052753919e-03 -2.518310522230361032e-02 1.972994962281742481e-01 1.258141127409869997e-01 4.520072251963434817e-02 -1.323102314107331944e-02 1.453718548566249602e-01 1.195051887795580553e-01 1.966631882781818413e-02 1.954876872610460670e-01 7.950815896531009119e-02 -1.548512225704139766e-01 -1.420808427233343496e-01 -1.652975579930675287e-02 6.917911767584251914e-02 1.796373095446018586e-01 9.384897800894126396e-02 -4.513360157492936342e-02 -5.435904485504778477e-02 5.728856382398720380e-03 2.692527471646183682e-02 4.223346673127014589e-02 4.789400953592801852e-02 7.456085273869210439e-02 5.392829717496804183e-03 -3.178551932687782855e-03 -9.598688547401766635e-02 -9.792739769443847830e-02 -2.289054146771591913e-01 -1.847655818744733669e-01 -2.468807335343135498e-02 3.084796021474099925e-01 2.457389740219288465e-01 3.550411106542383233e-01 3.740228850719555242e-01 1.834447692644404770e-01 1.064834916566422957e-01 1.667480207628179445e-01 8.264466267903131146e-04 -9.724697306492376125e-02 -1.189239770941010743e-01 2.692112764482852000e-02 8.142849161755642828e-02 1.649035539343801926e-01 1.763297090654871169e-01 1.189791669381652095e-01 -1.454042984036851491e-02 -1.172514009235403748e-01 -8.236671934885310409e-02 -4.412318229383644513e-02 -6.275140695795221324e-02 3.000136381587121398e-02 -7.603233891122314000e-04 6.965702535911917626e-02 -4.283408546485886759e-02 -2.971537047357503125e-01 -3.673594327342251109e-01 -4.861250966040770449e-01 -4.231467337795126737e-01 -1.208495550195882173e-01 7.778404356416004917e-02 2.608901812466726255e-01 4.953131735489632592e-01 1.712406790136339341e-01 1.018948762968171079e-01 1.514965842103900284e-01 -1.079418289279734516e-01 -3.573148135456375579e-02 5.740675213767178903e-02 1.065182404922415671e-01 5.333964514077738778e-02 7.330685219482399595e-02 2.242941324629146860e-02 5.401273518700348136e-02 -4.040168850325337457e-02 -1.555154208881591449e-02 -1.214327824744153850e-01 2.195379556222925091e-02 -3.738926875042679343e-02 2.516431969278188491e-02 -2.116096871292214715e-02 6.167241453852900963e-03 -8.080415111899973135e-02 -4.295831395913096151e-01 -4.169098057008969183e-01 -7.500827827699942940e-01 -9.457588777490123499e-01 -7.088287490986144856e-01 -5.429736664760055342e-01 -4.077556667607933893e-01 -3.175849672057361461e-01 -2.092736617201959859e-01 -8.622637630780684292e-02 -8.276391878435809465e-03 -1.682765985140724230e-01 -1.684287365650554147e-01 -1.835525321108999117e-02 -3.331028367088728626e-02 5.254493863788456398e-02 -2.462668708754136085e-02 -7.757952612289979732e-02 2.095146590584371499e-02 9.694630193429382842e-03 -9.788433590348237512e-02 -2.389315393472039861e-02 1.640938604756968927e-02 6.091835471155172127e-02 1.231327880008587471e-02 -7.589658161844403672e-02 4.649095570254060256e-02 -3.175309585182822802e-02 -3.004927360565608496e-01 -4.362793109105761458e-01 -7.229487579318482071e-01 -8.974403346302715079e-01 -1.118061083749682938e+00 -1.276220643408429112e+00 -1.261524599570470695e+00 -9.087990868594441052e-01 -6.090776399825837961e-01 -3.721356822614155235e-01 -1.320014177376578057e-01 -1.335885615268389282e-01 -1.172419827726221553e-01 -1.917138353676250268e-02 -5.936043828861323202e-02 8.574525463135539149e-02 -8.764105441925504336e-02 3.128653851659266016e-02 8.767430045573113007e-02 8.215846310673860509e-02 -1.250488326953715645e-01 -2.912903286442368195e-03 -5.382316204250617991e-02 -2.326390635307098997e-02 -1.582814132185344743e-04 -7.753683968589543396e-02 3.150713793288423270e-02 7.815977596701327579e-02 -7.883128150345614094e-02 -2.297562764736550966e-01 -2.407823080004644900e-01 -3.699013828049658725e-01 -6.453572938370916168e-01 -7.216226777248528901e-01 -8.109560847820390661e-01 -7.385639248919263489e-01 -4.975029291427323641e-01 -2.984761461957713413e-01 -2.770935033991596130e-01 -2.773636358166227112e-01 -2.837508297361878151e-01 2.088927419850063194e-02 5.121242017640158933e-02 1.456924399545633450e-02 4.835251311227220516e-02 2.395955631812326375e-02 -1.686059007632851811e-02 -4.201255040867229312e-02 -9.247986017699974526e-02 2.717860988857403667e-02 -5.632566134474143284e-04 -2.627036010698138857e-02 -8.780441622546636404e-02 2.830598641972930860e-02 7.341369702449312973e-02 1.816324935341367408e-01 -9.880121622442082641e-02 -1.290496872811021378e-01 -9.789687680703702821e-02 3.807365225033657735e-02 -1.468770524084338225e-01 -2.092997746843631990e-01 -1.829885969816976571e-02 -1.067439845863270981e-01 -9.216425840739440878e-02 -4.269628309411113015e-02 -6.692964680361387919e-02 2.807510420446004268e-02 -3.573696514414893832e-02 8.067508811539404398e-03 4.547472546493221655e-03 -1.386717896112019469e-02 -1.065221811559396853e-01 1.340980116897456942e-01 -5.513353874887400030e-02 1.015579701083283055e-02 -2.180078359651553901e-02 3.102363220790090026e-02 -6.401931988215756042e-02 7.796423961715896744e-02 -6.485111805139927299e-02 -5.374397929370613308e-02 1.881438508880056704e-02 9.295541231150246386e-02 1.066864187819975551e-01 2.828442362683903505e-02 2.976604865278270617e-02 2.245360629657338902e-01 2.325042190470392733e-01 2.015516392809419133e-01 3.165656996809343982e-01 1.813173595410607353e-01 1.145562220611717336e-01 4.531932731312538626e-02 -3.327006792071814101e-02 -9.808524615026785465e-03 -2.062418124737616654e-02 -3.073428135263104113e-02 1.212838973605828291e-01 8.017879039648144468e-02 -8.418621913338691920e-02 -5.619754385005627448e-03 4.104358932249670827e-02 6.234105074924436996e-02 6.561888672175780757e-02 7.067790270433042810e-02 -8.671593114234578403e-02 4.673604699480437413e-02 -5.302501771837267452e-02 -1.295664380778648386e-03 8.479546302366705590e-02 4.014161405735582749e-02 1.246948567033902000e-01 8.057434115776368477e-02 -2.705504500325557962e-02 1.382580078465492357e-01 1.689439188651601642e-01 4.006709262922742987e-01 3.759723186202604817e-01 2.900311875436942799e-01 2.837006930644400127e-01 7.402201967779244163e-02 9.258851405074980390e-02 -6.035807887892236795e-02 5.538726211016915639e-03 -1.076686245179827167e-01 1.698330205861761366e-01 3.717133329409597758e-02 -1.169953100973388088e-01 -1.169156579938055926e-02 3.406379717185120670e-02 -1.028205758078959281e-01 -2.921718864185303410e-02 -5.188846879726336653e-02 3.979219190133460177e-02 -1.492499916250533687e-02 1.329372806623822789e-02 1.887801979144177952e-02 8.804693484895888267e-02 1.683357246746426117e-01 1.551188255044009812e-01 1.545181503541691315e-01 1.061414119510886850e-01 1.006789292251675932e-01 1.121534505222498701e-01 2.755515276856995710e-01 1.863966853337159224e-01 3.345622666961942104e-02 2.113785910781998956e-01 7.294656717130475199e-02 -2.380786111646729375e-02 -5.940009709669728799e-03 -1.966385831689508312e-01 -5.913257103984334573e-02 -1.256367815459795700e-01 -1.315644492997159742e-01 -9.217677886244463048e-02 -6.292490511398211861e-02 -8.558398603114504566e-02 8.433893121960674144e-02 6.221938035430150254e-02 7.308822578448009866e-02 2.490112642019663702e-02 -9.597234716805663757e-02 -1.782131987223564695e-02 -2.290774691360738732e-02 1.596258187663775500e-03 6.028038667872994208e-03 2.394267953970585228e-01 1.490161240369068940e-01 1.963940089517678123e-01 2.792312699921256636e-01 3.494231286759821864e-01 3.325053181673128799e-01 2.587371054963348294e-01 1.616308129431283658e-01 1.269971350982601888e-01 1.318127174225802167e-01 -1.711003624793885555e-02 -1.488862054314102068e-01 -6.281224448557999607e-02 -1.777597900674228737e-01 -1.641306135298503943e-01 6.231418510322940529e-02 -1.282721214772308826e-01 -3.875720590542712507e-02 -4.360173294439670388e-02 2.696947654752820250e-02 -1.518347934946738705e-02 4.083499708570687003e-02 -1.897366392299611182e-02 3.236681527890064580e-02 4.056180756111679719e-02 5.354615348253063956e-02 -9.171064717071754357e-02 -4.844441310319614474e-02 -2.518141973649010157e-02 1.384566840579324887e-01 2.469554416190662682e-02 1.974950820922214134e-01 1.557948240659534078e-01 9.629358844813820650e-02 1.622104821289619969e-01 8.089031148129108284e-02 1.917582374373486553e-01 -5.845885842045978054e-02 4.736692388383798025e-02 -1.113775671279038787e-01 -2.166352728404583594e-01 -1.228504929559185305e-01 -7.678710021110113360e-02 -8.573139120742873098e-02 -1.152210842556646714e-01 -2.595776427776755324e-02 -3.460070302053063623e-02 3.201152775487656893e-02 9.841910145714007074e-02 -7.463589157911530714e-02 2.349525582861258788e-02 -1.690605299470362977e-03 2.765492596547042270e-03 -7.850374372710176851e-02 -5.737927074652623971e-02 3.639236877166492079e-02 -4.487659008302598285e-02 1.188082787489905083e-02 2.065300459312582187e-02 1.899376973433308108e-02 -7.852010420042516980e-02 -3.891405864969726958e-02 1.250470940363262312e-02 -5.529049670476925788e-04 -9.926757432515684321e-02 -8.668751402981961229e-02 -1.077358451328264410e-01 -1.278385026185442919e-01 -1.370405904602052527e-01 -1.501497699252795637e-01 -7.609490004368658911e-02 -2.851714119929293478e-03 4.274603999969009416e-02 -6.594356551611016415e-02 9.656814580319823815e-02 -2.812419373000364653e-02 -1.483000157313443465e-02 -4.594826479736353886e-02 -9.421494405849835385e-02 7.647605973580920424e-02 4.859642805057529102e-02 8.434640676765539635e-03 -3.094561049986850609e-02 -9.864898411541990486e-02 2.135373778694757418e-03 4.862858635058736612e-02 5.447625220320533729e-02 1.176823377549141188e-02 -3.782094665766396607e-03 -2.484503372130721782e-02 -2.717326256604601920e-02 -1.076086301675689000e-02 8.990262762113356010e-02 -5.996393900738970079e-02 4.030637412954721915e-02 1.037898258727080981e-03 8.396283190000126961e-02 3.415043173772736723e-02 -2.620385980468157086e-02 6.348914285335388596e-02 -3.061991038415617233e-02 -8.332850379519995965e-02 -5.301001020274136860e-02 9.957159585127056678e-02 6.236729777947400133e-02 -5.080580939404646945e-02 2.393163189429843574e-02
-8.067311039557450991e-02 -6.894420726764810547e-02 4.403272200471719522e-02 -3.002796808264396322e-02 1.355062236798505737e-02 -6.722233440714694974e-03 -6.926793636227804307e-02 -8.611540624684657641e-02 -6.771444854693178805e-02 -3.799275745841317747e-02 9.361401368288932434e-02 2.623903997537929689e-02 -7.409244765332791138e-02 -9.049299111296138509e-02 9.928846101623721443e-02 -4.338551744381022313e-02 5.130187177598630188e-02 3.678136467295747836e-02 8.273671684043965024e-02 -6.490626003414137757e-02 -8.565052172644865847e-02 -2.193285303155050048e-02 -3.206966903212081499e-02 -6.114327781302267284e-02 -7.326700637820711404e-02 4.902868332513016236e-02 5.861361362803760300e-02 3.622889539348186916e-02 -9.835077718594897878e-02 -4.092009130161070041e-02 -7.447877585300906322e-02 8.757561565274199489e-02 9.117958470994742132e-03 4.939192952745375537e-02 -5.062513829526272408e-02 1.358086348981072701e-02 2.936157776776609357e-02 -2.994847284459726394e-02 6.795330452328186832e-02 7.855367512263847218e-02 -6.468048811093100869e-02 5.411702553116771314e-02 2.862011958682079624e-02 -2.168433082730008080e-02 -7.610943068586860372e-02 1.015663828965546536e-02 5.781245043332525896e-02 -1.629688125363146917e-02 9.776033138091957952e-02 2.159085726419930282e-02 -5.481916887954819267e-02 1.255078552890051546e-02 2.483310436431879209e-03 -8.362521234530183312e-02 -1.847392782017109880e-02 9.748876309841097987e-02 -9.601708153922777766e-04 8.701984718284941356e-02 -6.191205602249862799e-03 -9.390866316033803785e-02 5.697014365140433412e-02 7.900168482032390860e-02 -8.753577878733525414e-03 -2.125087732587385009e-02 3.254443382186991696e-02 -2.218977912192606622e-03 1.185567806379536626e-01 -1.695756141782123541e-02 1.763951293216422245e-01 1.464379444097150262e-01 1.212972872867653096e-01 1.703768990117991156e-01 -2.063970787063646589e-02 1.009820811136404595e-01 -5.068958104016978855e-02 -7.967109507243776492e-03 -4.183114169281276773e-02 -1.025158521140374403e-02 4.989168273881451621e-02 -7.461324280860431868e-02 8.044433366508134398e-02 -3.211720679441039394e-02 -7.975039783419786421e-02 -2.791640841984506516e-02 -5.779549694907564622e-02 8.350690221992962403e-02 4.195707552139506247e-02 -9.035272509883784942e-02 3.731089191954960887e-02 -7.162867484148786879e-02 4.804411586649928040e-02 -3.697742418102372558e-02 9.035100538255656788e-02 5.033929634114717167e-02 -2.691041934670846542e-02 1.889622718446090643e-01 1.922037570913642524e-01 1.267204221168138356e-01 7.629122354984728405e-02 1.456964440823458884e-01 9.189199378626845827e-02 1.706257599226928268e-01 8.141616577844390523e-02 9.734256399974662577e-02 1.212777257413203552e-01 -4.590735400718878867e-02 7.264326179244633142e-02 6.549914699656815553e-02 7.700898700216916859e-02 -4.994153190117886498e-02 6.993129526333710655e-02 3.195268725055203096e-02 5.911463531781988023e-02 -2.742186708417642879e-02 -1.491688296675006652e-02 9.908020404938971959e-02 3.145503810724241400e-02 6.163212952520379095e-02 -6.176602502276000439e-02 -5.201799600344091286e-03 -9.884658990590666078e-03 2.163428149227802910e-02 -3.760315413093982123e-02 -2.174396753350656131e-02 -2.551354734418835243e-02 3.003700741070709432e-02 1.265986164650995671e-01 7.777019203304874617e-02 4.024456679051497537e-02 8.588372469933741593e-02 5.906874829218721618e-02 1.142198845074123004e-01 -6.884353769883633581e-03 -5.978147136278714330e-02 9.043625482142916838e-02 -4.926458831835051760e-02 -6.263420002864714120e-02 -8.176515289417320143e-02 1.583095679121798369e-02 -9.835148199297155669e-02 -8.051866944518880354e-02 8.608370147643101822e-02 7.488857031648593621e-02 -4.468585192557745361e-02 1.188802841181087616e-01 4.679369182478201189e-02 9.267564627318934656e-02 2.407965234960653123e-02 1.006262122162224493e-01 -9.309899234576786420e-02 -4.432425905007778694e-02 -1.684326291021140051e-02 5.635767501264983548e-02 3.031961567881271691e-01 2.275650336676341978e-01 2.690171009257390500e-01 2.013373616602120442e-01 9.323258404666305565e-02 2.106996747420147517e-02 1.931510312574082761e-02 -3.269758152765594311e-02 1.438157778542175150e-02 9.464956253556908172e-03 6.258597765231210808e-02 -9.366231355236091793e-02 -2.871777122747255079e-02 1.220138443040834873e-02 9.565524703133548856e-02 3.421923522156272712e-02 -5.948445366795397128e-03 9.201126479617877107e-02 4.124482865926566190e-03 1.190776317759420083e-01 1.831202659291596493e-02 4.038876301213550034e-03 1.004213199268972345e-01 1.933911353441152003e-02 -6.879472039716143239e-02 -4.514343895080770441e-02 -3.246964318566373381e-02 -3.451918810453917519e-02 3.075275639425326113e-01 1.449837557428093893e-01 9.957834166898986428e-03 3.971027945745021076e-02 -5.800717533325381627e-03 1.362195435940678767e-01 -4.988160728944237600e-03 -5.440640366051217869e-02 3.576077994604226484e-02 8.451600142979472097e-02 4.498053651876122300e-02 -1.262602091921619929e-01 -1.461087319925447048e-01 -3.168465675536062676e-02 1.952459507604189723e-02 2.598914531582383405e-02 -3.588608686817230248e-02 9.122700649919641969e-02 8.671782289864059245e-02 8.410893384685569352e-02 5.104856440572490967e-02 7.955318794120873338e-02 -8.641792767799716390e-02 -2.105815405411332053e-01 -8.907202064056440882e-02 -1.873959840620335604e-01 -1.671282756121899304e-01 -8.606769985526471767e-02 9.900208744561429797e-02 2.225558180993504609e-01 -2.317658390733126628e-02 -1.239495948344893905e-01 -1.494554232225820400e-01 2.101393652869283993e-02 3.720930502963183673e-02 -4.926421420271488716e-02 -1.131840744832044998e-01 3.266691686754127910e-02 -9.640225132406583797e-02 -2.035001250906854076e-01 -1.028405831988531000e-01 7.660576743175988301e-02 -2.380138494234614044e-02 8.656986639714592258e-02 -2.368746993321979577e-02 7.210835077570870721e-02 2.536125549319182340e-02 1.335781514352924783e-02 1.447914132764934435e-02 -1.049323718996023058e-01 -1.378902909980392610e-01 -3.373640503664557255e-01 -1.903861679541818674e-01 -2.828098761057727950e-01 -2.723895371015261357e-01 -1.389898115163457348e-01 -1.310527080525794585e-02 4.034265802151775632e-02 1.425700595598029807e-01 2.240266486591847295e-01 -7.186450964750546420e-03 -1.945770876047443754e-02 -8.838278963429574420e-02 -5.576594141122897912e-03 -1.131363629794871623e-01 -5.546088242958917107e-03 -1.861482273165050438e-01 -1.657752399111214470e-01 -1.317691364265007048e-01 -9.301001048162975404e-02 -3.942094273346927712e-03 1.186411831951334622e-02 -9.201155296652845095e-02 -1.561764453903677352e-02 -4.265255532407162542e-02 -6.441764532648969199e-02 1.774444873455380614e-02 -1.082522929198310585e-01 -2.845389342896482709e-01 -2.653093255947337470e-01 -3.658476177283643271e-01 -3.349209867181182632e-01 -3.448797319583152277e-01 -2.486871026540845575e-01 -7.071186687912470181e-02 2.457868695445790397e-01 3.287523699248433018e-01 2.742490719456769366e-01 8.624146990437145388e-02 5.028364489444345914e-02 -7.370876313533486490e-02 -1.198572854830398660e-01 -6.001452850708370590e-02 -2.032533264497236869e-01 -2.834899456790452854e-01 -1.568084336072148310e-01 -1.141731693801892877e-01 2.935439033287262287e-02 8.538331132273863089e-02 4.474598864678661775e-03 -7.529229279805048358e-02 2.178869755093701052e-02 -6.259182947734080738e-02 -1.126971458812815463e-01 -6.758955762865151429e-02 -2.567460687956937271e-01 -4.129671441577544844e-01 -2.784225678997436781e-01 -3.312951016562797890e-01 -4.644371756670834239e-01 -3.975493228518971467e-01 -3.066833686300849959e-01 -1.374515719621581256e-01 1.039736704957765212e-01 3.444445507723004618e-01 1.688077212476245814e-01 1.067835950980969006e-01 -1.694159884872886157e-01 -1.633838115032685279e-01 -1.269746794470771878e-01 -6.141574757994641004e-02 -2.269619346364732948e-01 -6.235379925923968669e-02 -7.078847503026501620e-02 -1.990001320987537237e-01 -2.214279651772948707e-02 2.955685769417433148e-02 5.583923443120925728e-02 5.769721918651767034e-02 8.407961089476431726e-02 7.430241032375489718e-02 -1.684724182207758270e-01 -1.584397555024896764e-01 -2.701128307873356116e-01 -3.476627149151828022e-01 -2.676187204347009185e-01 -1.912428810274048319e-01 -2.787719193278720420e-01 -3.208812440497469942e-01 -6.665184821109433611e-02 -9.437153986849487752e-02 -2.844212953841245006e-02 7.242086288109175415e-03 -4.662356541661061282e-02 -2.312911280835216465e-01 -2.958042598238710963e-01 -2.468478444382382619e-01 -7.479151979636390613e-02 2.667511079324806286e-02 8.099839743916656398e-02 8.223566862639232478e-02 -3.336683919930012732e-02 -3.912922870387221946e-02 -1.292270238159164142e-01 -3.006884547672401473e-02 8.452584277384429801e-02 -2.461785279128736806e-02 7.653199286539011381e-02 5.036005699148164011e-02 -1.252149623736067419e-01 -1.940716702159204776e-01 -9.965166439274587840e-02 -8.915878035659588474e-02 -7.825415940841755347e-02 -8.413344526572204274e-02 -1.084149421124740581e-01 -4.213615693749375724e-02 1.004736330575402986e-01 2.045537770846593204e-02 -1.931318034883951901e-02 -1.780661877856594411e-01 -4.004930003098225444e-01 -3.675238886031980123e-01 -2.900209822844339036e-01 -2.116134934166095105e-01 -2.992732518899616102e-03 6.837523027716416180e-02 1.640648239785771068e-01 2.595810102215819759e-01 1.586083684043083641e-01 -1.147712477766671957e-01 3.327798313489156723e-02 -7.540259313735880875e-02 -5.255194966554315589e-02 -9.872396816992086432e-02 6.103725609473539815e-02 8.751035399911266666e-02 -1.033220392098177648e-01 -7.201143908056542586e-02 -2.038668259380827311e-02 -9.421802170418427588e-03 2.325028325886678918e-02 1.232824479339225537e-01 5.134374869502195821e-02 8.576934679056377742e-02 1.995392259287608883e-01 6.063348863872543987e-02 -1.146063688768302925e-02 -2.981936642586771047e-01 -3.105379094610425939e-01 -3.620307314193256243e-01 -2.369689852028180055e-01 -2.565703777971777289e-01 -1.913705191363352098e-01 -1.003408528917235608e-02 2.136558595417243633e-01 2.473961949758911039e-01 1.981044115152214569e-01 1.785629652344718210e-02 -7.512697655092924823e-03 4.990400032640270045e-02 5.222228129275822972e-02 -2.132525293614667694e-02 6.558531833981404158e-02 -4.851743440766939641e-02 -6.317919585141144878e-02 5.767900255219476219e-02 1.654807685389805549e-01 1.758742096607500693e-01 1.335519228519770341e-01 1.956156865221270469e-01 1.275710320014700194e-01 9.972001410101796748e-02 1.307274281117704606e-01 -1.417847904861890274e-01 -3.013392366874491357e-02 -1.676756422587706574e-01 -4.286000449386361266e-01 -4.355346863992876072e-01 -6.015787484103041899e-02 -1.303616828062443556e-01 -4.650313601645197220e-02 7.090673445339040846e-04 3.190853863354682672e-04 2.217570804386733152e-01 2.635691483504756794e-01 -2.601906425409047929e-02 -6.716358017948821646e-02 6.698717188216962715e-02 -1.035013712412776073e-02 7.098509124431107153e-02 8.241890950384600512e-02 1.008534405183349192e-01 7.114576522217530563e-02 2.091043695871963870e-01 8.005461289069329411e-02 1.752758904635755566e-01 9.040671217767112799e-02 5.441133280371385217e-02 7.668413092034595535e-02 6.778527476054448369e-04 -2.377667431319985258e-01 -1.460639951436920048e-01 -3.740370403907341407e-02 -1.813140813892499259e-01 -2.691363146190425271e-01 -3.224811795365956635e-01 -1.017076808126472220e-01 4.493472904874868529e-02 8.293080512238361346e-02 1.491121681743805549e-01 6.817172420401765298e-02 1.176741527099582768e-01 1.370420771682540895e-01 1.363746415290309766e-01 -7.338053130338989538e-02 9.544264270968867703e-02 -2.753732372792390068e-02 9.374684075958322760e-02 -1.322695346907157982e-02 -4.341952992727655253e-02 1.244179357659515837e-02 1.765509083174549854e-01 6.100672233259926691e-02 2.565213283612540265e-02 6.646121396983328822e-02 8.859760482608015561e-03 6.126828924651327168e-02 -2.484911956786201859e-01 -5.053954768584733026e-01 -1.272190832748867073e-01 -7.008949284560452020e-02 -2.506754618463816753e-01 -3.751694596077189692e-01 -2.145167950941310464e-01 8.199683473042540180e-03 4.101538536745810010e-02 1.146959323215539783e-01 1.216933477383108364e-01 2.059447906408986284e-01 9.803366366164291412e-02 1.210091923769937988e-01 5.360851674541964457e-02 -3.576366113166321720e-02 6.011057912682881560e-02 -5.057789691073273641e-02 5.962587027514657662e-02 -4.753164585106008089e-02 3.775365560934262898e-02 1.704691326335710522e-01 1.655685016856995317e-01 1.063865451228076658e-01 1.109073438092018360e-01 -6.099141687245172166e-02 9.597446998762901305e-02 3.644511909005082595e-02 -2.229193301461874221e-01 -2.849589162247836427e-01 -2.338785900197845047e-01 -1.250192126852444074e-01 -3.145004118206891075e-01 -2.032796783130653151e-01 -1.051268464717487472e-01 -1.066383005980071907e-01 3.679367883729947608e-02 6.546652319832840794e-02 5.101830884916893488e-02 1.700051826069415573e-01 4.060867244136533161e-02 2.765796582293051156e-02 1.543867213279769696e-02 -8.493319146846721457e-03 -6.877655300436666397e-02 -9.698852628950838106e-02 -4.009887292751806998e-02 5.764873495997890982e-04 5.286981371320878531e-02 -3.925038967819088204e-02 7.643233256818354748e-02 -9.996281233641955699e-02 -9.767495580456672655e-02 1.090376984606358374e-01 1.815792743594950021e-01 2.133626148602502937e-01 1.115430110732903296e-01 -2.733312388622899033e-02 -1.656503534466305105e-01 -3.893071188375522851e-02 -1.037267249468662167e-01 -6.763820271436238318e-02 -5.067579423795594978e-02 1.038962110103355818e-01 9.047541794779277724e-02 1.140924168393585153e-01 1.302254060296360594e-01 8.404355469451817162e-02 1.213470958893143464e-01 7.111710250764965990e-02 -5.029885733043733959e-02 -1.015042008063433837e-01 -2.277629552557317374e-02 4.995714678622931865e-02 9.880640680191793424e-02 -7.523214413476472795e-02 1.325718932383599391e-01 -5.003759102131027925e-02 3.370960775627093731e-02 4.521195532091011604e-02 1.470891998068017681e-01 1.852402873961187246e-01 3.679730314134337377e-01 4.648010929535212887e-01 3.678843985146311724e-01 2.812393359966939288e-01 1.529409039289603145e-01 1.627965642161760818e-01 1.570733403702806730e-01 1.093506826428144452e-01 5.758540556014879463e-02 1.279193838857630161e-01 1.007733393685462386e-01 4.549268711422921330e-02 2.241603507501283565e-01 1.602672100136665750e-03 -1.392006452381872386e-02 2.808609157111021520e-02 -9.482971223009390230e-03 -8.090170727465327560e-02 4.695028605839306896e-02 -7.253454595104334712e-02 8.392411671008934149e-02 -7.917368076423696166e-02 8.583126039788720185e-02 1.299212700479168980e-01 4.668487415974633542e-02 2.280819540839793547e-01 7.811022109055824891e-02 2.140503678371073193e-01 3.423964366758512345e-01 4.337594746332665285e-01 4.772157415353024956e-01 3.654669258563844614e-01 2.415064646813038229e-01 3.389267221733412438e-01 1.799938971214582184e-01 2.865990435277836479e-01 1.798884982572641900e-01 8.014051283632228628e-02 1.418213445705093605e-02 7.253094930721996902e-02 -3.131446716822184478e-02 -6.591455677282738457e-02 -1.494872501493435257e-01 -2.954934685139196104e-02 9.636758351617481788e-02 3.827050060946338150e-02 -6.711571623536169429e-02 -8.181365990729767834e-02 -5.765841402452925868e-02 7.692995389946719054e-02 2.099790781565058842e-02 1.252453065639650143e-01 1.956799699570076212e-01 1.835083826467259760e-01 9.533429466914261630e-02 1.779697822113310846e-01 9.024048734130991900e-02 2.307236477249156870e-01 2.924175329366957565e-01 2.684345875672921600e-01 1.181978550544471179e-01 3.527228019730370701e-01 2.695907652122532250e-01 1.315861327681032422e-01 3.099620967967352952e-02 3.514645375926869070e-02 7.121118244881670389e-02 -1.012507871424705996e-01 -1.313948742662241764e-01 -1.229412354616392922e-01 -1.607207391806513702e-02 -6.608603296005019501e-02 -8.071237570645516113e-02 -8.131097518768123922e-02 1.164232876866768546e-02 -6.923475789070070163e-02 4.155809884173111007e-02 -6.376770446399403214e-02 -7.620823523620505469e-02 -5.657139489903664081e-02 4.601408917029653489e-02 2.425900121687748004e-02 1.295414279801778423e-01 1.288973513162085423e-02 -8.613761958238454197e-02 7.609021813469585283e-02 -6.696384293342722005e-02 -1.154728378034436537e-01 1.581954482617338106e-02 1.226741278912210631e-01 1.958992491228455368e-01 3.077453441592837846e-01 1.450458639695430818e-01 4.295571520959627632e-02 7.962399858101766592e-02 -1.396768265327736624e-01 -1.575631280653980726e-01 1.691108579722364405e-02 -9.652768826502115818e-02 -8.738317692661388969e-02 -1.255987470632594603e-02 3.299530873742285986e-02 6.993921621082166418e-02 9.730289759917165604e-02 -1.746880353683992471e-02 3.226261860645923685e-02 -4.341544717876374970e-02 -5.685726826560433267e-02 9.472530120580226198e-02 9.696170473460916095e-02 -2.917341060452002116e-02 -5.053582643747713682e-02 2.261695334947254679e-02 1.249987522085997844e-02 -4.036329677460601117e-02 -1.144208353940130360e-02 1.002765729293761676e-01 1.283289059242155306e-01 2.063914803422794431e-01 1.922256979702978152e-01 8.606448124608022388e-02 -1.478910318003260130e-02 -1.786546501756008098e-01 -2.362944633894479285e-01 -3.676541670437079995e-02 7.388022269332129681e-03 8.400502742535188513e-03 -1.779379742473950407e-02 2.019333984931614631e-02 3.916002574374160411e-02 -9.246792449022545046e-02 -9.038472650626322435e-02 -4.791365771717111255e-02 9.650004346197596505e-02 -4.510047026188691854e-02 -7.314541349663790382e-02 -8.339860760675120444e-02 -9.731781647769256749e-03 -9.052853120193782299e-02 -1.192413569731113065e-01 -6.900689167733893570e-02 -8.058160297623895296e-02 -1.119448257890156562e-01 2.577485521760588053e-02 -3.169863263932707915e-03 -6.140306227399468936e-02 -8.339680079262731804e-02 -5.328511205980008408e-02 -3.357697532187166323e-02 -1.733610395792453407e-01 -2.161931731895402053e-01 -2.273926998139979561e-01 -1.670721507989015309e-01 -5.889495399193866304e-02 -1.011548692300342361e-01 -2.833051655739693420e-02 -7.948737552325962907e-02 9.943178986798398289e-02 4.967516120120160639e-02 -1.741883046850703498e-03 -1.210846894322778478e-02 -3.869089131972382190e-02 -4.770964010863485566e-02 1.473118432583299386e-02 4.883109287014048006e-02 1.868758165446588251e-02 -1.766258918669436420e-02 -2.045925624161006318e-01 -2.109055800774386480e-01 -2.022738457146268931e-01 -1.690264491120962165e-01 -1.184003119799889869e-01 -2.895448001459249854e-01 -2.839282146476468371e-01 -2.934231786474548187e-01 -1.555781176402153687e-01 -2.336465654891065613e-01 -1.286067497443686425e-01 -1.167299517964303091e-01 -1.125051949169465770e-01 -2.813138896438717451e-02 -9.034277062074154430e-02 2.934867448439398493e-02 -8.812505939477807693e-02 -4.421502920704871442e-02 -8.602312579835043674e-03 6.129277472250946324e-02 -5.500290104272569786e-02 4.221740868444148753e-02 6.897677940545884900e-02 -4.687548853273532101e-02 5.779542555561214406e-02 -5.345461251616969583e-02 1.283481102382531477e-02 7.415251734975308873e-02 -3.273755295989125291e-02 -5.590759226857098391e-02 -1.193215953967785015e-01 -8.321186193419254085e-02 -1.072734278359764315e-01 -7.498352485026513192e-02 -1.519819434572369093e-02 3.631020261532948157e-02 -1.136950561827779205e-01 -1.219472397288608734e-01 -9.137482084337261723e-02 -5.573690648029983735e-02 6.034719386716587419e-02 -2.406657393560791836e-02 -8.246976940637747167e-02 2.233027089633308863e-03 4.775054573342147474e-02 8.669566970056702404e-02 -4.539830764232797439e-02 -8.305373608454608148e-02 3.344037978119313026e-02 -8.392755714161728720e-02 -8.555689238532425411e-02 9.513598155905919618e-02 -6.034234267105492017e-02 -1.640643953900889837e-02 -4.164725582867141035e-02 1.208300933863531990e-02 -7.594854278221735422e-02 5.837877396593327273e-02 -5.508244077380711201e-02 -8.198099810790740460e-02 -5.657637240055248679e-02 2.664196221312365581e-02 -4.254388376094717442e-03 3.070465186786818651e-02 -5.572764771008410778e-02 1.153729485412529135e-02 1.813367271608104167e-02 9.376688103567849819e-02 -4.934794607713035436e-02 -2.814047937442850505e-02 5.822730929137200778e-02 -7.568226174659915817e-02 -9.954464910297385061e-02 -8.461032408460647525e-02 -3.299440396179446899e-02 6.369333075902128272e-02
6.411227802753224903e-02 6.663656525848635215e-02 2.771426118943781658e-02 1.072443122896912793e-02 5.798987994288570813e-02 -7.195594408030968336e-02 8.973286454320461569e-02 -6.437236752535964446e-02 4.165912687141057336e-02 -1.009271326380418998e-02 -8.662141106147241976e-03 -4.892427921126914214e-02 3.422813894252319661e-02 -8.649791776903915930e-02 8.132013393499342921e-03 -1.665367486932610094e-02 7.468178661242233507e-02 8.372958034249433634e-02 7.617032839111040343e-02 -1.477080506408279259e-02 8.267642084430956717e-02 -1.865442988279955583e-02 6.015115672774989930e-02 7.459644243820240384e-02 -3.118612115651245298e-02 5.210776126664817820e-02 5.035469362841007990e-03 -9.058714427942565761e-02 -9.956450576500067151e-02 -1.145635031754818622e-02 -9.000605007576495398e-02 -7.679753228634185469e-02 6.211525654048998674e-02 -8.441743344420128692e-02 3.615877544589037474e-03 6.124201613134461902e-02 -6.450294003507973939e-02 5.180297642521781293e-02 -8.448481495408065312e-02 -9.198117905071190314e-03 -8.320634101521454107e-02 -3.623923843807804607e-02 5.582490889780821613e-02 4.763906707180775441e-02 2.075817068164597518e-02 -2.617469233369282625e-02 7.209937255976479886e-02 3.368929036244324576e-02 2.902457567782036878e-03 -3.370316781534978684e-02 -3.237284970398984080e-02 6.915505818577916131e-02 -8.013149249482183489e-02 7.180812964377691898e-02 7.982326919309845614e-02 8.558620952958514994e-02 4.174430648528523746e-02 -6.517543169422231053e-02 3.242247710965196622e-02 3.576852471568253006e-02 -7.860453077573043013e-02 -6.498600937816891021e-02 -8.618559738795426861e-02 4.411556847120758768e-02 7.898460901436134274e-02 -2.314753099591885036e-02 -1.234514634319092558e-01 5.769420153578714433e-02 -4.128178794765669651e-02 6.748715681904751684e-02 -5.808751995466704399e-02 7.579186799398651697e-02 -1.723745423363847937e-02 7.366229659377689087e-02 5.441935942702907925e-02 -6.117748052794315383e-02 -1.019222603312526509e-01 -2.166697124832927829e-03 2.133188181715618345e-02 -3.246275631324093552e-02 3.369270140009671122e-02 -4.735871723711521097e-02 5.562697566936722349e-02 5.327226616774408119e-02 3.285521604606131407e-02 -9.803956865957078048e-02 3.177458315004988432e-02 -9.571299068546929023e-02 9.584938241606542897e-02 8.158660827564943874e-02 -8.260891629328469266e-02 9.530179441783540040e-02 6.201079803239636229e-02 8.987293562345020914e-02 6.244662741149704238e-02 1.347838373560670544e-01 2.910937402854316680e-01 1.977916816187401117e-01 1.931433377601888268e-01 2.093780427381635167e-01 2.403170052445297855e-01 1.069084363792512093e-01 4.045703763385402607e-02 -7.487874116518659917e-02 -1.703009042983694502e-02 -9.697348319664673977e-02 -1.174933468827235455e-01 -1.035409252661016466e-01 -5.600566072803080803e-02 1.423260807578549843e-02 7.288382879605140308e-02 -8.903384807035547022e-02 -6.216388147508420531e-02 4.080517100720180285e-02 7.456900042557508546e-02 -8.548770515094059053e-02 7.176663475806596693e-02 -5.735071267504667641e-02 1.121957262810693995e-01 3.433576190951589946e-02 1.412815694131508981e-01 1.847000451383475628e-01 1.889725667403349685e-01 2.157264082694626273e-01 1.071987436018159573e-01 3.256656175211711801e-01 1.219396440158559136e-01 2.090261479708191983e-01 1.686422232937398180e-01 6.580027863298995583e-02 2.137880825325609579e-02 7.418316111265670088e-02 7.333698693664701673e-02 -1.023066554885626450e-01 -1.290112192828323234e-01 -2.641425041115840200e-01 -9.529331226495661722e-02 5.406323734076019794e-02 -7.342440195942902259e-02 6.687292650547417561e-02 1.383721439786374241e-02 -7.912784535290329213e-02 -8.943687476107843592e-02 1.813484462725064791e-02 -1.738037479370942509e-02 1.506625894940232246e-01 2.273568615965480821e-01 1.675373719441919651e-01 1.382470657812322756e-01 1.457162664223677706e-03 1.713963015551171198e-01 9.697931913496835032e-02 2.630554011281780249e-02 2.383648436422334815e-01 2.624881319831416926e-01 2.606549430552321800e-01 2.313089760930762684e-01 2.008476716427383402e-01 2.242638785112179844e-01 5.824574202998929195e-02 -3.091902358603247983e-02 -1.134748402374551740e-01 -2.566629621897642544e-01 -2.117183338768524048e-01 -2.053838305928180064e-01 -1.056521681226139098e-01 -8.130612324286719261e-02 1.094074823896447508e-02 -3.161973344814661413e-02 4.606451439761558020e-02 4.412086297673439156e-02 2.677120220016413962e-02 7.244815664073003814e-02 7.772277226728796506e-02 2.219015226328711343e-01 4.807249546047779459e-02 -7.726854863931075998e-03 1.617767711679690863e-03 9.370711422502821242e-03 4.175109198522219262e-02 -7.111008579007313535e-02 2.289421631232510523e-01 2.320745770048792955e-01 3.765289921413110807e-01 4.400238397676801139e-01 3.585989040257854255e-01 4.628092660797105684e-01 9.829070143173848639e-02 7.233542487830035839e-02 1.780606965241281203e-02 -1.618258495855360857e-01 -3.501888902083396538e-01 -2.478590939846148089e-01 -1.656709440437584002e-01 -1.222188125916786328e-01 3.441940084019412538e-02 -5.001559834989501713e-02 3.870847271865654471e-02 7.497681175079239264e-03 -2.514513483751360662e-02 1.440115501181699897e-01 5.261389470996918893e-02 4.954246653112288901e-02 -8.975494975441508649e-02 -1.740883740520393352e-01 -2.867368099035411469e-02 -1.735119203721370018e-01 -9.788622186105624956e-02 4.078305968299290180e-02 6.469869109938079788e-02 9.081719218107182912e-02 3.324536835135736279e-01 3.858245873446951579e-01 2.531232463302804936e-01 2.499305187331005151e-01 1.370307220887606869e-01 1.593363797085113887e-01 -3.378730414094403139e-02 5.003631946476500003e-02 -2.752425242472532063e-01 -4.569336821612082766e-01 -1.940028747521863328e-01 -2.719593192750263851e-03 -9.671913115302416264e-02 4.509632374068331395e-02 -1.016041364710617428e-02 1.000469207466019549e-02 8.519849431936347972e-02 1.170420599400885941e-01 1.206474214207760853e-01 1.123161171398944363e-01 -1.944949869031042389e-01 -8.219417358432266896e-02 -1.672940680763383148e-01 -1.336908156245948942e-01 -1.440650741975575411e-01 -2.560681767444241697e-01 -3.444985010054120167e-01 1.711770195825509933e-01 4.410758698272314038e-01 5.150094989634063092e-01 4.793731397418047324e-01 1.707630480108155158e-01 1.702269673929586724e-01 9.524689128688969275e-02 6.398404549726538493e-02 4.751283891859496566e-02 -2.461324525199960200e-01 -4.424807402989268112e-01 -4.298383645148813326e-01 -7.537695291841523676e-03 2.342072729983910376e-02 -4.125697834227552707e-02 -6.809812585417354680e-02 3.557764384363675675e-02 7.299054071437825753e-02 2.134306754955956134e-02 -2.143970733662831779e-02 -7.864337693847586741e-02 -2.581803568664479132e-01 -1.768788112133615475e-01 -2.055276608053632770e-01 -1.864407569057121850e-01 -3.234858264883131440e-01 -3.688995361439106890e-01 -5.076502786442793624e-01 5.875395405579746794e-02 5.707278416847357816e-01 7.954053111475776205e-01 4.849961490808294973e-01 5.846512698305289524e-01 3.438802678599702789e-01 2.505669014529499639e-01 -5.898568045439676194e-02 -3.166684701588352163e-02 -2.190251849953074870e-01 -4.376146596836906211e-01 -4.255255199803232857e-01 -5.279831874769909394e-02 -2.387805532660680630e-02 1.828793911645993156e-02 -8.753032177333995578e-02 -4.979669919249949533e-02 1.501580826792532353e-01 1.007249376610941383e-01 -2.413236791577895099e-02 -1.060378080509719600e-01 -2.610524885684239460e-01 -3.778334563206047769e-01 -3.697903816475282546e-01 -3.706438378423165259e-01 -3.190348508059701604e-01 -6.512032475600190162e-01 -6.689654697407629858e-01 -3.780017078057136271e-01 3.141568163123584778e-01 5.637111521982859363e-01 6.246803298370954272e-01 5.367901829672165892e-01 5.340098058414276538e-01 3.548371134219630574e-01 2.615804550626324998e-01 1.273324836936617355e-01 4.060566298330083035e-02 -2.762882248680777475e-01 -4.070617892769320956e-01 -4.050516107105665148e-02 4.939771275971898551e-02 7.514106045268884038e-02 -8.795386593339890591e-02 1.060653655669413081e-01 1.018594464037741593e-01 -1.337589049559328655e-02 -7.225999164071839065e-02 -2.533951394067047169e-01 -2.460669263767740200e-01 -3.633987888790938814e-01 -1.778243712665768250e-01 -1.956651454351425456e-01 -1.868530111797734039e-01 -3.292978616856893082e-01 -8.070363886747295989e-01 -5.455649659051472478e-01 -5.194296451282091193e-02 8.713996779901456158e-02 4.348044206984644222e-01 3.397903237218286021e-01 4.158050145782120621e-01 6.063780256982324035e-01 5.393899842257466881e-01 5.765028676730530321e-01 2.770919280618201475e-01 2.051488915054866247e-01 -2.059129807268098855e-01 -1.860818981298339309e-02 8.992935098569865282e-02 2.843206856838832036e-02 -2.632173326721091652e-02 -6.774590781377672066e-02 2.078121061972093911e-02 6.899355815253119251e-02 1.078625423781295369e-02 -1.398999645708977058e-01 -3.368282618290960317e-01 -1.837297761063794721e-01 -7.698346718835803737e-02 -8.201925031478154993e-02 -2.670227244939749611e-01 -3.486505051711679126e-01 -5.337056605720390534e-01 -4.905547152940500366e-01 -2.360759827356793128e-01 3.203348485056214251e-02 2.428432286162194309e-01 4.795345100484477152e-02 4.916371746024236766e-02 1.742885273101012211e-01 3.212646471756502864e-01 3.836822942618462462e-01 4.635214032857781219e-01 1.937777789020183328e-01 -4.266708234817797457e-02 1.432752170948057083e-02 -8.389752970195675204e-04 6.887916942584806912e-02 -7.648885143109854061e-03 -5.479693245531024742e-02 1.851760139006804889e-02 -1.378358098757664386e-02 1.594940468333420208e-02 -8.903759744834638390e-02 -1.002214503772610177e-01 2.296899722045255346e-02 -2.370736317101260551e-02 -9.855710534510617182e-02 -3.260163077353652739e-01 -3.621366723826349165e-01 -3.251732807159076755e-01 -3.130194960463016929e-01 -1.746601272093271096e-01 -5.073404055042878003e-02 1.811206064467852095e-01 1.578057810634640179e-01 -2.881458387470205162e-02 -1.952035014206457419e-01 -1.231332588262491583e-02 9.256089718557221346e-02 2.803463349184427966e-01 1.819249087991400282e-01 -3.553036783294687140e-02 -6.050652611512221529e-02 -5.423573564731199587e-02 3.757908030563302665e-02 4.437361214812016175e-02 3.960364791091817299e-02 -7.051242950285163680e-02 2.614457127931180472e-02 3.334763059418890258e-02 5.924213907837834470e-02 1.277859915806905389e-01 -8.203423265190188871e-03 2.662540171768100743e-03 -9.376581021072750988e-02 -3.516538682735318999e-01 -2.103710954430222657e-01 -3.420785102799624999e-01 -2.851660976877702369e-01 -1.444062740545266343e-01 -9.251833558511496358e-02 1.413568871013421158e-01 2.945246708622702436e-01 3.228812675748378436e-02 -1.715664804037379462e-02 3.399320845641332772e-02 -1.740056891291713245e-02 1.576826019947057123e-01 1.392962162749299404e-01 4.546446480792917105e-02 1.208146872249867693e-01 3.265583577996412912e-02 -9.623142410659432655e-02 5.871877503435071061e-02 -2.300215223972798626e-03 -6.468652037658367826e-02 1.114206600913357909e-01 3.036803971725097751e-01 2.772088540821388558e-01 2.275048966477807300e-01 -4.459108157236876813e-02 -3.021969743438659428e-01 -1.361981623891484749e-01 -2.264308532445342970e-01 -4.079312291124247980e-01 -2.868450503583996891e-01 -2.916783747979598829e-01 -1.364273766273773891e-01 7.327363275803143450e-02 1.364457613922124557e-01 6.388365084423831830e-02 1.180952054681637109e-01 -6.130665883371247404e-02 -5.221430616499351564e-03 -6.357701744559855761e-02 2.615047591284965986e-02 7.760320192736454639e-03 4.990444072634687284e-02 5.844410493081019994e-03 -5.649045376734448953e-02 -1.196506268877040383e-02 -5.337037837429461223e-02 2.570484888689404234e-03 5.723507043363798563e-02 1.703135385383208467e-01 3.238675565129783829e-01 2.665607444102630064e-01 1.434524662560467123e-01 4.231687849970229565e-02 -1.861528734981210131e-01 -1.254391179534442846e-01 -3.554424981235339009e-01 -3.266589880437433258e-01 -3.339026066270469606e-01 -3.276724896476897464e-01 -2.184537304620172982e-01 6.593595054433809555e-02 2.075858240058896242e-01 1.183492735908366622e-01 -4.614315230294171316e-02 -1.385807584082897059e-01 -2.552065361742541019e-02 8.981766599479362734e-02 -1.615508254512971198e-01 -5.024322928056718790e-02 -4.251997017560067010e-02 1.728197473957682889e-02 -8.510464857198324351e-02 6.494092086041491907e-02 -4.853536365768223310e-02 5.652906661475819855e-02 -6.657591386460999516e-03 -2.622558532759108885e-02 2.453394766705680186e-01 5.801960853510070709e-02 2.077342208225557013e-02 -8.840857792244503910e-02 -8.818040123023671017e-02 -5.923225440446740903e-02 -1.745558081400635508e-01 -2.621068031844063229e-01 -1.855900004804856562e-01 -1.831148732767317877e-01 7.695328656350802765e-02 4.782844514736735164e-02 1.509382224513595439e-01 1.131649681096005833e-01 -4.973479347410651036e-02 -9.562521359894338158e-02 -1.830999635299289385e-01 -4.980170858444621373e-02 -1.776312106308275407e-01 -6.314106006331783594e-02 2.725572964263556566e-02 7.979049338374104294e-02 -8.402346926371358216e-02 8.831899627407105435e-02 -7.174258834954194697e-02 4.312847603658206269e-02 4.360401145007778562e-02 1.214771064495783898e-01 1.266639787345553991e-01 -9.366945527378882363e-02 -1.407959685315121334e-01 -4.536108898909547299e-02 -7.306357208304531392e-02 -1.460801155656150409e-02 -1.290351586490125491e-01 -1.561855828267316448e-01 -2.683279256410289748e-01 -2.471679392431428979e-01 -6.326049463864613642e-02 4.384469209111306609e-02 -1.937251981182630881e-02 1.255767536011251628e-01 1.032931425992529850e-01 3.528436027743771242e-02 1.468298922474220967e-02 -1.040542473246191257e-01 -1.294435175343819355e-01 -5.743946683856662738e-02 1.378174047918246103e-01 -2.295297972763559249e-02 -3.160792038794386916e-02 -2.594932158420411653e-02 9.675762172792011506e-02 3.738833547743996427e-03 -2.735026861329880807e-02 5.955937859572458040e-03 1.516661360189114523e-02 2.372193540600146464e-02 -4.717161839799784498e-03 -2.547890037491374327e-01 -2.618484722647547169e-01 -1.391350973565771976e-01 4.898225651025772676e-02 -4.504479159864393373e-02 -5.121485717866505055e-02 -4.187371711437337662e-02 -1.078053007379754791e-01 -1.034006359467251335e-01 1.622403255995892024e-01 1.362737334574899359e-02 9.256617634818270490e-02 1.639849179950849875e-02 9.935622484822832778e-03 -1.807607757791418746e-01 -3.424334089322189634e-02 -7.926806530270429085e-02 9.049732558741913069e-02 4.839235595461156142e-02 -4.316091752655056013e-02 2.191692485442417460e-03 1.289692337291709241e-02 8.951663951503763261e-02 1.553405328081934877e-01 6.631357705283814907e-02 6.460595719540178361e-02 1.732096473618273402e-01 1.539319108385903134e-02 -2.185296136796606795e-02 -1.348542564750473093e-02 4.210434024861095526e-02 3.653939560151226590e-02 5.789961801930143537e-02 -4.781035579971632671e-02 -9.131309247586569255e-02 -1.126551437127558536e-01 -4.259152952956309773e-02 -1.494140190696764507e-02 -2.299348418813990796e-02 1.045406908104391935e-01 5.619569916331970671e-02 -3.258378924565843993e-02 -1.482282563503122541e-01 -9.495625713226572839e-02 -2.127479820115939224e-02 -2.194748687027942360e-02 9.626158183938110513e-02 2.264478232018615061e-02 -6.486215088652667708e-03 4.590414131981633561e-02 9.090096932057578627e-02 1.947040678371812078e-02 3.373716464399887510e-02 5.541780252682989433e-02 -1.425271265656672948e-01 -6.869970878373704570e-02 -1.099528498457449932e-01 -1.105882765374408272e-01 5.024832348840171936e-02 -2.199735836235250722e-02 1.807805824603646652e-02 -8.372104391571823234e-02 -2.022869568920933891e-01 -2.467439217911589766e-01 4.787608300056191840e-02 -5.480178166637481030e-02 4.955336951157669756e-02 8.364862029422183431e-02 2.472834540339599943e-02 -3.364442924047483970e-03 -8.431869024168690829e-02 -6.062946469993519411e-02 1.539241924702935416e-01 -2.155712525902799687e-02 -3.555198052857265478e-02 -8.635330666897362943e-04 4.207982907442293918e-02 -4.983346728915221541e-02 3.361224101441020323e-02 -3.234483634490566833e-02 1.644871278420172722e-01 8.237763522058882959e-02 1.087699812072706329e-01 2.421511742019738858e-02 1.929598565634839738e-02 1.091590510771510703e-01 1.730229515616342473e-02 2.975927847968168338e-02 1.886428234639698359e-02 -3.649466035504290301e-02 -9.793856264393703548e-02 -1.532194767058121798e-01 2.591720045681920534e-02 -3.071144512729557033e-02 3.911717090397305412e-03 6.860014377272123653e-02 1.094016569219143087e-01 6.228922490909626075e-02 -2.717477705047159804e-03 1.073517512881448782e-01 1.454224815465808285e-01 3.604164800953824771e-02 6.072584712447177263e-02 8.778573138367790074e-02 1.085406264167740331e-02 6.209732153962074785e-02 -6.616687491271300292e-02 -3.480930634983427779e-02 1.792594356775907213e-02 -1.252942526992814089e-02 1.280293906186228889e-02 9.000339931328436849e-02 1.486380672731823816e-05 -8.672551324422848309e-05 1.981808435244854505e-01 9.992970912192838950e-02 -1.785302633533098274e-02 5.533751760169531436e-03 -1.772575852620650594e-01 -1.505040852389359640e-01 -2.251564660113089811e-01 -1.615067613178547135e-01 -7.601078490534070309e-02 -1.279042596981730673e-01 8.470543327387169974e-02 -3.508162211765274846e-02 3.465122734649557501e-02 -5.110276719800318709e-03 1.400221309635169692e-02 8.722320409286016263e-02 4.183434610553158489e-02 5.039128819171448392e-02 1.217646826042667607e-03 -8.794585152895272040e-02 -1.695069893592812682e-02 7.273031232217012920e-02 1.567645531618347687e-01 1.563950032012937919e-01 5.002268441376468006e-02 1.248605821607001037e-01 1.044657869451739579e-01 5.014279590729111419e-02 1.424019616689385093e-01 4.914033723602382470e-02 -8.100921263829196414e-04 -1.354959007089427681e-01 -1.762604433514078917e-01 -2.209247094871032158e-01 -1.750150013194899656e-01 -6.055798368489197225e-02 -2.494529294158717714e-01 -2.084142692861797874e-01 -8.109771795385094240e-02 -1.658011865750839281e-02 3.629323324257908989e-02 9.839204208663710274e-03 -1.987411368269933337e-02 -4.869132999328546624e-02 6.498087361307576526e-02 2.154023082723471871e-03 4.450264436785764111e-02 7.387598687926161256e-02 3.889869794967058120e-02 5.777894131448688131e-02 4.556388309922443369e-02 1.243716181512733027e-01 1.024949152422351267e-01 1.975159590289281841e-01 2.895376372558000067e-01 1.931700649441552842e-01 1.378929129870624659e-01 1.962730320378945348e-01 1.925051850831107081e-01 6.532079828736914173e-02 1.197874717597088301e-01 -1.376027023605491395e-01 -3.987999504049433153e-02 3.899925292259262544e-02 2.361600096689420170e-02 1.774571435603571612e-01 -7.826386062666432220e-03 7.647210210401467201e-02 2.372162399308064273e-02 -4.922999366308308290e-03 1.859414763974294449e-02 3.873700460553043071e-03 3.381868519812269297e-02 2.733021276461813920e-02 9.771969480311554213e-02 6.822203023439107894e-02 -8.405975113864377901e-02 -3.191556910170739725e-02 4.750715005728272516e-02 5.601293005696770383e-02 8.175826165863382677e-02 1.727624572204920494e-01 1.259274591583255942e-01 6.321341283465083116e-02 1.414820986419034476e-01 8.667001029236408305e-02 2.084437913389870500e-01 1.958607887540981529e-01 2.867366239820612894e-01 1.349821638615604780e-01 1.274684431982318900e-01 1.747123192072820852e-01 1.152569069407696767e-01 1.457129424139715079e-01 1.232833021122822226e-01 1.846303609714715008e-02 1.570578857794802802e-02 -1.708878161068179066e-02 2.410815906457821137e-02 2.111563804992143759e-02 8.299211241237411385e-02 -7.628451437573753602e-02 8.417848716924833385e-02 4.372669012819629941e-03 1.315179596098159376e-02 -6.687432415060398649e-02 -8.921418460892806268e-02 5.681335128262503947e-02 1.874652658685100129e-02 4.973245044608021193e-02 2.564409565630788868e-02 5.174735095203251978e-02 9.506109147336079535e-02 1.500772716835823556e-02 -5.482244262275167562e-02 1.145689024761937097e-01 -8.039307649119333682e-03 -6.581110984589552682e-02 -7.395948474127257699e-02 -1.205584115125504265e-02 -6.486320220243352308e-02 2.111496566732426472e-02 -5.405830016063256985e-03 -2.577531665354227883e-02 6.607551115901860728e-02 8.032906043583001865e-02 -4.758427109755952039e-02 7.039133160071064932e-02 -6.967677869412525204e-02 3.236756177600702555e-02
-7.235242022465918077e-02 -5.503449392708446158e-02 -9.616487303592458069e-02 -3.111829449004450965e-02 -8.889192563225921384e-02 2.021797511083556209e-03 2.302637525383526007e-02 8.720238558659029748e-02 1.501491744651621552e-02 1.184830489053961822e-03 5.916429937828548979e-02 -6.214511354422441042e-02 9.250492547717997782e-02 -6.727090233152352439e-02 -1.571730700154517178e-03 2.776014913839468592e-02 -1.774355749302858332e-02 -1.603421258690729267e-02 -6.178209316683243302e-02 2.143124398785085927e-02 -2.271804648988444419e-02 -7.799923022849696019e-02 -2.840133083169307793e-02 -4.939787900989922598e-05 5.358964541202401732e-02 -3.490855991632151045e-02 7.629207445575453272e-02 4.995236716460421666e-02 2.219763924794049270e-02 7.025807262410835308e-02 -3.425378111010027316e-03 1.468017685542832851e-03 4.473070866573645304e-02 -9.756160110364027471e-02 -6.808770911415613913e-02 3.984747052600187515e-03 -1.164971703665819425e-02 6.675626817102701949e-02 2.817978450552874672e-02 3.114693268583136956e-02 -3.164700743537092031e-03 -9.429187113614496962e-02 9.201333676112501136e-02 8.695239984600713901e-02 4.188936913750020141e-02 -4.096769375932498430e-02 3.746810195044063263e-02 -4.467342299124686666e-02 9.141671028930009602e-02 -3.076151840445702891e-04 6.085013249562307852e-02 9.377319086654165026e-03 2.578796392363005840e-02 -6.693777918853763276e-02 -4.224261445932706721e-02 3.027395990985726204e-02 9.025833749675354900e-02 -3.864137201473569899e-02 -4.365654036846847164e-02 -4.713666071281172321e-02 3.972485626062478847e-02 2.214376736853005366e-03 7.676530027410657930e-02 -9.433584165042260827e-02 9.207462260458100858e-03 6.720316505674842067e-02 -1.477963961567578012e-02 5.239986008611646762e-02 -4.727085281525564980e-02 3.364366134766435396e-02 -6.479429120020008259e-02 -7.412853811815842131e-02 -1.509085407366216047e-02 3.514014030907608443e-02 -1.069443263759816132e-01 2.434254555200020612e-02 -1.037294997995163960e-03 -6.601684177849595492e-02 -2.123412713148389169e-02 -7.093060467075515407e-02 -6.936818193875930738e-02 5.201296939750971876e-02 5.640001502298322422e-02 7.723368990693044167e-02 2.385900244596990405e-02 5.419261300255251435e-02 -5.471296365420398600e-02 2.040751662452708684e-02 3.853508673715570071e-02 2.231586108156524001e-02 3.340796263615675166e-02 7.380139487535977705e-02 -4.556742987696709574e-02 -4.012960957815209229e-02 8.503406577284947088e-03 8.372658286521085340e-04 2.023908048606828242e-02 -1.449025533666777749e-02 -9.253931124454620183e-02 -7.715792672098360783e-02 6.486930072914791519e-03 -9.995444141053509701e-02 -1.842095956003093893e-01 -1.690791026283341714e-01 -6.633348483750303726e-02 -1.157413564925974803e-01 -6.393410756404888096e-02 8.598362078590092439e-02 -4.669049116836826441e-03 3.491778992608310372e-02 9.124543907130610795e-03 6.660728915155719743e-02 -3.545683213709396875e-02 -3.846902756524026717e-02 -7.275310292884891450e-02 -1.528034075533049076e-02 -6.311780642910976014e-02 1.064542956320899819e-02 5.245309592169614121e-02 2.118192814130813104e-02 4.897993306047202650e-02 8.466049539350953279e-02 1.500797425538336338e-01 6.583025044404225423e-02 9.647769724738702868e-02 -1.158526748560109038e-01 -2.208216275256887420e-02 -1.802336141450121554e-01 -1.778664714148275316e-01 -1.940990061462452843e-01 -1.046443450363658406e-01 -3.163845675450669415e-01 -2.327839290415168461e-01 -1.176152370416102128e-01 -7.860049390588409735e-02 -1.219370789252101211e-01 -5.448822467963973515e-02 -6.201489543572659413e-02 9.545346535603677074e-02 5.432124792966296079e-02 2.931040786025956857e-02 9.966310889219415214e-02 8.796556075629841098e-02 -8.269578559879230129e-02 -5.584407358228037077e-02 6.012422786020122506e-02 7.279928897119294917e-02 -8.729630846994841653e-02 1.012094750301369694e-01 -2.444095169827128003e-02 -3.006789590733461876e-03 8.284268928525830022e-02 -7.271800234113733052e-02 1.142992333661066034e-01 -6.961105670926707838e-03 -1.331439182207208027e-01 -7.345384579528503599e-02 -2.753765641567983424e-01 -2.187145113600406088e-01 -8.113965754895734184e-02 -2.341338089687345081e-01 -6.320835131942151297e-02 -1.107386465316169688e-01 -9.029888024167184724e-02 4.584564653954670103e-03 -2.156800758044921662e-02 8.209614035839070401e-02 1.268267575330007946e-02 3.674955379916217124e-02 -3.592195617290464688e-03 3.725553642590353348e-02 7.238498707088879963e-03 -6.048815392394921164e-02 -7.495245379012376030e-02 -1.480894874702237130e-01 -4.821819271404509388e-02 -1.004455015441952509e-01 7.932535511980563780e-02 1.280240685620060714e-01 3.363906659370481389e-01 3.839375114749664641e-01 5.203542259671970482e-01 5.302765896744316976e-01 3.412998682081520019e-01 4.180151953104855878e-01 3.202742190709540471e-01 4.737298900507551092e-01 2.129600576737761819e-01 2.253410807321001297e-01 1.098144299784380596e-03 -1.428424221647740522e-01 -2.494548256210237791e-01 -1.099045352115767399e-01 9.780122500465447330e-03 -9.033916095827236592e-02 -6.682716479598457826e-02 6.859625379048976679e-02 9.399272878265640951e-02 4.217066987995785748e-02 -7.904827243668925002e-03 -9.757905281713051202e-03 -1.424537826566964760e-01 -2.116100397753257339e-02 -1.349451345689408333e-01 -5.093259023585208767e-02 1.684345800979859809e-01 4.208037890596090791e-01 4.712566734501907328e-01 7.141669495731468587e-01 8.086876652867970305e-01 7.088301217872107207e-01 5.923693530510805161e-01 5.641078815130274871e-01 5.090225417545786168e-01 5.132616737005795127e-01 5.405367493047503746e-01 5.046664310991071378e-01 3.759226903611337933e-01 1.740381425931606663e-01 -6.811701253279840718e-02 2.447648539076806642e-02 -2.310205830788444187e-02 -9.612049632739187721e-02 7.315679075469334186e-03 6.785619505714358957e-02 -6.293305683450563237e-02 -4.998871751866847818e-02 -2.587930052308409778e-02 1.031713515050925040e-01 1.591884367556530011e-02 3.983686331889366161e-02 -3.242910970367598317e-02 1.110719584473128518e-01 7.644892145341085354e-02 2.524302937074054953e-01 5.192667912085645598e-01 6.793356622163357894e-01 5.796903778122325379e-01 6.225302906545702175e-01 5.398857036581722335e-01 6.011548458670459283e-01 4.412866551439822427e-01 4.303523362112096629e-01 5.308885181923109764e-01 3.662713577411190191e-01 2.852000832381799689e-01 1.616627161835651749e-01 9.487652790414681514e-02 -4.781027087861469682e-02 -8.631292012656885393e-02 -5.416233426924269706e-02 6.697196914558813108e-02 2.037315724215455273e-02 -3.110154050166660106e-02 -3.733642408551293701e-02 4.707712615059834321e-02 5.951135034503857169e-02 6.663214851547191730e-02 1.189071362118662434e-01 5.419666317434008312e-02 7.568234929908070063e-02 2.602216172697477958e-01 2.487571486047985836e-01 3.456241833635843586e-01 5.013857300340170964e-01 6.002077019356625298e-01 8.139286878885277909e-01 5.953063521887372866e-01 1.889791573141933467e-01 1.549375944463342869e-01 2.101312907107520389e-01 1.475782821847604620e-01 7.268536640679326699e-02 -2.433225837610311984e-02 1.493958245139971608e-01 1.006049857536508857e-01 9.592698473501035106e-02 2.266060148809724388e-03 1.006223786906367129e-01 -4.260534967960127178e-02 3.076345291385217465e-02 -6.913277395805407337e-05 9.663753936502791908e-02 8.251012773933174768e-03 7.780536619571609691e-02 4.398243080958920415e-02 2.831296405409235994e-01 1.810759218165249873e-01 1.797757247536246605e-01 -3.533203428674291241e-02 1.475024645978996740e-01 1.627424935819800078e-01 3.196005970596325629e-01 5.977566765082691358e-01 8.076787188477638768e-01 2.157378647660886106e-01 2.372268619121364192e-02 2.245172849355210262e-02 3.893069289302902858e-02 7.937829227797148224e-02 -5.162323714857489088e-02 2.344487770381629976e-02 1.721815997066741821e-01 2.438686671790044891e-01 1.557848416098486510e-01 9.533010119657701897e-02 -5.886975983160231546e-02 -3.008741361694315317e-02 -7.593831306971436657e-02 -5.044679632840318173e-02 1.526149952860511062e-02 5.187024919789172406e-02 1.339657637471917406e-01 2.312001851667151442e-01 1.773241165665287999e-01 7.860233182508477578e-02 5.780812700078952031e-03 -8.855111694472343753e-02 -1.752315902806627912e-01 -8.655437559039412532e-02 7.558399582356800650e-02 4.350052633786051781e-01 3.706510829015050579e-01 1.052497288933608305e-01 -7.753935099135643438e-02 1.350620064363778350e-01 2.235985618410694653e-01 1.081162676701990094e-01 2.585880345483452802e-01 1.910064200973713988e-01 1.217147520202141869e-01 2.646761543166807340e-01 1.033090638437313136e-01 1.494974081800699572e-01 -5.613697467406437991e-02 -4.202926238605731585e-02 -7.601612675982939715e-02 3.130003948478855824e-02 5.329472601611530413e-02 -5.832331729528396347e-02 9.019293765611607894e-02 1.393839087780882890e-01 -3.650470566956173779e-02 -3.990762113639903519e-02 -1.716841438205201908e-01 -1.497177252232715916e-01 -3.847737050150249472e-01 -6.920906720706834214e-01 -7.214218214857871514e-01 -2.258486725454307009e-01 1.639354038064412267e-01 -1.684363444701091894e-01 -1.291634695377920361e-01 2.155280205790537917e-01 2.115399699650502841e-01 1.971429611183123376e-01 1.561449278777859440e-01 1.357026623889413808e-01 5.367045433437105106e-02 9.208124355498924218e-02 1.259053801751371104e-01 1.142599416801366591e-01 1.472485891434899968e-02 8.736166106555723343e-02 4.057652528581665030e-02 6.877147548301143498e-02 -8.027959006924549612e-02 -1.812841421744872117e-02 1.069308509901135129e-01 -1.441977553164178749e-01 -3.059279048788942634e-01 -1.764580883356797469e-01 -3.327125065788806291e-01 -2.754566837788220979e-01 -4.917928645432934620e-01 -8.191055236068889300e-01 -9.290691777043063038e-01 -3.210574218464612439e-02 2.381218130656050647e-01 -1.723980748545422270e-01 -1.432558565114387394e-01 -1.136380541447983006e-01 4.445397686714987195e-02 -4.629066972215638287e-02 6.275862196833295603e-02 -1.108563067094551526e-02 -1.826968526155193229e-01 -3.092581733478337314e-01 -1.485062996572034666e-01 1.220066684440012685e-02 -1.437938177868945157e-02 -2.115608574578979953e-02 7.420367193346874557e-02 4.014680420746045975e-02 9.669869773599279461e-02 -1.291847763492364604e-02 -3.534861658317426519e-02 -2.201158512720728377e-01 -2.891735241337288209e-01 -2.861179627833639882e-01 -3.186371632502317808e-01 -3.636585757646205730e-01 -3.031035157222036758e-01 -6.850466956023069098e-01 -6.958838469414039274e-01 -3.407041626243578064e-02 1.421040985224163167e-01 2.985924231155112976e-02 -8.240406959605353632e-02 -3.808809368562016129e-01 -1.640927196873861460e-01 -1.568310315992025028e-01 -2.045886503862934802e-01 -7.465740445835022943e-02 -2.148187134264070708e-01 -2.174434606114955815e-01 -1.793173762865690191e-01 -5.040613205740218650e-02 1.832925386835092957e-02 1.420439280658177374e-03 -2.414933107035108217e-02 1.632777739717787557e-02 -1.068127340752623861e-01 1.626411447616847583e-02 2.329852503602015609e-02 -2.651944377935472885e-01 -1.994287222533871196e-01 -2.141246470463531448e-01 -2.118653256436463239e-01 -3.288075980450744229e-01 -8.368565824258056285e-02 -3.364035867255850132e-01 -3.278109811239928173e-01 -1.295251916283021443e-01 -1.598923663883015933e-01 -1.071135311656228606e-01 -2.309712310193632601e-01 -3.284684231310665559e-01 -1.645050636332150706e-01 -7.258769317452176684e-02 -7.571217236853897137e-02 -1.022732993288613668e-01 -3.745688643829404030e-01 -3.733639240957429273e-01 -1.542477508794723728e-01 8.389584063153321392e-02 1.950879501363946000e-02 1.580329796591311078e-02 -3.323610785799053363e-02 -1.406655892236711655e-02 6.436839978543035246e-02 -3.379609253960345200e-02 3.336316428016324054e-02 -2.313751639701448759e-01 -3.711505263950138911e-01 -2.295383093513859440e-01 -1.879932763118953576e-01 -9.322569476719945458e-02 9.625178964871246301e-02 -9.672527468362258907e-02 -1.445061042654572636e-01 -2.590190871946524420e-01 -4.048014936828060462e-01 -4.914657268342508267e-01 -1.995996664043816482e-01 -3.151473535411536964e-01 -2.430818721261291393e-01 -2.554205835999279750e-01 -2.728897981503879966e-01 -2.078252744263421048e-01 -1.698402371913792230e-01 -2.035233819285930945e-01 -1.064101465243880301e-01 -5.126133505828140563e-02 -4.121891263125773003e-02 2.493937512673964629e-02 -8.463339876844605536e-02 -4.870627369915789956e-02 -8.084416299570010289e-02 -9.141618739716653175e-02 -2.252013488285237175e-02 -1.337347584230596798e-01 -3.131906081580196899e-01 -2.084495274548543720e-01 -1.606521082281283375e-01 -4.560431914134958215e-02 4.637089867907692037e-02 -6.360178466744598191e-02 9.474561230935571454e-02 -2.634091533124608975e-01 -4.942802722662176240e-01 -4.052336495187974230e-01 -2.742320120241421577e-01 -2.084572543624768626e-01 -3.603465574373319047e-01 -7.339027367781034150e-02 -6.858606017399296317e-02 -1.483393441678054481e-01 1.614501837070195928e-02 -9.202433099510924641e-02 -8.678113776555250458e-02 1.013672286147454110e-01 9.816044880200662515e-02 -6.812047430800041714e-02 4.239981036915906054e-02 -8.062559788301963681e-02 -4.978011478465838024e-02 -6.963983475300100645e-02 -1.572802854566443531e-01 -1.486639812153481566e-01 -1.092170037152258716e-01 -2.803602892175629524e-01 -2.014482433279784213e-01 -1.923737981151674853e-02 7.997087404653302478e-02 1.693383137033922532e-03 -4.602223569906688794e-01 -2.970312799670746240e-01 -3.306786166512380998e-01 -1.915247491638730482e-01 -4.988613236735652268e-01 -4.593422552019064270e-02 -1.125734867333432476e-01 7.303078767649437419e-02 -9.036207992383084309e-02 6.349879608835073963e-02 3.073266215868651896e-01 -1.596927098167849222e-03 1.026010714869135670e-01 1.148772711875556268e-01 -5.064532880208255650e-02 -5.458546317072624984e-03 -8.894212795334811850e-02 5.483511958937443281e-03 7.289828085665817255e-03 3.032072625071645378e-02 -5.739369575814518704e-02 -1.122657279689552590e-01 -4.618813432120835727e-02 9.577267016057988691e-02 7.601367808666614073e-03 -7.346921578036115508e-02 -2.695633338950555180e-02 -2.147372955619372137e-01 -2.742571002876363906e-01 -1.956630055176268868e-01 -1.087651387906674177e-01 -1.584959150595564026e-01 4.232858107508391012e-03 1.783375653485237688e-02 -1.080405703769742043e-02 2.155959506440335016e-01 1.782431719457985009e-01 2.613927961147620715e-01 3.018363885187623219e-01 1.372067346170410818e-01 4.672716938399443590e-03 4.022438740623855008e-02 -6.664696137756997117e-03 5.026032583859033065e-02 5.208019375326164435e-02 5.566277388378258924e-03 -1.531520657937523663e-02 7.533829877972084144e-02 6.864381765787955225e-02 1.862961985367619089e-01 9.957708026794047373e-02 1.281472981410071987e-01 1.697336331444999069e-01 -1.232745263884701785e-02 -1.147561615107408478e-01 -1.737737809521724963e-01 -2.936943988671326666e-01 -9.702430975682060921e-02 9.326116211137081002e-02 -4.852520878122069253e-02 1.609769785115474638e-01 -2.093802663487583093e-02 -6.915690250300266136e-03 1.394667344103091289e-01 6.006465029960540020e-02 2.687219044785272848e-01 2.204061438734346845e-01 2.682751387379749275e-01 -4.715885706247298012e-03 -1.229519126059410578e-02 2.245539879831432491e-03 2.017180987715717910e-02 1.875660494839526474e-02 -9.574739061379806959e-02 9.959383146629860462e-02 -3.090454693387163429e-02 1.614071986890436294e-01 1.365348967388908263e-01 3.357230705895120626e-01 2.205977988856684668e-01 1.009432332146440459e-01 -2.620420868828998717e-02 -1.709071857963040675e-01 -2.810766283466476501e-01 -2.436780759567357402e-01 -2.880216720520212270e-01 -1.101669824678903481e-01 1.099756911945710784e-02 -6.138762503189753444e-02 -1.521881264859933913e-01 -1.462366608944997426e-01 -4.758354897872740796e-02 1.212743664397785970e-01 9.117062965372575711e-02 1.601422807938277793e-01 1.806325730553238473e-01 5.463515260210429630e-02 5.211531375432792296e-02 -1.057694285544166640e-01 2.351999805976997746e-02 6.031023972229431623e-02 -9.908260864924783862e-02 2.992699382261925292e-02 1.877216029558472291e-02 7.501518841098007637e-03 8.742694066277538478e-02 2.796219671271770735e-01 3.344146189035672179e-01 3.424808856789796074e-01 2.906789438229586131e-01 1.349218474020004443e-01 -1.090635599278965279e-01 -7.626394431089637826e-02 -1.461105668753884812e-01 -4.671608061531564576e-02 -1.326145607575244523e-01 -2.244129279076510081e-02 -4.626056766620004895e-02 -7.791037165786385277e-02 -1.766741757156856107e-01 -6.558011422227495724e-02 5.330456308855769515e-02 1.290436019229651565e-01 1.670573398000519405e-01 1.378544422665758107e-01 9.899082743114860639e-02 -2.663449138307166786e-02 -1.927957615711777678e-02 2.650775023695028931e-02 1.774876380245685170e-02 -6.239530874998097665e-02 4.608816254622507061e-03 1.119756141675067596e-01 1.629766721857165424e-01 1.506852686860144508e-01 2.549551205287354239e-01 3.736670344209394035e-01 3.612343083328023452e-01 3.405644778862823574e-01 3.794053680316213928e-01 3.337526707153383732e-01 1.400478931161311669e-01 3.020463968288023687e-02 1.831403960297791622e-01 6.174201102683327808e-03 6.763173822170401306e-02 1.070911793985928201e-01 1.177402715170671188e-01 -7.807692280668025731e-02 4.878404985892084017e-02 2.056466708093642459e-01 1.352490761762645821e-01 8.658825628167575450e-02 -8.430407576348110735e-03 5.608069282367324909e-02 5.484875108950337808e-02 5.510602476781886749e-02 1.731050138704619268e-02 -2.582139288086210752e-02 6.683653380987027159e-02 5.534931680928615455e-02 1.341612064487287745e-02 4.348044414691944887e-02 4.379008712704791223e-02 2.811428372929886677e-01 2.037441399555563748e-01 1.957300786454712338e-01 2.802902145545591583e-01 2.472314891344321308e-01 2.790966816881950696e-01 2.654152136313336352e-01 1.817501528443979941e-01 1.458771669926025583e-01 1.441031189511373101e-01 2.380424969729620921e-01 1.311022260302789066e-01 1.569341423639992461e-01 6.638704999354422265e-02 1.477527065006785656e-01 4.832002679888099811e-02 -6.650698670036880866e-02 8.016781323002157567e-02 -1.973560013784875569e-02 5.789633497272639318e-02 8.862021537443118269e-02 -1.155656654090925217e-03 1.762953060044079520e-02 -5.685192338981346488e-02 8.619931412303716289e-02 8.656017552979934637e-02 1.548121357494526285e-01 1.651656722834699831e-01 2.710990322642786721e-01 3.129199620639968593e-01 2.639978387018245831e-01 2.437345095481001089e-01 3.532117253939353052e-01 3.294298232822400196e-01 3.062372469721091339e-01 2.155897936099787915e-01 4.155409334087278306e-01 2.976612549202032332e-01 2.508733842610326170e-01 3.040242424538198152e-01 1.828399785005247746e-01 1.711842844813886433e-01 4.739090269826713026e-02 -3.265441672668110279e-02 3.063832272414487509e-02 -5.721282718421386027e-02 -2.112084570047217252e-02 -7.650044883050305389e-02 2.636276182863286910e-03 -6.768318914407120412e-02 2.095168200555759530e-02 2.772113884975182380e-02 5.969732111131956231e-02 -5.259161978526284698e-02 1.398654404548151653e-01 6.979562779027263797e-02 1.716132760870708873e-01 2.454694129071136599e-01 3.172681761519998700e-01 1.939848541936425308e-01 2.754519445372037301e-01 3.940662224629023491e-01 4.396611705338744902e-01 2.457764633477793892e-01 2.620601855794059132e-01 2.791053554583369789e-01 2.838718120153851387e-01 9.858357458495244086e-02 8.597143175317058239e-02 1.410901577692587894e-01 1.046065575282988103e-01 6.270448750314636110e-02 -2.463705246833906501e-02 6.518323828720720692e-02 9.248984239556790055e-02 8.519535142543932515e-02 -1.050595827549793970e-02 -1.919559044276070159e-03 -6.140424492474136353e-03 -6.016461535613737421e-02 6.427672030235648259e-02 2.651742470058949738e-02 4.471685885805046050e-03 2.190394767218656336e-02 8.421984950865930852e-02 1.217387421473340066e-02 6.417706161797617770e-02 7.974168192435111824e-02 6.726336303171844000e-02 7.102932164066294574e-02 7.017129098244505314e-02 -2.274391187558482547e-02 -5.968874614527681227e-03 6.994711188050455226e-03 6.516098365024187988e-02 1.238709961317970981e-01 9.720369832434125335e-02 -8.660111315048613090e-02 4.914711423704912902e-02 5.142231338172940924e-02 7.554474361091575996e-02 1.202437623367973163e-02 -2.991903181800835421e-02 9.335729340857143455e-02
8.936913362176998610e-02 9.654207550498569712e-02 8.160465600015323617e-02 7.028369477254917119e-02 -6.750701488202198730e-02 6.461971189669837856e-02 1.219494958311133359e-02 -4.979236797387627533e-02 -7.752506870121129989e-02 1.244368819702920681e-02 7.598569753970418894e-02 8.132442712208384772e-02 7.440313072435197905e-02 -1.639505040237226874e-02 2.460712571756134073e-02 8.344818486501281996e-02 5.366171988784748659e-02 -4.230407162270038296e-02 -1.567652646523269577e-02 -9.892038779870888920e-02 -7.959823881511036980e-02 1.544185445560734837e-02 8.915458862462380396e-02 9.866883477733409680e-02 6.557147289601022999e-03 -2.309624668834249495e-02 -7.766164124552817072e-02 1.966541053319900700e-02 -2.891971531129465534e-02 -7.464804674164240983e-02 9.593118286937832306e-03 -9.602795379616163585e-02 -4.598781136687569993e-02 -4.805293804613550157e-02 1.700784466874663602e-03 6.153209498515635652e-03 -8.179716843039659679e-02 -7.519614322857733069e-02 -7.547229228108909282e-02 -6.845085467399422870e-03 7.491805026254513833e-02 -7.170963904267257938e-02 6.556918792860942646e-02 -9.394807599645300933e-02 -8.135475439560178879e-02 -5.311518783586208908e-02 -8.591129126187853349e-02 2.760404579546949216e-03 4.017490431626577485e-02 2.315883987398456578e-02 1.815541749778946251e-02 9.516289956856265053e-02 -9.877604420495594839e-03 5.698949011805604092e-02 -8.703230234675352062e-02 7.620660964856948438e-02 -6.349285050401173858e-02 -7.259230921021726790e-02 5.491895785941856151e-02 -5.392167454537846044e-02 -6.955978095383484605e-02 -5.565314112305416727e-02 2.068617358716035373e-02 7.388474607927772442e-02 -3.881680728531308744e-02 5.306426595139490665e-02 5.850295546414984588e-02 1.128161504634363349e-01 -2.083069021503612672e-02 5.282034584851093978e-02 -5.126936205855397305e-02 4.381417188960666509e-02 8.968467447582244290e-02 1.061306787068047874e-01 8.357846606621906205e-02 8.944569784978188831e-02 4.044138222010102562e-02 -6.314395218303796298e-02 8.117737906582352114e-02 4.008649888731853628e-02 2.853397950337790978e-02 9.008220920860998682e-02 -6.954714674408397912e-02 8.772432831116408480e-02 6.826054450719920563e-02 5.962637226625230880e-02 -1.264102869859500509e-02 -6.943383697861883752e-02 2.672335217357197507e-02 -3.869390833133128788e-02 6.816820725016065063e-02 8.248159104355369531e-02 6.917475456347534080e-02 1.117308924985344065e-01 3.556651548031759813e-02 -1.307535104508518176e-01 -3.107507062995620503e-02 -4.175296797160652634e-02 -1.035619408350646892e-01 5.590928881738908840e-02 7.251028655585786686e-02 7.839781873714465887e-02 -5.956737018860043531e-02 1.288028592397309491e-01 9.225615569582190645e-02 1.708680299961946591e-01 1.226213847367373100e-02 3.810189281793076310e-02 -8.157869792462171810e-02 2.498313631902596144e-02 -8.989644670885164890e-02 -6.973272666202914860e-03 -8.797916703497453417e-02 -5.106007555169487372e-02 7.000441460650404235e-02 5.302849234274239348e-02 3.100512202309062271e-02 -3.913010917883482515e-02 -1.168962172859637494e-01 -5.576982737468387519e-02 -1.435513966016712939e-01 -7.942529904344042269e-02 -1.249463487393400463e-01 -1.062448051164953666e-01 -6.138394883364025473e-02 -1.819696547500590234e-01 -2.967903573458606503e-02 5.712223558166103395e-03 -5.507897083789891485e-02 1.498521754409434283e-02 -8.281133607766211213e-02 1.343861310915228646e-01 9.705260149303827910e-02 1.657696530690217773e-01 1.285096482599064616e-01 1.415292106298727814e-01 4.410500275569945866e-02 1.881258512880988609e-02 -9.704790587512199251e-02 6.391321486851171685e-02 -3.756509370629388528e-02 1.383084903758997897e-02 1.595004890922651838e-02 -4.442477972516860329e-02 -5.244428201819383017e-02 -1.422481231519092115e-01 -1.544949631790302480e-01 -2.469106039922500939e-01 -9.492849413600608355e-02 6.698962724047231865e-02 -1.887979010683175640e-01 -7.591365160280051649e-02 2.424795134210472325e-02 -8.648034197541156149e-04 6.818805725090966441e-02 1.167492762291469782e-01 -6.257818789854713293e-02 -2.595840192125639656e-02 -6.659561898352360509e-02 -9.256542963603045515e-02 1.034359780325286027e-01 7.737932383368726838e-03 1.787741660809007496e-02 1.186156529237267082e-01 -4.636116372968342170e-02 9.873337447227413521e-02 -1.617368257957250977e-02 9.075810023172831142e-02 -2.621931269056121394e-02 3.093598539202604275e-02 -5.213704212917408265e-02 -7.363282442544261119e-02 -1.880825778889905764e-01 -2.352723507601746089e-01 -1.653826028502447254e-01 1.250518335657120790e-02 -1.257736534922958838e-01 -1.085013203353366734e-01 -9.939464782966113410e-02 4.820808721874492858e-02 3.255257304991110434e-02 -1.082030329834405280e-01 -7.060300275448451457e-02 1.893823550472528011e-02 -1.767154041298262257e-01 -1.838483892942107123e-01 -3.900975009538935057e-01 -8.722038133423863637e-02 -6.006314287990494050e-02 -7.980437842155596595e-02 9.253084400284004862e-02 7.199143160102719485e-02 5.798564027208432531e-02 1.336509201369075542e-02 9.695406901788929110e-02 -3.161309998996078563e-02 3.603099612946302627e-02 4.262971922179025624e-02 8.875627575183593632e-02 -1.324040288285501521e-01 -1.795147774393454632e-01 -2.570371217998809743e-01 -7.193069832582398015e-02 -1.357386367478919942e-01 2.969436687923550800e-03 -1.949631240140511090e-01 -1.193466273223952601e-01 -5.410413030957633013e-02 -2.132661582908305931e-01 -1.536225537633195692e-01 -2.719432106583794528e-01 -1.711835106286130059e-01 -1.305533813387820818e-01 -2.564820416896194111e-01 -2.049422590373837783e-01 -2.039578984475447221e-01 -1.851754119550460265e-01 9.035658068728107117e-02 4.126046943777863379e-02 1.478418821742078226e-01 2.358104270554799708e-01 7.757999609556449905e-02 4.529709766879049665e-02 -4.681278557261364659e-02 -7.396763115155441382e-02 -3.023705854484409761e-02 -2.052488322857181496e-02 -8.402704317907730425e-02 -1.953461940081246129e-01 -1.082458133850198873e-01 -1.877834489629976178e-01 -1.403415597133811088e-01 -1.555233767096902697e-01 -6.226624032632575856e-02 -6.799789941994913156e-02 -7.930467682274473795e-02 -7.818835048196728921e-02 -4.427630100949361824e-02 -2.979828775570955157e-01 -2.232517551497404662e-01 -1.801173828345998262e-01 -1.883671839435997197e-01 -1.374255265820737149e-01 -3.135077245356068798e-02 -2.974660751043060533e-02 1.193130555660861236e-01 1.356400259287390553e-01 1.891346015422812887e-01 2.031515713195448380e-01 6.747609148909848586e-02 -1.874640664001461093e-02 3.535255659553181856e-02 -9.115198497636882793e-03 -3.859253171062308058e-02 6.251655058009893129e-02 -1.250108005433152591e-01 -1.934852017487233011e-01 -9.650946563559165137e-02 -9.208028521424024837e-02 -5.860486511275496413e-02 -6.484037855109894832e-02 -1.007063483947621407e-01 4.729003625311459236e-02 3.330772505245894188e-01 2.318250612613203532e-01 4.027113092466162031e-02 -1.277494624185334937e-01 -1.769271388734328931e-01 -2.691089348134622639e-01 -1.180278270832759713e-01 1.055885249255967976e-03 -1.125358967027838136e-01 1.631292295062163056e-02 6.397774536833902848e-02 -1.601021509393576667e-02 7.028122515172331719e-02 1.398938980904570854e-02 2.036010748480389029e-02 -9.136500409579141613e-02 -9.626500659730673204e-02 -3.488975442835065555e-02 4.142006597769254395e-02 -6.442557270187963814e-02 6.190206873277008179e-03 -1.065822596149256091e-01 -9.057557547683166288e-02 8.274805890655458074e-02 6.182866701910193913e-02 8.619370641542500877e-02 2.645957359000592479e-01 4.190388091497677658e-01 3.169422093923180417e-01 3.159178693042083985e-01 1.854218753375410367e-01 2.690426798229894056e-01 1.591046562499364991e-01 -3.965569667069167997e-02 -2.153203029581231276e-01 -1.712204546460575211e-02 -1.423336148340480223e-01 -1.681768794516411702e-01 -1.490868164624767622e-01 -1.642734416958060994e-01 7.413132021549287409e-02 -1.268362557942615265e-01 -4.818568685484828085e-02 5.219316863971142084e-02 -1.040236558324343086e-01 -6.936469464941362462e-02 9.886134071647503796e-02 3.077596761210413603e-02 -6.232927459219893274e-02 -6.749064798114159935e-02 8.509333049780756775e-02 4.732766274844985716e-02 1.141793009428159894e-01 2.849854996821753472e-01 3.171942927016507263e-01 2.087895014593108556e-01 5.516763988874780200e-02 -7.213722634387979837e-02 1.135527109951877667e-01 2.742843745015863810e-01 2.997846390525338856e-01 -1.092525812112910520e-02 -1.654884322494939441e-01 -9.653056472633575469e-02 -1.651224238848604808e-01 -1.556673256975513731e-01 7.118493379294858585e-03 -1.145288099007946564e-01 -6.905088724522558119e-02 1.812877622595571170e-02 8.264378830893723271e-02 -5.383126445504322205e-02 3.220335011256924423e-02 -8.529535303115087785e-02 1.952283254686277766e-02 -8.176695057727416047e-03 8.369183878209986160e-02 5.885055312772530245e-02 1.782140922994752963e-02 -9.568808658065530715e-02 3.948874150872733191e-02 6.535289049318339372e-02 -1.743819120931087638e-02 -1.524310453795414133e-01 -1.756357779186472068e-01 -1.355238739600270470e-01 -5.613826877838500387e-03 1.042572568915781095e-01 2.166761128551656923e-01 2.568796835313829144e-02 -1.300737200001738092e-01 -1.974594123554588021e-01 -7.499367154207685349e-02 -4.440452460141981750e-02 7.003103638438135103e-02 -1.528660568791395946e-01 8.337762611849187933e-03 -9.674622696758065910e-02 5.450000196007407337e-03 2.915858088228256983e-02 8.323136203656736343e-02 -9.513079873967852929e-02 -3.439807589240347074e-02 -9.936074621103482829e-02 6.150962974339448108e-02 -1.424906958199264884e-01 -1.186603831640919565e-01 -2.156035999491642541e-01 -1.576368658942246814e-01 1.078914026652324637e-01 3.258264336937801570e-02 -1.013311209462346568e-01 -1.317369625135648981e-01 -1.157779307276267378e-01 1.563024942211756196e-01 2.763504253770296959e-01 5.408497772878106957e-01 2.202385285653832292e-01 7.214831772111687629e-03 -1.217132429957400591e-01 -1.274365797809316747e-01 -1.213707710250625793e-01 -1.723872677475651316e-01 -9.793543781931811354e-02 3.580299240026053875e-02 2.761877977187106661e-02 6.051373914374497814e-02 7.717376396844850828e-02 -6.699153695043930101e-02 -3.313424623213808567e-02 3.398218910758050992e-02 -3.459903882021388849e-02 -2.450900613302466405e-02 1.962355426301793174e-02 -2.184491832905700870e-01 -1.895623790164326639e-01 -1.429777997460844330e-01 -1.196564788385831926e-02 4.972649491200893321e-03 7.450585761890311798e-02 3.131709457054523277e-02 -3.172285651342741236e-02 9.973715942992542050e-02 2.997999563582295357e-01 4.021604942764602231e-01 5.283710562802192978e-01 1.408166374977931623e-01 -2.617096713354952198e-01 -3.485403270157220179e-01 -3.452384888634150162e-01 -4.171223819281195122e-01 -2.284819044346318995e-01 -3.832043359007838296e-02 -3.328211542536024803e-02 -1.615845693630192995e-02 7.086588101017614327e-02 -3.547918698505149460e-02 -4.811820236099962136e-03 8.389654805485025069e-02 -2.484759967003833878e-02 3.114898778713227900e-02 -4.077286565315438836e-03 -1.190709207642258877e-01 -9.999297645729923745e-02 -9.402077873118581952e-02 1.945594112127743691e-01 2.046793413136303690e-03 6.806288632585777432e-02 -4.512920468435840243e-02 -4.645243556412770314e-02 2.511639769549667833e-01 3.943720454394734620e-01 4.148625551831110481e-01 4.738316403468756932e-01 -5.964242859267613467e-02 -4.057338252633482800e-01 -5.322634880080748809e-01 -5.172187384964940238e-01 -3.780720756194304588e-01 -2.316273747813117345e-01 -9.906174557660644975e-02 -1.033052282090415747e-01 5.407645273107180434e-02 -7.166136610399100049e-02 -6.296703285447752263e-02 7.259490188585471238e-02 -5.859103821356947961e-02 -5.793669996786460219e-02 -1.289091472281611306e-01 -1.993588844853023678e-01 -2.475111985444532203e-01 -8.066402202442990443e-02 4.974315747282587186e-02 1.896464042348780521e-01 3.900331971696466282e-01 2.839742864690155688e-01 1.786299795138962254e-01 -3.683124318473921660e-02 2.292439712179300537e-01 5.299121053837054784e-01 3.640435040643761333e-01 3.113307275464837764e-01 -2.113285085902895377e-01 -5.318372092315769573e-01 -5.781704491137330537e-01 -4.832788087623088868e-01 -3.147881656234951531e-01 -3.037259803367665101e-01 -3.907709038679565289e-02 1.152126755244817363e-01 9.146292464542185585e-02 -2.146394492692560788e-02 6.219693035237870704e-02 5.133288335557431581e-02 -7.044211672127881352e-02 6.148094956851968967e-03 -1.705816413818521671e-01 -2.476856712454623410e-01 -1.855117874941810963e-01 -6.793367949833759023e-02 2.934033005533006819e-02 2.284310623818691099e-01 6.194657536859474734e-01 3.914360146888495873e-01 4.575994225712554653e-01 4.270076021563828372e-01 3.356495473511232897e-01 4.553231861501327304e-01 2.162543401782194424e-02 -2.133487492185729972e-01 -5.173744077532002050e-01 -5.053873733140105129e-01 -3.658353014480643095e-01 -1.890887086938944639e-01 -2.678324501849373984e-01 -7.132111041150543396e-02 -1.902244598351747473e-02 1.755457751749277262e-01 5.200973490289205470e-02 -6.475868849934922344e-02 8.202680514228534447e-02 6.440274611018846629e-02 4.212192704876057715e-03 -3.498081425008120471e-02 -1.352861838127560057e-01 -2.794543682646924987e-01 -8.936838012241432594e-02 -3.633300867341042462e-02 1.251700057255812348e-01 1.551105131882717092e-01 4.875248704883080042e-01 4.597286623081620616e-01 4.653310972557421765e-01 5.173096629938093161e-01 5.810004023101671411e-01 2.401530409310981828e-01 -2.454303371661789579e-01 -4.852871381564780040e-01 -3.936817955378707490e-01 -3.236958415365248087e-01 -2.541676960081516445e-01 1.109407798846476570e-02 -1.202950684749840293e-01 -1.021325744992151487e-02 8.544226353408317098e-02 1.377998091564085203e-01 1.234646041415178308e-01 -7.842670022957395903e-02 2.038196667826509476e-02 -6.009216727253603729e-02 2.531353221457805641e-02 -1.457948371215032034e-02 -1.921904069768440304e-01 -2.101296357710185359e-01 -2.568902565563972382e-02 2.029579978077300680e-03 1.961894997293385512e-01 1.977711138854716943e-01 2.851980612751432442e-01 2.452819602355614803e-01 2.202573775582678806e-01 3.623234146909455333e-01 2.914911920310069293e-01 -1.233260570690715152e-01 -2.755968996715125185e-01 -3.986585980411566088e-01 -3.142631918501057608e-01 -1.060496390514402282e-01 -5.511435357283629710e-02 6.308721466112979237e-02 2.720201367993803614e-03 6.146239463748313231e-02 1.071010887822675672e-01 7.437686605792653838e-02 5.287455513066237345e-02 -7.926378018134973280e-02 -8.457928198456611361e-05 -5.239727900047892739e-02 6.516543399525794901e-03 -9.925144117801051880e-02 -1.240803377587649942e-01 -2.234251860953571367e-01 -1.343139209581816484e-01 -6.245318604234331022e-02 1.719923275767892834e-01 1.645715540433855817e-01 2.581845806487523265e-01 1.589005522163048634e-01 9.442017883097217346e-02 1.681507646793756194e-01 -7.277671488062133209e-02 -1.812037675395137826e-01 -2.305087969824672622e-01 -2.220141366420843310e-01 -1.184298159547173268e-01 4.341013980497920866e-02 1.175263514476751620e-01 1.928089596326579280e-02 1.899505896315986393e-03 1.853810080002004090e-01 2.676088187405269991e-01 1.897961359958728056e-01 -1.542982119225309000e-02 -6.049521326378819869e-02 -2.702961177632460382e-02 3.209022842927281710e-02 1.359208190109254845e-02 -3.196496006367525317e-02 -4.837114379186444740e-02 -1.638002868336247420e-01 -2.875789957740448322e-01 -9.264800755857405257e-02 1.021773597213846974e-01 1.561439997633035370e-01 3.051736727892850332e-01 2.787725023891787224e-01 1.619297948540353305e-01 5.844167722039379093e-02 -6.402730438980795691e-02 -8.118543764052565948e-02 -2.289598437840395795e-01 -1.861257803658676879e-01 4.675779385116553971e-02 -3.261930093085326637e-02 -1.255567985578631912e-03 1.944655636620863009e-03 1.837208279643724462e-01 2.432375190655966246e-01 1.389551451001329874e-01 5.326569646688548987e-02 1.625776200334443436e-02 6.790315373737551563e-02 8.632448478224665628e-03 -8.516465525656834179e-02 -2.493062720490405500e-03 -5.759220340390226039e-02 -9.908137690782131690e-02 -6.328715929892757275e-02 -2.066432433634357024e-01 -1.953008272178027027e-01 -2.906648216023837578e-02 -7.362043717746540039e-02 4.929896987507705747e-02 4.357186549729621244e-02 1.873986791516305678e-02 6.114785346280686429e-02 -1.913760975165788580e-01 -2.622609364829227296e-02 -7.105359114456205605e-02 -1.024901334616977883e-01 -7.964129082901974521e-02 5.856135390322789007e-03 -4.255981159979337070e-02 1.820510379970906867e-01 2.235473335130383765e-01 1.034169469973039018e-01 1.169638028531740370e-01 5.736653153670653177e-02 6.858845599756902001e-02 -8.306640219790330237e-02 -8.227159338083454843e-02 3.763290291397689002e-02 -8.950516483512600818e-02 1.872884424917616942e-03 -1.067789686770960478e-01 -2.200626338706202292e-02 -2.871460863813343756e-01 -2.001079731361350145e-01 -3.815834771312093809e-01 -1.759362120714201561e-01 -4.920313978132827282e-02 -1.045577978147374659e-01 1.297956532367312626e-03 1.427099722655900405e-01 -1.097939973430510502e-01 -5.885054099843251008e-02 -4.433063613451185270e-02 -4.671502248412765651e-02 -1.401961904457834085e-01 -2.818354996525699110e-03 1.493714199394226561e-01 1.492841769879028335e-01 1.306545673061621730e-03 1.630823164429614364e-02 -3.706541390627231952e-02 7.427131820432834874e-02 7.131447604926630102e-02 -6.405188721852314582e-02 8.662010080126572587e-02 -5.381218886761657272e-03 -5.258100425296211022e-02 -4.032701739228272686e-02 1.194959208459405765e-04 -1.841578863991830683e-01 -1.117598361922843703e-01 -2.038656137565439119e-01 -2.703651073401209803e-01 -1.436767624485205119e-01 -1.714125258341346603e-01 -1.608358963977003231e-01 7.530628024178312452e-02 -3.575938252567818082e-02 -9.849616920702612688e-02 -1.945132018384001793e-01 -2.384946152625539925e-02 -3.491130592038443198e-02 -7.256951207011501891e-03 1.662005577261650713e-01 1.478469390489594026e-01 -1.063716297031916391e-02 -1.380069952433854615e-02 -7.000884495525205864e-02 5.760618785750960813e-02 1.267757313104317732e-02 -5.109898027564318407e-02 -4.466785276506446238e-03 -7.496167808815082378e-03 -7.134385027147438496e-02 -8.745478907998885387e-02 4.714730712848367450e-02 8.223985251754274695e-02 -1.712076527744908760e-02 1.075921149399776747e-02 -1.225738941448571984e-01 -1.261500363832876170e-01 -1.239519428700426723e-01 -7.014083553111820357e-02 -2.074110854270307946e-01 -2.183375092679903373e-01 -2.236613217644227158e-01 -1.784133222442585709e-01 -1.037247307144341935e-01 -1.051261895658174572e-01 4.403700646658143024e-04 -8.285185619905791055e-02 -1.371140461216169932e-03 1.802020172876133211e-02 2.715318051580216732e-02 -8.807049387553554654e-02 -8.656243229656417071e-02 7.968223928548358315e-02 -5.100262188091100185e-02 4.590557827712453583e-03 -3.096097042757886900e-02 -8.620819487311455476e-02 -4.518012829849354234e-02 -9.043412627693110661e-02 -4.037812875089574760e-02 7.311706708124399157e-02 8.294736948912276309e-02 6.411876168878365145e-02 -8.703303111017818977e-03 5.047003730785164233e-02 -5.923933416061256951e-02 -3.096366741692590380e-02 -2.727564040199341802e-02 -8.435004402693742354e-02 9.481911012975974273e-02 -7.347899442959507366e-02 5.928311800022346284e-02 4.111923252376477322e-02 4.847248741678723827e-02 -5.524068147503738424e-02 -1.396260633252094929e-01 1.462943734460027227e-02 -4.227213696709839624e-02 -1.234615822920996503e-01 -6.009527672338610405e-02 -5.135969699430364965e-03 -1.947616454933803753e-02 2.990985526291803018e-02 8.277444588230736811e-03 9.401920998210580582e-02 -6.584696030763129149e-02 6.578036017505931032e-02 -9.744935087316729250e-02 -7.214042459820112219e-02 -5.663762327749131270e-02 4.169039208850197631e-02 -5.271802367842919057e-02 1.216509952515168989e-02 -9.470319869372988142e-02 7.918329335615222064e-02 -1.493862591108876051e-02 -9.297164341544326971e-02 -8.834834243428998923e-02 -1.580142318780424632e-02 -7.752647430801132278e-02 -4.519981523945096336e-02 -5.142788559974161705e-02 7.086937529758866039e-02 -9.502677343458701409e-02 -2.445628331653368348e-02 2.610776252201708891e-02 -1.993464534901293050e-02 -4.262083669643369765e-02 -8.206742112386765375e-02 3.769846339715560157e-02 -4.680711759922018267e-03 1.447030746047535399e-02 6.747028898650350714e-02
